{"encode_conv_weights": [-0.03215409442782402, -0.048129644244909286, -0.005010269582271576, -0.034140460193157196, 0.021579235792160034, 0.058946169912815094, -0.05159240961074829, 0.0014505386352539062, -0.01194644346833229, 0.012870922684669495, -0.04976362735033035, -0.022039826959371567, -0.06224759668111801, 0.06832905858755112, -0.029212716966867447, -0.0032931938767433167, 0.0352138951420784, 0.020829007029533386, -0.027776189148426056, -0.049743134528398514, -0.024706006050109863, -0.0016891583800315857, -0.038913119584321976, -0.041669510304927826, -0.033303458243608475, -0.0632379949092865, -0.040376339107751846, -0.005807965993881226, 0.0027092546224594116, 0.05549667030572891, -0.006140321493148804, 0.055868960916996, -0.0307624414563179, 0.0034429728984832764, 0.039941444993019104, 0.04409527778625488, 0.025659389793872833, 0.030146144330501556, -0.05360529571771622, -0.008117854595184326, -0.06687374413013458, 0.04599772393703461, 0.027387559413909912, -0.026554103940725327, 0.02649526298046112, 0.04936888813972473, -0.024589255452156067, 0.021333545446395874, -0.030307359993457794, -0.014988362789154053, 0.020233668386936188, -0.00931854173541069, 0.05220913141965866, 0.03840723633766174, -0.016810227185487747, -0.058690279722213745, -0.02638588473200798, 0.04576185345649719, 0.048259347677230835, 0.03106474131345749, -0.04463886469602585, -0.020703013986349106, 0.05324185639619827, 0.0013078898191452026, 0.005381681025028229, 0.04987231642007828, 0.040396369993686676, -0.0698581412434578, -0.015907399356365204, -0.05790722370147705, 0.05132515728473663, 0.06671623140573502, -0.0620412714779377, 0.017448261380195618, 0.015552498400211334, 0.022405579686164856, 0.06297283619642258, -0.0008528456091880798, 0.027579613029956818, -0.04196200147271156, 0.0032437071204185486, -0.04107675701379776, 0.04569698125123978, -0.025406409054994583, 0.03901735693216324, 0.017515622079372406, -0.024492047727108, 0.04861854761838913, 0.04957616329193115, 0.02120913565158844, 0.03883706033229828, -0.024996742606163025, 0.04535456746816635, 0.025390274822711945, -0.056175924837589264, 0.015028119087219238, -0.03368084132671356, -0.06337545067071915, -0.0018604323267936707, -0.04502857103943825, 0.021182604134082794, 0.0638432428240776, -0.017666157335042953, 0.0312710702419281, 0.05480363965034485, -0.06021973863244057, 0.02849237620830536, 0.053540781140327454, 0.012263946235179901, 0.03629527986049652, -0.014691490679979324, -0.06864365935325623, 0.015433713793754578, 0.01757117360830307, -0.03180493414402008, -0.01311739906668663, 0.034245602786540985, 0.05488695204257965, 0.041946135461330414, 0.023865260183811188, -0.018080607056617737, 0.028606906533241272, 0.007386013865470886, -0.05131486803293228, -0.06516002863645554, 0.05560251325368881, -0.042412400245666504, 0.011950291693210602, 0.01733551174402237, 0.039086878299713135, 0.037833429872989655, 0.02544734627008438, -0.0056201741099357605, 0.06573902815580368, -0.032145120203495026, 0.05952288955450058, 0.03244200348854065, -0.00125141441822052, -0.06375427544116974, -0.027457021176815033, 0.061263300478458405, 0.030125021934509277, -0.06391144543886185, 0.03497486561536789, 0.04197142273187637, -0.007222115993499756, 0.037751659750938416, -0.0012853965163230896, -0.035342875868082047, -0.0364246740937233, -0.05922609940171242, -0.05733448266983032, -0.04961669445037842, -0.004270240664482117, 0.062043897807598114, -0.06862004846334457, 0.002636916935443878, 0.0017515122890472412, 0.00524081289768219, 0.05357930064201355, 0.007960423827171326, -0.05836990103125572, -0.027046583592891693, -0.02423795312643051, 0.06941007822751999, -0.0016225948929786682, -0.019947446882724762, 0.0007258281111717224, 0.010856017470359802, 0.05114135146141052, -0.06313211470842361, -0.011960554867982864, -0.06867694854736328, -0.001000814139842987, 0.06432066112756729, 0.03437543660402298, -0.027605220675468445, -0.045624326914548874, -0.03450324386358261, 0.019408248364925385, 0.02037983387708664, -0.018862757831811905, 0.033713869750499725, -0.0034594759345054626, -0.034408263862133026, 0.010487131774425507, -0.06504926085472107, 0.034855104982852936, -0.06448939442634583, 0.03971071541309357, -0.046104028820991516, -0.05953851342201233, -0.011781178414821625, 0.0009480640292167664, 0.034533947706222534, -0.04793885350227356, -0.021702803671360016, -0.014523297548294067, 0.01633591204881668, -0.01492340862751007, 0.010278984904289246, 0.014714457094669342, -0.0416291318833828, -0.015921879559755325, -0.03728673979640007, -0.03454544022679329, 0.032438792288303375, -0.025308668613433838, -0.061193786561489105, -0.022589601576328278, -0.05572458356618881, 0.043508246541023254, 0.007116556167602539, 0.054672397673130035, -0.056285545229911804, 0.0037665441632270813, 0.0022199824452400208, 0.03777678310871124, 0.06151648610830307, 0.04065228998661041, -0.00045815110206604004, 0.004603035748004913, -0.0032002627849578857, 0.04140014201402664, -0.021503765136003494, -0.03955011069774628, -0.0602475181221962, 0.005404748022556305, -0.048625968396663666, -0.04531841725111008, 0.01042572408914566, -0.041970741003751755, 0.06092149764299393, 0.03052385151386261, 0.017052866518497467, 0.014579713344573975, -0.06289080530405045, 0.025261610746383667, -0.041146330535411835, -0.012659747153520584, 0.006161414086818695, -0.022572390735149384, 0.007480591535568237, 0.014111801981925964, -0.0203300341963768, 0.009065769612789154, -0.01128498837351799, -0.005276083946228027, 0.020556099712848663, -0.06500785797834396, 0.038833484053611755, 0.041054867208004, 0.06764265149831772, -0.05499936640262604, -0.04485045373439789, -0.01209334284067154, 0.014644458889961243, -0.05458133667707443, 0.06238503009080887, -0.04512741044163704, 0.0316782221198082, 0.058027155697345734, -0.026707690209150314, -0.006778717041015625, -0.050640881061553955, 0.010480031371116638, -0.030140310525894165, 0.05479931831359863, -0.03561165928840637, 0.007513701915740967, -0.06417381018400192, 0.007135599851608276, 0.047806717455387115, 0.049776747822761536, -0.06002276390790939, 0.05785255879163742, -0.053105488419532776, -0.004352495074272156, 0.009823396801948547, -0.024046912789344788, -0.021317914128303528, 0.059362463653087616, 0.05704504996538162, 0.048105910420417786, -0.058062534779310226, -0.058253947645425797, -0.06820127367973328, -0.0029457658529281616, -0.04407070577144623, -0.02816440537571907, 0.05753331631422043, 0.01615067571401596, -0.04681014269590378, -0.05442266911268234, -0.012882482260465622, 0.018642686307430267, -0.005256175994873047, -0.04266763851046562, -0.06154870241880417, 0.02827870100736618, 0.03324327617883682, -0.013078846037387848, 0.06200651079416275, -0.01668320596218109, -0.031058169901371002, 0.00075492262840271, -0.02331610769033432, -0.003353424370288849, -0.06433107703924179, 0.0626411959528923, -0.02123352140188217, -0.0552150160074234, 0.05405879020690918, 0.051784731447696686, -0.05495630204677582, -0.037047069519758224, 0.0127711221575737, 0.053477272391319275, 0.0504918172955513, -0.017132047563791275, 0.0358007475733757, -0.013193711638450623, 0.03850184381008148, -0.06060148775577545, -0.046883463859558105, -0.002293892204761505, -0.06415113806724548, 0.06603846698999405, 0.017465628683567047, -0.008895188570022583, -0.037695568054914474, -0.05034594610333443, -0.006781160831451416, -0.06385084986686707, -0.04764466732740402, 0.02684268355369568, -0.0626591145992279, -0.059437960386276245, 0.04425201565027237, -0.030065760016441345, 0.05512676388025284, -0.03938130661845207, 0.05022091418504715, 0.026332519948482513, -0.011312317103147507, -0.03213503211736679, 0.03228276968002319, -0.051576390862464905, -0.022508513182401657, 0.04480884224176407, -0.043405722826719284, -0.005201034247875214, -0.00031247735023498535, 0.04603604972362518, -0.014945454895496368, 0.016338184475898743, 0.04807748645544052, -0.010529082268476486, 0.0201096311211586, 0.007493749260902405, -0.03214883431792259, 0.05545131117105484, -0.054985515773296356, 0.03579089790582657, 0.0013265162706375122, -0.03857249394059181, -0.052748095244169235, 0.018273919820785522, -0.02967739850282669, -0.03479021415114403, -0.04645086079835892, 0.008612558245658875, -0.006028503179550171, 0.04204525798559189, -0.03742604702711105, 0.05086859315633774, 0.019805066287517548, 0.045779190957546234, -0.037139613181352615, -0.019310958683490753, -0.0068489983677864075, 0.012268811464309692, 0.06834348291158676, -0.036758970469236374, 0.008841447532176971, -0.06612015515565872, -0.03131559491157532, 0.029140286147594452, 0.03784611076116562, 0.06167919188737869, -0.0416128933429718, 0.06010621041059494, 0.00025296956300735474, -0.06644376367330551, -0.04459263011813164, 0.044892147183418274, 0.0015942230820655823, 0.008778877556324005, 0.059164442121982574, -0.05091027170419693, -0.053232334554195404, -0.06275366246700287, 0.06276562064886093, 0.0491383820772171, -0.01644844189286232, 0.006496816873550415, 0.060247860848903656, -0.06974034756422043, -0.017943281680345535, -0.009919341653585434, 0.02101796120405197, -0.033342089504003525, 0.05741364508867264, -0.04522385820746422, 0.06359066814184189, 0.029516354203224182, 0.013386957347393036, -0.0441754087805748, 0.03488585352897644, 0.005379617214202881, -0.061991170048713684, 0.051151178777217865, 0.03527349978685379, -0.05488123372197151, -0.006203681230545044, 0.005322270095348358, 0.006832718849182129, -0.008226700127124786, -0.06136685237288475, -0.05731707066297531, -0.054108649492263794, 0.001647748053073883, 0.01397164911031723, -0.033529844135046005, 0.03427531570196152, 0.0038520172238349915, -0.039854686707258224, -0.036093976348638535, 0.06464546173810959, -0.056398406624794006, 0.06247863918542862, -0.04139640927314758, 0.06023406237363815, -0.06913525611162186, 0.05952591449022293, -0.061367303133010864, 0.014498338103294373, -0.02899949625134468, -0.06889473646879196, 0.03377734124660492, 0.001526854932308197, -0.05155239999294281, -0.029738806188106537, 0.059526197612285614, 0.019862055778503418, -0.007041364908218384, 0.036328062415122986, 0.0636366680264473, 0.024131692945957184, -0.04473370313644409, 0.02025274932384491, 0.05246003717184067, 0.06662673503160477, 0.04015888273715973, 0.029686830937862396, 0.01967853307723999, 0.025235183537006378, -0.015826262533664703, 0.033110037446022034, -0.025022897869348526, 0.021903038024902344, -0.055922966450452805, 0.010941490530967712, -0.06941758096218109, 0.012390010058879852, -0.009711042046546936, -0.0494297556579113, 0.020795315504074097, 0.03983394801616669, -0.049460578709840775, 0.01470060646533966, 0.0035190358757972717, 0.0662865862250328, -0.01584034040570259, 0.045058608055114746, -0.06486646085977554, 0.06375368684530258, -0.007544044405221939, 0.021801739931106567, -0.03189258277416229, 0.0580960288643837, 0.013439148664474487, -0.010552424937486649, 0.013251416385173798, 0.04249957203865051, -0.03323313221335411, 0.05642720311880112, 0.05975324660539627, 0.013109229505062103, -0.006864368915557861, -0.02083010971546173, 0.015294499695301056, 0.05063813924789429, -0.011886116117238998, -0.06445199996232986, -0.04488501325249672, -0.056918345391750336, -0.04923873767256737, 0.02066909521818161, -0.05644015967845917, 0.06840880960226059, 0.018137402832508087, 0.043864257633686066, -0.04092266038060188, 0.028926491737365723, 0.055461443960666656, 0.04462430626153946, 0.06494847685098648, 0.03988133370876312, 0.030978627502918243, 0.0342739075422287, 0.029392704367637634, 0.01911032199859619, -0.02180160954594612, -0.014921322464942932, -0.032537687569856644, 0.03004331886768341, -0.010779209434986115, 0.036551862955093384, 0.026082761585712433, 0.0510270893573761, -0.04411458596587181, -0.04998524487018585, -0.028648220002651215, -0.04367581009864807, -0.04612644761800766, -0.01623569428920746, 0.04344997555017471, 0.023290112614631653, -0.04499761760234833, -0.026928357779979706, 0.0414545014500618, -0.03397759795188904, -0.05725526064634323, 0.057450033724308014, 0.059989430010318756, -0.035504888743162155, 0.0677584782242775, 0.04611627012491226, -0.051846250891685486, -0.06546050310134888, -0.031073033809661865, 0.013446874916553497, -0.026736944913864136, 0.03309357911348343, 0.025143548846244812, -0.0441259890794754, -0.00732075423002243, -0.05713332071900368, -0.0011911019682884216, 0.0010641291737556458, -0.0070563629269599915, 0.036729298532009125, 0.015382297337055206, -0.029425084590911865, 0.02837418019771576, 0.020205728709697723, 0.05319423973560333, -0.06413865089416504, -0.019489452242851257, 0.06328197568655014, -0.06579680740833282, -0.04015388339757919, 0.03855190426111221, -0.03094189241528511, -0.007665611803531647, -0.04423380270600319, 0.007398627698421478, 0.055399246513843536, -0.055493831634521484, 0.0501144602894783, -0.06380358338356018, -0.008391410112380981, -0.006723761558532715, 0.06523247808218002, -0.0652448832988739, -0.01833440363407135, -0.035350628197193146, -0.044450074434280396, 0.05138923227787018, -0.025619782507419586, -0.0014873072504997253, 0.055858857929706573, -0.004881329834461212, -0.033508867025375366, -0.06995217502117157, 0.05117736756801605, 0.019330114126205444, -0.029526300728321075, 0.053608424961566925, -0.06759103387594223, -0.05873873457312584, -0.026560280472040176, 0.03181486576795578, -0.016754712909460068, -0.04467111825942993, -0.03552085533738136, 0.0023672953248023987, -0.06646304577589035, 0.01088644564151764, -0.05468772351741791, -0.02013557404279709, -0.015888333320617676, -0.032185718417167664, -0.06311267614364624, 0.061282865703105927, 0.04404744505882263, -0.027301203459501266, -0.00039646774530410767, -0.0018547624349594116, -0.04415224492549896, -0.026115067303180695, 0.06068796664476395, 0.03165382891893387, -0.027504194527864456, -0.04596516489982605, -0.06033533066511154, -0.060025881975889206, -0.04436499625444412, -0.03246380388736725, -0.06817425042390823, 0.059038616716861725, -0.03395343944430351, -0.05292925983667374, -0.026432201266288757, -0.02167258784174919, 0.052759021520614624, 0.013850562274456024, 0.057901449501514435, 0.06830302625894547, 0.024458564817905426, -0.02047894522547722, -0.03694669157266617, 0.03648146986961365, -0.005901068449020386, -0.009380694478750229, -0.05892585217952728, -0.03316401317715645, -0.03935379534959793, -0.047133125364780426, -0.05177035182714462, 0.028800077736377716, -0.06541863828897476, 0.005987174808979034, -0.06941687315702438, -0.046734247356653214, 0.02428862452507019, 0.002452440559864044, -0.024279415607452393, 0.0588725283741951, -0.03359567001461983, 0.01063576340675354, -0.035221245139837265, -0.016480129212141037, -0.015874292701482773, -0.022238027304410934, -0.03150105103850365, -0.02264021337032318, 0.03526140749454498, -0.009532865136861801, 0.006855428218841553, -0.041603803634643555, 0.010279007256031036, 0.042763851583004, 0.053095847368240356, -0.02335653454065323, 0.00741036981344223, -0.05416351929306984, 0.002856925129890442, 0.028798773884773254, -0.025147855281829834, 0.006519094109535217, -0.023782193660736084, -0.02644931897521019, 0.0418921634554863, -0.0411069318652153, -0.02818089723587036, 0.06660518795251846, -0.01040884479880333, 0.00021488219499588013, 0.03896823525428772, 0.03169785439968109, -0.06611742824316025, 0.04713434725999832, -0.034740038216114044, 0.03057336062192917, 0.060211025178432465, -0.013765599578619003, -0.010827604681253433, 0.03297550231218338, -0.04163108021020889, 0.001899920403957367, 0.003599390387535095, -0.06005644053220749, -0.06083747744560242, -0.042144257575273514, -0.05920804291963577, 0.019141703844070435, 0.06089401990175247, 0.04797546565532684, 0.010451830923557281, -0.050359826534986496, -0.04116696119308472, -0.04779411107301712, 0.044291093945503235, 0.03630150854587555, 0.026311077177524567, -0.026773985475301743, 0.01032867282629013, -0.06104959547519684, -0.0435190312564373, -0.04679045081138611, 0.009562820196151733, 0.012547627091407776, -0.028863582760095596, -0.008918579667806625, 0.027649320662021637, 0.035581886768341064, 0.01452171802520752, 0.003407716751098633, -0.048451393842697144, -0.029412198811769485, 0.013951011002063751, 0.03857988864183426, 0.059612296521663666, 0.01216404139995575, 0.029641859233379364, -0.006119564175605774, 0.05637063831090927, 0.03874106705188751, 0.033235982060432434, -0.054883528500795364, 0.05022533982992172, -0.06311102211475372, 0.0043441131711006165, 0.0384029820561409, -0.012323301285505295, -0.019185777753591537, 0.026101790368556976, 0.06221068650484085, 0.05059497803449631, -0.04287669062614441, -0.03956077620387077, -0.011139340698719025, -0.032881855964660645, 0.04831442981958389, -0.02072397619485855, 0.030842162668704987, -0.049438655376434326, 0.021606579422950745, -0.014415420591831207, 0.06705591827630997, -0.05031237751245499, 0.05003964155912399, -0.034341320395469666, 0.04433952271938324, 0.001822248101234436, 0.015578404068946838, -0.03893720731139183, -0.023579079657793045, -0.014571763575077057, -0.06243406981229782, -0.021811410784721375, -0.011184349656105042, 0.04105949401855469, -0.002179838716983795, -0.060417838394641876, -0.061871740967035294, 0.006384328007698059, -0.019536588340997696, -0.037844277918338776, 0.030965954065322876, 0.04200471192598343, 0.009996362030506134, 0.026056349277496338, -0.020766805857419968, 0.03815528750419617, -0.02915934845805168, -0.060378044843673706, -0.03461804986000061, -0.028042994439601898, 0.06689571589231491, 0.05639716237783432, -0.005073815584182739, -0.06477862596511841, -0.011432904750108719, -0.026832956820726395, -0.038188375532627106, 0.0062142014503479, -0.012990426272153854, -0.04209879785776138, 0.06519914418458939, 0.04138534516096115, 0.012865342199802399, -0.04994882643222809, 0.058194778859615326, -0.038880765438079834, -0.048626285046339035, -0.05700155347585678, -0.04820431023836136, 0.01728951930999756, -0.006114676594734192, -0.03294816613197327, 0.004445530474185944, 0.05166268348693848, 0.0023589730262756348, -0.016870390623807907, 0.025011762976646423, -0.06796867400407791, -0.012931972742080688, 0.04672015458345413, -0.006466127932071686, 0.05718270689249039, -0.03526413068175316, -0.01606591045856476, 0.055582158267498016, 0.02545110136270523, -0.008408039808273315, -0.03869061544537544, 0.024746917188167572, 0.025580137968063354, 0.033545687794685364, -0.028586003929376602, 0.04962679743766785, -0.037199608981609344, 0.0071141719818115234, -0.05623110011219978, 0.0376332625746727, -0.046743229031562805, -0.02042602002620697, -0.0024694427847862244, 0.025642894208431244, 0.027215175330638885, -0.02454812452197075, 0.05865178257226944, 0.0027901679277420044, 0.01944783329963684, -0.043348729610443115, -0.05713818222284317, 0.006422273814678192, -0.06000048294663429, 0.06524042040109634, 0.04575199633836746, -0.04622650891542435, 0.05317877233028412, -0.0452868714928627, -0.003574468195438385, 0.015478812158107758, 0.0029827356338500977, 0.0014247000217437744, -0.0072749704122543335, -0.018729042261838913, -0.019567880779504776, 0.0188756063580513, -0.010572079569101334, -0.030776500701904297, 0.00900343805551529, 0.0573873445391655, -0.04763764888048172, 0.0073503851890563965, 0.004340425133705139, 0.0678868219256401, -0.010959483683109283, -0.028673559427261353, 0.06550820916891098, 0.002246290445327759, 0.06243693083524704, -0.054858870804309845, 0.04242919385433197, -0.01925269141793251, -0.03934679180383682, 0.047621794044971466, 0.06989831477403641, 0.0686177983880043, -0.02288113534450531, 0.011653587222099304, 0.02964925765991211, -0.055292077362537384, 0.023929305374622345, 0.06714531034231186, -0.02435418590903282, 0.03595477342605591, 0.053070567548274994, -0.06891011446714401, 0.0405406579375267, 0.0006218552589416504, -0.053908225148916245, -0.042443543672561646, 0.023646526038646698, 0.026485227048397064, 0.06742224842309952, -0.019595425575971603, 0.04448593407869339, -0.010632205754518509, -0.049907125532627106, -0.06714673340320587, -0.05018182098865509, 0.059267349541187286, -0.05593709647655487, -0.005822345614433289, 0.04100431501865387, 0.06443863362073898, -0.06631981581449509, -0.01974644511938095, -0.05660107359290123, -0.05808666720986366, -0.03982822224497795, -0.009107809513807297, 0.03450198471546173, 0.00936046987771988, 0.027581602334976196, -0.0009027794003486633, 0.06383300572633743, -0.04781148210167885, 0.01632232964038849, -0.04193514585494995, 0.061387933790683746, -0.012654926627874374, -0.058399878442287445, 0.029838576912879944, -0.05611134320497513, 0.05109899491071701, -0.05619506165385246, -0.02187391370534897, 0.019744209945201874, 0.06194552034139633, 0.0030663758516311646, 0.005794130265712738, -0.0022103041410446167, -0.02470172941684723, 0.015882469713687897, -0.060466259717941284, 0.0010404810309410095, -0.026806339621543884, -0.0495472252368927, 0.023604579269886017, -0.0027899444103240967, -0.0035165250301361084, -0.030002977699041367, -0.010410718619823456, 0.03045748919248581, 0.04826886206865311, -0.04687296599149704, 0.016314975917339325, -0.03521861135959625, -0.0540936142206192, -0.018220417201519012, 0.010950401425361633, -0.03472207859158516, 0.024500593543052673, -0.0447511151432991, -0.06692607700824738, -0.04780344292521477, -0.04022254794836044, 0.032258421182632446, -0.032773762941360474, 0.011735230684280396, 0.05152101069688797, 0.014426745474338531, 0.014474794268608093, 0.06421809643507004, -0.050678547471761703, -0.026300184428691864, 0.04580240696668625, -0.06225840002298355, 0.05383952707052231, 0.0113595649600029, 0.04776245355606079, 0.059105031192302704, -0.051945216953754425, -0.009806722402572632, 0.03973931074142456, 0.027784988284111023, -0.026561234146356583, 0.037687718868255615, 0.003116711974143982, -0.041220612823963165, -0.028284918516874313, -0.06163616105914116, 0.047869689762592316, 0.005715459585189819, -0.007924053817987442, 0.0518827810883522, 0.006394840776920319, -0.04350288584828377, -0.04242502897977829, -0.03244300186634064, -0.027040142565965652, 0.027164757251739502, 0.05074339359998703, -0.014253955334424973, 0.0018580257892608643, 0.03262430429458618, 0.031863078474998474, -0.061259910464286804, 0.06604749709367752, 0.0331873819231987, 0.00576213002204895, -0.0689735859632492, -0.049466609954833984, 0.016066834330558777, -0.011171095073223114, 0.007310360670089722, -0.023612868040800095, 0.055452682077884674, 0.05437689274549484, 0.047499872744083405, 0.06977982074022293, -0.036301128566265106, 0.013621807098388672, -0.04071100056171417, 0.05056940019130707, -0.06527047604322433, -0.01826111599802971, 0.057331301271915436, -0.017861898988485336, 0.04778528958559036, -0.06526613235473633, -0.016364287585020065, -0.03937889263033867, -0.06647088378667831, -0.010109826922416687, -0.001695871353149414, -0.05183275043964386, 0.058021657168865204, -0.04037006199359894, -0.029306214302778244, -0.06821740418672562, 0.05384456366300583, -0.05992446839809418, -0.025021109730005264, 0.009135529398918152, -0.04191378504037857, -0.00847432017326355, -0.0016708895564079285, -0.0662030279636383, -0.0018924996256828308, -0.05185539275407791, -0.018934033811092377, -0.03144824877381325, -0.000768519937992096, 0.015958957374095917, -0.043586619198322296, 0.03186303377151489, 0.053848959505558014, 0.0019608736038208008, -0.040681179612874985, 0.028001457452774048, -0.029800407588481903, 0.06597631424665451, 0.02605736255645752, 0.061346836388111115, -0.03329366073012352, -0.019930638372898102, -0.008078835904598236, 0.06067527085542679, -0.05043654143810272, -0.001384831964969635, 0.017283178865909576, 0.05908928066492081, 0.06276794523000717, -0.04590781778097153, -0.04374239593744278, -0.003562420606613159, -0.006274700164794922, -0.03226246312260628, -0.05688745528459549, 0.016205519437789917, -0.04603279381990433, -0.038001544773578644, 0.057238779962062836, -0.022608458995819092, -0.038900814950466156, 0.004787921905517578, 0.030026428401470184, 0.003979407250881195, 0.007698923349380493, -0.053713005036115646, 0.009859777987003326, 0.03150690346956253, -0.03661755099892616, 0.04821227490901947, 0.028433844447135925, -0.03201505169272423, 0.06602070480585098, 0.029265403747558594, 0.059052713215351105, 0.00048273056745529175, -0.04127270728349686, 0.06799077242612839, -0.05381080508232117, 0.012443959712982178, 0.030978336930274963, 0.03395131975412369, -0.03297331929206848, 0.022526130080223083, 0.02896086871623993, 0.023039638996124268, 0.024769216775894165, -0.05328282713890076, -0.011623729020357132, -0.03022061660885811, 0.03609128296375275, -0.011433899402618408, 0.06815347820520401, -0.06679323315620422, -0.06634265929460526, 0.04742920398712158, 0.0013741999864578247, 0.050488777458667755, 0.005564332008361816, 0.0017948076128959656, 0.02926391363143921, 0.06619294732809067, 0.03342466056346893, 0.04031418263912201, -0.0003770068287849426, -0.03573737293481827, 0.03920607268810272, -0.057367321103811264, 0.06014019995927811, -0.04610597714781761, 0.05573783069849014, 0.0612882599234581, -0.06942819058895111, -0.05173773318529129, -0.03899870812892914, -0.0013851523399353027, 0.06461376696825027, 0.040194377303123474, 0.026588916778564453, -0.016603656113147736, 0.01795218139886856, -0.047347310930490494, -0.06969128549098969, -0.04163563624024391, -0.0406290628015995, 0.019274145364761353, 0.028001263737678528, 0.04599530249834061, 0.0463542565703392, 0.04091266542673111, 0.04602380841970444, -0.05720870569348335, -0.012361761182546616, 0.034169793128967285, 0.00801655650138855, -0.04503551870584488, 0.043108657002449036, -0.05151499807834625, 0.06513022631406784, -0.015191376209259033, 0.06090233474969864, -0.061101142317056656, 0.061810098588466644, 0.004096753895282745, -0.05289601534605026, 0.00953008234500885, 0.030581772327423096, -0.004798673093318939, -0.0007399693131446838, -0.05106920003890991, -0.0633450523018837, 0.06464525312185287, 0.06413187831640244, -0.027660973370075226, -0.0026232749223709106, -0.03124770149588585, -0.002399645745754242, 0.059974946081638336, 0.03628107160329819, -0.05398460477590561, 0.04453793913125992, -0.06935577839612961, -0.03818909823894501, -0.048801325261592865, -0.03305480629205704, -0.03477778658270836, 0.008372187614440918, -0.009615451097488403, 0.06563340872526169, -0.0006644278764724731, -0.05099478363990784, -0.050637803971767426, 0.046516627073287964, -0.03731195256114006, 0.06060395389795303, -0.03594538941979408, 0.056222520768642426, -0.047515735030174255, 0.015566863119602203, -0.06972865760326385, -0.06692314893007278, -0.03420402854681015, 0.0022502541542053223, -0.002342335879802704, -0.017988909035921097, 0.04437357932329178, -0.06553929299116135, 0.05398804694414139, 0.04892110824584961, -0.0513203926384449, 0.040583536028862, 0.01643543690443039, -0.0231635719537735, -0.02274390310049057, -0.014357376843690872, 0.01590912789106369, -0.06754519790410995, -0.005141302943229675, -0.05205922573804855, 0.054159149527549744, 0.0004955530166625977, 0.06851346045732498, -0.012374695390462875, 0.03918885439634323, 0.028522908687591553, -0.03833503648638725, -0.002792753279209137, -0.05304820090532303, -0.0038556307554244995, 0.04808897525072098, -0.061124518513679504, 0.0004876255989074707, 0.02938862144947052, 0.055169619619846344, -0.058424558490514755, -0.012067724019289017, -0.06957566738128662, -0.03862505778670311, -0.06752926111221313, 0.05078408122062683, -0.039786916226148605, -0.05939572677016258, -0.05751907825469971, -0.04154767841100693, -0.06109526753425598, -0.03746708855032921, 0.03607838600873947, -0.06309251487255096, 0.04282072186470032, -0.05276202782988548, -0.05362371727824211, -0.028516877442598343, -0.04236891493201256, -0.0011445805430412292, 0.028166666626930237, 0.03927168250083923, 0.04632393270730972, -0.02143731340765953, -0.007753361016511917, -0.05630010366439819, 0.05040702968835831, 0.009967893362045288, -0.027126703411340714, -0.06973554193973541, -0.023321613669395447, 0.033438220620155334, 0.042230553925037384, 0.03566431999206543, 0.01586112380027771, 0.03209029883146286, -0.038472600281238556, 0.053627222776412964, -0.037990327924489975, -0.024411901831626892, 0.0074972063302993774, -0.03579778969287872, -0.025859806686639786, -0.06095431372523308, 0.0012172088027000427, 0.049660153687000275, 0.04020003229379654, 0.06097448617219925, -0.04927593842148781, -0.0333532951772213, 0.005679771304130554, 0.02038092166185379, 0.04545370489358902, -0.009131506085395813, 0.019840717315673828, -0.06757756322622299, -0.028881072998046875, 0.015276744961738586, 0.044689759612083435, 0.002098172903060913, 0.0037012770771980286, -7.414817810058594e-05, -0.018309876322746277, -0.0035329461097717285, -0.062092218548059464, -0.057463306933641434, -0.04303427413105965, -0.02430417761206627, -0.03216303884983063, -0.05030364543199539, 0.054646894335746765, -0.023021645843982697, 0.0672459676861763, 0.024735257029533386, 0.04670450836420059, 0.0031780824065208435, 0.06324941664934158, 0.011284962296485901, -0.048437684774398804, -0.06697605550289154, -0.004993557929992676, -0.05135715380311012, -0.03904331475496292, 0.04671101272106171, 0.04938424378633499, -0.015471678227186203, -0.03849959373474121, -0.007886208593845367, 0.0384962260723114, 0.0454331710934639, 0.022971905767917633, 0.027742333710193634, -0.06916006654500961, -0.03686651960015297, -0.011877074837684631, -0.0070428550243377686, -0.037502214312553406, -0.04661427438259125, 0.005683600902557373, 0.009748823940753937, -0.005085468292236328, 0.015457510948181152, 0.034482039511203766, -0.018917471170425415, 0.0012876614928245544, 0.03800163418054581, 0.025395579636096954, -0.03226443752646446, -0.06200094148516655, -0.04461030662059784, -0.0634596198797226, -0.021785438060760498, 0.06058897823095322, 0.0188712477684021, -0.0013637468218803406, 0.0310647115111351, 0.009692937135696411, 0.00037504732608795166, 0.05005919933319092, -0.019115224480628967, -0.0022136643528938293, -0.029221858829259872, 0.0673213079571724, -0.02937205508351326, 0.002723090350627899, 0.03521255403757095, 0.013358116149902344, -0.05399157851934433, 0.0430649071931839, -0.01318199560046196, 0.0014945417642593384, 0.006640277802944183, -0.05705972760915756, -0.06408920884132385, 0.012636646628379822, -0.0054299235343933105, -0.054944127798080444, -0.042841121554374695, 0.06148681789636612, -0.04312944412231445, 0.04046151041984558, 0.040358707308769226, 0.04410887509584427, 0.01839718222618103, 0.0634998306632042, -0.05551934242248535, 0.03883504122495651, 0.04086895287036896, 0.06474342197179794, 0.05960730463266373, 0.0033288225531578064, -0.03366531804203987, -0.007258877158164978, 0.007173873484134674, 0.012443535029888153, -0.04616018384695053, 0.022349417209625244, 0.04866493493318558, -0.014655474573373795, -0.020479019731283188, -0.013404712080955505, 0.05484931170940399, -0.002891063690185547, 0.039138443768024445, 0.018240660429000854, -0.001668006181716919, 0.02182278037071228, -0.022222716361284256, -0.00011265277862548828, 0.03708405792713165, -0.05619136244058609, 0.014252841472625732, -0.014596186578273773, 0.0011549144983291626, -0.014704238623380661, -0.03934041038155556, -0.04328973963856697, 0.06302370876073837, 0.013330668210983276, 0.04105367511510849, 0.05910179764032364, -0.05261945724487305, -0.05802222341299057, 0.039996616542339325, -0.009425759315490723, -0.03298592194914818, -0.06426765769720078, 0.06707655638456345, 0.06967579573392868, -0.013233661651611328, -0.048598237335681915, 0.048985786736011505, 0.041207894682884216, -0.042132455855607986, 0.04300302267074585, -0.05062150955200195, 0.049629390239715576, -0.025430936366319656, 0.04731602966785431, 0.019759342074394226, -0.0065354034304618835, 0.05782452970743179, -0.019693229347467422, 0.02149195224046707, 0.005869738757610321, 0.0027086660265922546, -0.04472196102142334, -0.011776294559240341, -0.055676527321338654, -0.050601184368133545, 0.018252111971378326, 0.048966750502586365, -0.06938063353300095, -0.004883602261543274, -0.06478502601385117, 0.05416935682296753, 0.06614775210618973, 0.05795534700155258, 0.025384023785591125, -0.061546146869659424, -0.00616946816444397, -0.042620740830898285, -0.008010581135749817, 0.036868900060653687, -0.025256242603063583, 0.05877193063497543, -0.0034078210592269897, 0.04672212898731232, 0.06383530050516129, -0.02984403818845749, -0.03355487436056137, -0.01885668933391571, 0.028320468962192535, 0.02169155329465866, 0.004669696092605591, -0.0058165788650512695, -0.010501634329557419, 0.012672178447246552, -0.055683210492134094, -0.04907878488302231, -0.05124598741531372, 0.058126650750637054, 0.054931432008743286, 0.03679344803094864, -0.05702519789338112, 0.032095395028591156, 0.019398733973503113, -0.06817369908094406, -0.0028411298990249634, 0.03913441300392151, 0.031505197286605835, -0.05824579298496246, -0.06522135436534882, 0.0005041807889938354, -0.021200008690357208, 0.026233136653900146, -0.018039468675851822, -0.03830259293317795, 0.0012737289071083069, -0.05944712087512016, 0.02550145983695984, 0.010466821491718292, -0.02990478277206421, -0.032371412962675095, 0.061535440385341644, -0.02412857860326767, -0.0473184660077095, 0.04769358038902283, 0.05311974138021469, -0.016708794981241226, 0.010716818273067474, -0.06522435694932938, 0.06283704191446304, -0.06603144854307175, -0.0651564821600914, 0.009959124028682709, 0.06345375627279282, -0.05695123225450516, -0.004061155021190643, -0.0074375346302986145, -0.06745127588510513, -0.06325564533472061, -0.0027038604021072388, 0.024102479219436646, 0.04476313292980194, -0.016033444553613663, -0.025519810616970062, 0.010624267160892487, 0.06871072202920914, 0.06931348890066147, -0.060080233961343765, 0.0657007172703743, -0.017482038587331772, -0.01597689837217331, -0.0009452402591705322, 0.04090137779712677, -0.05510209500789642, -0.04214158654212952, 0.0695677176117897, 0.035333432257175446, 0.04590141028165817, -0.057613104581832886, 0.0010777190327644348, 0.04500741511583328, 0.04410730302333832, -0.04466542229056358, -0.03132045641541481, 0.0021949931979179382, -0.009570572525262833, -0.019885879009962082, 0.019810490310192108, 0.024566419422626495, -0.06050529703497887, 0.05583476275205612, -0.014912627637386322, -0.06876914203166962, -0.04849730059504509, -0.004309609532356262, 0.030990414321422577, -0.027530867606401443, -0.005060203373432159, 0.04619324207305908, 0.03262828290462494, -0.004037968814373016, -0.05297479033470154, 0.043076932430267334, -0.0016607418656349182, -0.01090933009982109, -0.02976495772600174, 0.0017791613936424255, 0.04333928972482681, -0.016133490949869156, -0.025568965822458267, -0.05521965026855469, -0.018321402370929718, 0.06927623599767685, 0.060870908200740814, -0.025367122143507004, 0.005182765424251556, -0.03296169266104698, -0.06765755265951157, 0.0663684532046318, -0.022054873406887054, -0.01782378926873207, 0.03644229471683502, -0.04417677968740463, 0.049418069422245026, 0.03959120064973831, -0.02623111754655838, 0.014662183821201324, 0.05125972628593445, -0.03819943219423294, -0.026671268045902252, -0.02952706441283226, 0.014041595160961151, -0.02675044536590576, -0.04192753881216049, 0.033826373517513275, 0.008809790015220642, 0.011278152465820312, 0.027235783636569977, 0.06316278129816055, 0.035460300743579865, 0.06407270580530167, -0.05726943165063858, -0.058817341923713684, -0.06367603689432144, -0.017239093780517578, -0.05354057997465134, 0.047401003539562225, 0.04096422344446182, -0.06898573040962219, 0.017742998898029327, -0.008386068046092987, 0.01091419905424118, -0.0022495537996292114, -0.06591067463159561, -0.04898342117667198, -0.04543045908212662, -0.029081769287586212, -0.00550571084022522, -0.04974482208490372, -0.06219826638698578, 0.057159923017024994, -0.058664754033088684, 0.011072233319282532, 0.040394917130470276, 0.0215965136885643, 0.030848979949951172, -0.06941109895706177, -0.026081856340169907, -0.03331400454044342, -0.049112964421510696, 0.01662161946296692, -0.06563626229763031, 0.06206003576517105, -0.01202268898487091, 0.026592984795570374, -0.06915505230426788, 0.06041128188371658, -0.0024358630180358887, -0.042865533381700516, -0.01472913846373558, 0.020817279815673828, -0.055979132652282715, 0.008509933948516846, -0.06166651472449303, -0.006075404584407806, 0.031225673854351044, -0.012251406908035278, 0.002187371253967285, -0.06429187953472137, -0.0191958025097847, -0.06945651024580002, 0.0016274675726890564, 0.046587713062763214, 0.007143206894397736, -0.04983339458703995, -0.033813707530498505, 0.01600147783756256, -0.021889612078666687, 0.052301421761512756, 0.020671315491199493, -0.0019543319940567017, -0.06634221971035004, 0.038310013711452484, -0.004352837800979614, -0.0008679181337356567, -0.04609272629022598, 0.06796670705080032, 0.03256116807460785, -0.027351368218660355, 0.0065434277057647705, 0.004681296646595001, 0.05524856597185135, -0.04177016392350197, -0.006795801222324371, -0.017562136054039, 0.04688246548175812, 0.02300674468278885, -0.05972523242235184, 0.02244582772254944, 0.05084659904241562, 0.050125204026699066, -0.021267134696245193, 0.027648746967315674, -0.016169849783182144, -0.06786935776472092, 0.004189357161521912, 0.06248783320188522, 0.039646051824092865, 0.021847635507583618, -0.023628409951925278, -0.0643375962972641, 0.048855215311050415, -0.04331865906715393, -0.05268357694149017, -0.03713769465684891, 0.041133880615234375, -0.06185723468661308, -0.02527901530265808, -0.035850606858730316, 0.01801197975873947, -0.048169367015361786, -0.030303258448839188, 0.04508865624666214, 0.05692075937986374, -0.06851010024547577, -0.049558669328689575, -0.029328111559152603, -0.044602759182453156, -0.022734228521585464, 0.05800751596689224, -0.06524554640054703, 0.013069264590740204, 0.06419564038515091, -0.032508499920368195, 0.05353206396102905, -0.046212345361709595, 0.06301523000001907, -0.06920741498470306, 0.008708402514457703, -0.05758826062083244, -0.04750233143568039, -0.044662609696388245, -0.06403129547834396, 0.05989112704992294, -0.06990078836679459, 0.002056330442428589, 0.05199148505926132, 0.016086719930171967, -0.0635858103632927, -0.03986208513379097, -0.06678174436092377, -0.02709183096885681, 0.0391441211104393, -0.02990686520934105, 0.05910796672105789, -0.016082942485809326, 0.06185241788625717, 0.06442471593618393, -0.04478452354669571, -0.04436442255973816, 0.06464073807001114, 0.03325924277305603, 0.043427057564258575, -0.030566982924938202, 0.026129350066184998, 0.0011880695819854736, -0.03983702510595322, 0.03947264701128006, 0.03898712992668152, 0.01296091079711914, -0.045398909598588943, 0.021248050034046173, 0.02255146950483322, -0.03811455890536308, -0.06674814969301224, -0.008108265697956085, 0.054230935871601105, 0.029470272362232208, -0.006412968039512634, -0.06867652386426926, 0.005949154496192932, 0.06823083013296127, -0.017635472118854523, -0.016209207475185394, 0.052866898477077484, 0.04465211182832718, -0.05647332966327667, 0.048841506242752075, 0.031076930463314056, -0.032195139676332474, 0.056068502366542816, 0.022514522075653076, -0.0033514872193336487, 0.006006345152854919, -0.05358773469924927, -0.031234119087457657, 0.030011460185050964, -0.015112601220607758, 0.060322560369968414, -0.06025323644280434, -0.05103471875190735, 0.055120207369327545, -0.06501124054193497, 0.0647483691573143, -0.04884697124361992, -0.006531476974487305, 0.04841183125972748, 0.05426611006259918, -0.029290813952684402, 0.035638414323329926, 0.06686965376138687, -0.0022761374711990356, -0.06187882646918297, -0.06184987723827362, 0.045240215957164764, 0.060725994408130646, 0.05898905545473099, -0.011831473559141159, -0.020113106817007065, 0.013422839343547821, 0.019257277250289917, 0.05054939538240433, -0.009159624576568604, -0.0346311554312706, 0.03902289271354675, 0.0026657432317733765, 0.050834350287914276, -0.0037039071321487427, 0.04421021789312363, 0.04224683344364166, 0.03299742937088013, -0.045180998742580414, -0.04523888975381851, -0.05055738985538483, 0.04591379314661026, -0.01675720140337944, -0.04931420087814331, -0.0050787553191185, 0.022574223577976227, -0.05235406011343002, 0.02022194117307663, -0.055691879242658615, 0.016124367713928223, -0.04351665452122688, -0.06924281269311905, -0.0602894201874733, 0.0024399608373641968, 0.06328710168600082, 0.034353531897068024, 0.024614058434963226, -0.06601902842521667, -0.014757554978132248, -0.013255823403596878, -0.009104207158088684, -0.019843056797981262, -0.04632853716611862, -0.031009159982204437, 0.06514488905668259, -0.06824544817209244, 0.05255866050720215, 0.015155881643295288, -0.00015418976545333862, 0.05516964942216873, 0.03405445069074631, 0.055386535823345184, -0.050894007086753845, 0.017654798924922943, 0.0011983737349510193, -0.012716129422187805, -0.011698782444000244, -0.006320282816886902, 0.03598509728908539, -0.015779800713062286, -0.008829981088638306, -0.0536113902926445, 0.067838154733181, 0.040088266134262085, 0.013675332069396973, -0.012724034488201141, -0.0017790347337722778, -0.040782298892736435, 0.06022296100854874, 0.06756968051195145, -0.06449401378631592, 0.038840241730213165, 0.05990978330373764, -0.02411910519003868, -0.010922972112894058, -0.054878003895282745, 0.036220163106918335, 0.0025147348642349243, 0.05654468387365341, -0.039899419993162155, -0.018128573894500732, -0.03776266425848007, -0.02277744561433792, -0.05931493639945984, -0.03828221559524536, 0.0338355228304863, 0.03631334751844406, -0.05999290198087692, -0.06671122461557388, -0.05098290741443634, -0.0055060312151908875, -0.021583806723356247, -0.029211364686489105, 0.038646601140499115, 0.016972407698631287, -0.06033172458410263, 0.025941818952560425, -0.021586041897535324, 0.05543970316648483, 0.034483082592487335, 0.020789489150047302, 0.06557665020227432, 0.04688085615634918, -0.027940772473812103, -0.06323439627885818, -0.05578453838825226, -0.01743149757385254, 0.047331251204013824, 0.05961475521326065, -0.059273988008499146, -0.05082055926322937, -0.018802348524332047, -0.06492187827825546, 0.060588277876377106, -0.06651187688112259, -0.029170334339141846, 0.004781559109687805, 0.039889223873615265, 0.05066710710525513, 0.00792103260755539, 0.022544294595718384, -0.026696618646383286, -0.04492172971367836, -0.017195887863636017, -0.06332112848758698, 0.04445536434650421, -0.035100217908620834, 0.05822647362947464, -0.058335259556770325, -0.016128845512866974, -0.009953171014785767, 0.029952913522720337, 0.06695220619440079, 0.034446604549884796, -0.012859970331192017, 0.052969761192798615, 0.06963752955198288, 0.0208040252327919, -0.061829689890146255, -0.036803629249334335, 0.0019856244325637817, 0.027370773255825043, 0.026950284838676453, -0.020686723291873932, -0.02386944368481636, 0.06736349314451218, -0.006688401103019714, -0.045547354966402054, 0.0031852498650550842, 0.05223964899778366, -0.05950683355331421, -0.06879347562789917, 0.020153343677520752, -0.06902139633893967, 0.055511392652988434, -0.03140754625201225, 0.0037871450185775757, 0.061091743409633636, -0.05081266537308693, 0.01283370703458786, -0.05691757798194885, 0.026028893887996674, -0.010883763432502747, -0.041074980050325394, 0.021003328263759613, 0.038711659610271454, -0.04075272008776665, -0.00862378254532814, 0.060405559837818146, -0.06423358619213104, 0.006023883819580078, -0.02003011479973793, 0.02046302706003189, 0.016722790896892548, 0.06243818253278732, -0.04958423972129822, 0.06511083990335464, 0.045338571071624756, -0.023274466395378113, -0.04604499787092209, 0.023135118186473846, -0.035683803260326385, -0.0083245150744915, 0.0022182390093803406, -0.011335741728544235, 0.030229121446609497, 0.047164492309093475, -0.039471954107284546, -0.03562302142381668, -0.06422960013151169, 0.06320298463106155, 0.06470645219087601, 0.057998813688755035, 0.0034187883138656616, -0.06610952317714691, -0.05736539512872696, 0.05603700131177902, -0.044576823711395264, 0.002562381327152252, -0.0016332268714904785, 0.032123856246471405, 0.04901333898305893, -0.010088324546813965, 0.022569485008716583, 0.05329591780900955, -0.032381508499383926, -0.05156528204679489, -0.022228021174669266, 0.003841593861579895, -0.005682595074176788, -0.051196128129959106, 0.02273476868867874, -0.023341495543718338, 0.031294576823711395, 0.045858897268772125, 0.05766142159700394, -0.02733214944601059, -0.028218120336532593, -0.06089986488223076, 0.017396092414855957, 0.06146644800901413, 0.04557493329048157, -0.05715176463127136, -0.013861607760190964, -0.017470553517341614, -0.03195839747786522, 0.004698894917964935, 0.05179145932197571, -0.04278050735592842, -0.05824439972639084, -0.056458380073308945, -0.03939056769013405, 0.004238195717334747, 0.014881759881973267, -0.029866106808185577, 0.06727049499750137, -0.007018491625785828, -0.05982289835810661, -0.006167665123939514, -0.010824091732501984, 0.00830627977848053, 0.001327522099018097, 0.01087891310453415, 0.06183517724275589, -0.007186904549598694, 0.03668099641799927, -0.0461607426404953, -0.05888679251074791, 0.04798826575279236, -0.021588873118162155, -0.04648324102163315, 0.006911739706993103, -0.04224708676338196, -0.026226364076137543, -0.018819235265254974, -0.009181812405586243, -0.017149951308965683, -0.046350326389074326, 0.05841731280088425, 0.04828392714262009, -0.029471900314092636, 0.023341462016105652, 0.06128815561532974, 0.0224456787109375, -0.05834224820137024, 0.02827128767967224, -0.016866371035575867, -0.053239427506923676, 0.013553440570831299, -0.04968006908893585, -0.0007563978433609009, 0.0286235511302948, -0.046771250665187836, 0.053956322371959686, 0.008308351039886475, 0.04491790384054184, 0.010645277798175812, -0.022463876754045486, -0.06265949457883835, 0.051693327724933624, 0.06083375960588455, -0.04879111051559448, -0.06311926990747452, 0.060121841728687286, -0.0540962815284729, -0.006806112825870514, 0.004310593008995056, 0.020146958529949188, 0.06394969671964645, -0.018995564430952072, 0.039513371884822845, -0.06149428337812424, 0.03942318260669708, 0.04353659600019455, -0.046874597668647766, -0.004068061709403992, 0.048584140837192535, -0.008092839270830154, 0.019616782665252686, 0.06452009826898575, -0.05939587205648422, 0.06574072688817978, -0.0020413175225257874, 0.005076810717582703, -0.06962601840496063, -0.004071958363056183, 0.03386411815881729, 0.039755143225193024, 0.010709188878536224, 0.04165968298912048, 0.0004073530435562134, 0.043311573565006256, 0.013816259801387787, 0.0576256588101387, -0.044544681906700134, 0.003832906484603882, 0.026323191821575165, -0.06707820296287537, 0.048449523746967316, 0.06957081705331802, -0.008323974907398224, -0.033107977360486984, -0.06335479021072388, -0.03458603098988533, 0.05010329931974411, 0.004853643476963043, -0.021068140864372253, -0.01032250002026558, -0.029096432030200958, -0.019917048513889313, 0.05613138526678085, -0.06347917765378952, -0.021721355617046356, 0.03766077756881714, 0.025876402854919434, 0.01992073655128479, 0.014598220586776733, 0.008618287742137909, 0.06364420801401138, 0.05505422502756119, 0.05000296235084534, 0.02807946503162384, -0.04574481397867203, -0.05816587805747986, 0.020227551460266113, 0.046765342354774475, -0.059010099619627, 0.006142660975456238, 0.0459899827837944, 0.044770076870918274, -0.013524070382118225, -0.018649417906999588, -0.012950852513313293, 0.06045965105295181, -0.032970670610666275, 0.04042072594165802, -0.018983520567417145, 0.0036836639046669006, 0.05820251256227493, 0.008127972483634949, -0.027559250593185425, -0.03595270961523056, -0.015053506940603256, -0.005215823650360107, -0.06245313584804535, 0.05679497867822647, -0.05265925079584122, 0.02166873961687088, 0.06559696048498154, -0.061157189309597015, 0.04497181624174118, -0.030070293694734573, -0.03580750897526741, -0.03341761976480484, 0.028923973441123962, -0.06358467042446136, 0.0283750519156456, -0.06685371696949005, 0.012036025524139404, 0.04336065053939819, -0.05427882820367813, -0.03698142245411873, 0.04258322715759277, -0.039398595690727234, -0.03342483565211296, 0.0615968182682991, -0.05573862046003342, 0.05338325351476669, -0.051975324749946594, -0.028534237295389175, -0.04121754318475723, 0.036267124116420746, -0.05458389222621918, -0.005302593111991882, -0.018487557768821716, -0.04445914179086685, -0.019275210797786713, 0.05353591591119766, 0.025511398911476135, 0.0035962536931037903, -0.004546225070953369, 0.0014032423496246338, 0.008572034537792206, 0.032583899796009064, -0.0029485896229743958, 0.06999967247247696, 0.051719218492507935, 0.06892991811037064, -0.002873145043849945, -0.054970186203718185, -0.05900654196739197, -0.04573947191238403, 0.03313395380973816, 0.025156348943710327, 0.051965534687042236, -0.04058369994163513, -0.006769701838493347, -0.04336783289909363, -0.057700157165527344, 0.04183463007211685, 0.019843772053718567, 0.008121691644191742, 0.060159824788570404, -0.005325883626937866, -0.027526244521141052, 0.028471186757087708, 0.0010121315717697144, 0.017190054059028625, 0.036744631826877594, -0.002172499895095825, -0.054227545857429504, -0.05433119460940361, -0.020742211490869522, 0.057857684791088104, 0.03986719995737076, -0.015142101794481277, -0.039839036762714386, -0.03290845453739166, 0.04074666649103165, 0.020080991089344025, 0.06513359397649765, 0.06961525231599808, 0.06446119397878647, 0.030850455164909363, 0.06846504658460617, 0.04535170644521713, 0.041577376425266266, -0.053494133055210114, -0.042869750410318375, -0.019125651568174362, 0.06881705671548843, 0.014488637447357178, -0.02306089550256729, -0.033233389258384705, -0.06633710861206055, 0.06005585938692093, 0.03692954033613205, 0.069134421646595, 0.003383256494998932, 0.04606401175260544, 0.06295227259397507, -0.00785696879029274, 0.05089402198791504, -0.0064680129289627075, 0.06289855390787125, 0.02138052135705948, 0.04475279897451401, 0.007735639810562134, 0.0601736381649971, -0.008854933083057404, 0.04050417244434357, 0.05023036152124405, -0.05119818449020386, -0.05727300047874451, 0.04005153477191925, 0.027621865272521973, -0.069646917283535, 0.026281937956809998, -0.05750177428126335, -0.022221099585294724, -0.039910562336444855, 0.04764515906572342, -0.021865319460630417, -0.032105665653944016, -0.007689114660024643, 0.02816776931285858, -0.006735160946846008, 0.05562377721071243, -0.049936726689338684, -0.019452165812253952, 0.023548483848571777, -0.06295964866876602, -0.015386015176773071, -0.05503728613257408, -0.024263717234134674, 0.014159977436065674, -0.06666046380996704, -0.032390493899583817, -0.004456624388694763, -0.06826784461736679, 0.060038141906261444, -0.014032859355211258, 0.06024373322725296, -0.021809566766023636, 0.013361826539039612, 0.0377793088555336, -0.02738148346543312, 0.021136432886123657, -0.055186036974191666, -0.048444222658872604, -0.050195060670375824, -0.05567697808146477, 0.06833096593618393, -0.05420037358999252, -0.029766745865345, 0.028196267783641815, -0.014734148979187012, 0.03583689033985138, -0.0691986009478569, -0.06437244266271591, -0.06481964886188507, 0.05525252968072891, 0.013909019529819489, 0.03174731880426407, 0.01985865831375122, -0.03946465998888016, -0.015776004642248154, -0.05800624564290047, -0.02983662113547325, 0.0238233283162117, 0.01168902963399887, -0.06318743526935577, -0.026884790509939194, -0.009429197758436203, 0.04013151675462723, -0.01797916367650032, 0.019178874790668488, 0.05705656856298447, 0.02928692102432251, -0.03505672886967659, -0.02425764873623848, 0.03211040794849396, -0.06867299973964691, -0.058043137192726135, -0.005388930439949036, -0.00016663223505020142, -0.014729492366313934, 0.015359975397586823, 0.007473684847354889, 0.057820163667201996, 0.04139189422130585, -0.05321880057454109, 0.009967982769012451, 0.011313073337078094, 0.0508037731051445, -0.013549547642469406, 0.02186812460422516, 0.024678833782672882, 0.002452649176120758, -0.021445833146572113, 0.023252278566360474, -0.06100450083613396, -0.03596557676792145, -0.05693252757191658, -0.06744188070297241, 0.034634336829185486, -0.06404378265142441, -0.008299365639686584, 0.047999247908592224, 0.027311019599437714, -0.032474175095558167, -0.05518738925457001, 0.041056253015995026, -0.042222317308187485, -0.004854485392570496, -0.01623860001564026, 0.013542644679546356, -0.004400193691253662, -0.010063320398330688, -0.003094717860221863, -0.051738765090703964, 0.06047017127275467, -0.03606850653886795, 0.015058964490890503, -0.0002500861883163452, 0.009062282741069794, 0.06323646754026413, -0.058445073664188385, -0.058719076216220856, -0.018126551061868668, 0.015304706990718842, -0.005595944821834564, -0.00898057222366333, -0.01711692288517952, 0.007479436695575714, 0.04770992696285248, 0.05589849501848221, -0.024272534996271133, 0.008703023195266724, -0.011352404952049255, -0.021171756088733673, -0.013525284826755524, -0.015204377472400665, 0.040573783218860626, 0.06126595288515091, -0.05108053609728813, 0.05319628864526749, 0.007336154580116272, 0.01384919136762619, -0.0029944628477096558, 0.002438783645629883, 0.04869741201400757, -0.053808800876140594, 0.059387944638729095, 0.06088096648454666, -0.02176174521446228, -0.01820870116353035, 0.0338309109210968, -0.06307868659496307, -0.06102205812931061, -0.06756113469600677, -0.038365405052900314, -0.01730603724718094, -0.06297221034765244, 0.05295505374670029, 0.03814062476158142, -0.03124319389462471, 0.026616625487804413, -0.010491430759429932, -0.03066849336028099, 0.038489922881126404, 0.037775225937366486, -0.03518367186188698, -0.04750492423772812, 0.032925672829151154, 0.02849530428647995, 0.011971667408943176, -0.06617702543735504, 0.017484456300735474, 0.009489037096500397, 0.053716182708740234, -0.03572079911828041, 0.021028868854045868, -0.0610058419406414, -0.04698667675256729, 0.04675029218196869, -0.021819520741701126, -0.052686601877212524, 0.030475258827209473, 0.019152067601680756, 0.06534113734960556, -0.009112894535064697, -0.012485198676586151, -0.049754798412323, -0.025448493659496307, -0.040537066757678986, 0.008272580802440643, 0.04234351962804794, 0.06808670610189438, -0.06256076693534851, -0.01697402447462082, -0.03907932713627815, 0.00024066120386123657, -0.01142360270023346, -0.026764504611492157, 0.05303521454334259, -0.042101942002773285, -0.009313847869634628, 0.048122748732566833, -0.02929113805294037, 0.04528789222240448, -0.04484183341264725, 0.019557476043701172, -0.04051841050386429, -0.03890166059136391, -0.06888104975223541, 0.009195737540721893, -0.04831315949559212, -0.0016757026314735413, -0.03544987365603447, 0.02331440895795822, 0.06059012562036514, 0.009709775447845459, -0.047963738441467285, -0.050054874271154404, 0.01012004166841507, 0.04867330938577652, -0.03823220729827881, -0.040274664759635925, -0.011546209454536438, 0.0027063339948654175, -0.06125996261835098, -0.06958498805761337, 0.020419076085090637, -0.013525892049074173, 0.040540993213653564, 0.015364468097686768, -0.0436117984354496, 0.05695214122533798, 0.05789748579263687, 0.026497751474380493, 0.023597486317157745, 0.008978478610515594, -0.0077436938881874084, -0.034832000732421875, -0.050440795719623566, 0.01644911617040634, 0.03604499250650406, -0.009184390306472778, -0.009037584066390991, -0.020765695720911026, 0.0076769813895225525, 0.05720654875040054, 0.015654101967811584, -0.04279932752251625, -0.017557654529809952, 0.03369052708148956, 0.01607082039117813, -0.06547859311103821, -0.04824037104845047, 0.05853942781686783, -0.06625340133905411, 0.04001157730817795, -0.019939880818128586, -0.04163253307342529, -0.011167310178279877, 0.041395001113414764, -0.038768790662288666, -0.05132347345352173, -0.019244980067014694, -0.007668633013963699, 0.06573844701051712, -0.036343928426504135, -0.017973575741052628, 0.06041239947080612, -0.046091578900814056, 0.022443555295467377, -0.04987078532576561, -0.0035890191793441772, 0.052059516310691833, 0.015000134706497192, 0.06547284871339798, -0.06627482920885086, -0.025589216500520706, -0.04943050444126129, 0.03886660188436508, -0.06650736182928085, 0.057803697884082794, -0.05092637613415718, 0.021912209689617157, -0.013862952589988708, 0.06790337711572647, -0.010716892778873444, 0.059102557599544525, 0.055645011365413666, 0.06740166991949081, 0.040321893990039825, 0.05488242208957672, 0.06425555795431137, -0.010991673916578293, -0.029731888324022293, 0.010357849299907684, 0.003230549395084381, -0.04775897413492203, -0.03453219309449196, -0.06225035712122917, -0.04085987061262131, 0.05883406847715378, 0.05824103206396103, 0.025859855115413666, -0.007531825453042984, 0.058481283485889435, 0.03279753774404526, -0.03729625791311264, -0.06220073997974396, -0.04386407881975174, 0.01686634123325348, -0.06980083882808685, 0.05413787066936493, -0.007649596780538559, 0.05467022955417633, 0.06940167397260666, -0.04175255820155144, 0.021464340388774872, -0.05562255159020424, 0.006824016571044922, 0.032347798347473145, 0.041523806750774384, 0.024964645504951477, 0.055371083319187164, -0.0364876389503479, 0.03401950001716614, -0.05773625150322914, -0.0009326934814453125, 0.061107464134693146, 0.0481155589222908, -0.03909429907798767, -0.0008519217371940613, 0.02902548760175705, 0.04616061598062515, 0.032714903354644775, -0.003080129623413086, 0.00685591995716095, 0.0579165443778038, -0.013095811009407043, -0.0027415230870246887, 0.01830366998910904, 0.05943278223276138, 0.02698124200105667, -0.06881379336118698, 0.010760776698589325, 0.061638884246349335, 0.06872091442346573, -0.032189082354307175, -0.02777126431465149, 0.030896149575710297, -0.03579888120293617, 0.0400097593665123, 0.03737601637840271, 0.04369291663169861, -0.06674828380346298, 0.006095878779888153, -0.0341147817671299, 0.020021818578243256, 0.030780643224716187, 0.0037122443318367004, 0.05850891023874283, 0.061036862432956696, -0.027711056172847748, -0.05379609018564224, 0.031925052404403687, -0.05890646576881409, 0.0045421794056892395, 0.05378544330596924, -0.0686502456665039, -0.026601281017065048, 0.06292880326509476, -0.02292095497250557, 0.014307811856269836, 0.05275178700685501, -0.03866007179021835, -0.06450256705284119, 0.011370696127414703, -0.0354023277759552, 0.04591647535562515, 0.06979798525571823, -0.01472383737564087, 0.04926341772079468, -0.03799431398510933, -0.03285989910364151, 0.06462263315916061, 0.04366019368171692, -0.058642689138650894, -0.010846801102161407, -0.03069893643260002, 0.04337610304355621, 0.048182412981987, 0.03751248121261597, -0.06571301817893982, 0.007436498999595642, 0.0697464570403099, 0.04890752583742142, -0.003444686532020569, -0.06596556305885315, 0.042934902012348175, 0.05144033581018448, 0.05217999219894409, 0.05027289688587189, 0.023386918008327484, 0.013727709650993347, -0.02125495672225952, -0.0018996670842170715, 0.0019898489117622375, -0.04464391618967056, -0.0540447011590004, 0.06755784898996353, -0.06959749758243561, -0.04716765135526657, -0.03675606846809387, -0.05222439020872116, 0.003431573510169983, -0.06121811270713806, -0.023421771824359894, 0.04955410212278366, 0.04011446237564087, 0.024943217635154724, -0.04531382396817207, 0.06751816719770432, 0.006537608802318573, -0.006845682859420776, 0.03645113855600357, -0.029166042804718018, 0.0490245595574379, 0.021049201488494873, 0.04629947990179062, -0.06517976522445679, 0.04826665669679642, 0.06728412955999374, -0.04713356867432594, -0.03571602702140808, 0.06566938012838364, -0.02343708649277687, 0.02132655680179596, -0.01959506794810295, 0.043168358504772186, 0.03831937164068222, -0.024145103991031647, 0.016901090741157532, -0.017901774495840073, 0.0066161081194877625, 0.01645892858505249, -0.03206098824739456, -0.05762766674160957, 0.06353332847356796, -0.06710312515497208, -0.03038489818572998, -0.013662092387676239, 0.007868774235248566, 0.06488846987485886, 0.031327396631240845, 0.06138112396001816, -0.0495031476020813, 0.02462749183177948, 0.013546653091907501, 0.06850249320268631, 0.009940028190612793, 0.05605853348970413, 0.001965351402759552, -0.06687694042921066, 0.053569093346595764, 0.05867079645395279, -0.051742881536483765, 0.018634207546710968, -0.0025880560278892517, -0.019633296877145767, -0.043581005185842514, 0.04906799644231796, 0.030218906700611115, -0.02253583073616028, -0.06783413887023926, -0.021230537444353104, -0.030958011746406555, -0.0008830130100250244, -0.03608424589037895, -0.0211106576025486, -0.037484996020793915, -0.033489957451820374, 0.028050102293491364, -0.004393681883811951, -0.0009685233235359192, 0.03163379430770874, 0.032909005880355835, -0.043808892369270325, 0.04853256046772003, 0.008253395557403564, 0.05664563924074173, 0.055595435202121735, 0.02716664969921112, 0.025321118533611298, 0.04988540709018707, -0.055033691227436066, -0.03399878740310669, 0.05419210344552994, -0.061985429376363754, 0.05301175266504288, -0.013368863612413406, 0.0558231845498085, 0.03273609280586243, 0.039182573556900024, -0.003935426473617554, 0.043226197361946106, 0.05428781360387802, 0.016120612621307373, 0.02873842418193817, 0.019884437322616577, 0.010452508926391602, -0.04478507488965988, 0.04912997782230377, 0.0688864216208458, -0.007870469242334366, -0.058220405131578445, -0.030533384531736374, 0.003296986222267151, 0.0609888955950737, 0.026960700750350952, 5.247443914413452e-05, -0.04737198352813721, 0.005168609321117401, 0.019819319248199463, 0.03994769603013992, -0.020337123423814774, -0.0008154213428497314, 0.05579758435487747, 0.04907812923192978, 0.05844295769929886, 0.023658350110054016, -0.04571513086557388, 0.026393510401248932, 0.014900065958499908, -0.06455662846565247, 0.01776541769504547, 0.01129613071680069, -0.06353647261857986, -0.05029728263616562, -0.06871241331100464, 0.0436544194817543, 0.06058693677186966, -0.017880413681268692, -0.024249441921710968, -0.017284121364355087, -0.05579398572444916, 0.03391030430793762, -0.04680706560611725, 0.06161867827177048, -0.02018877863883972, 0.030124090611934662, 0.02289023995399475, 0.004861660301685333, -0.05539551377296448, 0.06631294637918472, -0.002885788679122925, -0.034184530377388, -0.0692913755774498, -0.04609088599681854, 0.012464866042137146, -0.030251063406467438, 0.02225693315267563, 0.013797685503959656, -0.04748687148094177, 0.02978409081697464, 0.05421537905931473, -0.027249060571193695, -0.05796809121966362, 0.06789801269769669, 0.006822727620601654, -0.013945650309324265, -0.048255208879709244, -0.002014070749282837, -0.028497613966464996, 0.06210986524820328, 0.02686532586812973, -0.00023928284645080566, -0.009028282016515732, -0.007220618426799774, -0.04152075946331024, 0.030330456793308258, 0.021274574100971222, -0.054233014583587646, 0.06872982531785965, 0.069224052131176, 0.021302364766597748, -0.042004670947790146, -0.03860229626297951, -0.03819630667567253, -0.01665196567773819, -0.04537046700716019, 0.01080188900232315, 0.06058245152235031, 0.029705092310905457, 0.014770500361919403, 0.052704937756061554, -0.06746944785118103, 0.025452300906181335, -0.013043873012065887, -0.03678512945771217, 0.02732706069946289, 0.026060745120048523, -0.00085487961769104, 0.06577124446630478, -0.04394402354955673, -0.02444404363632202, -0.004226706922054291, 0.019026637077331543, -0.04496482014656067, -0.05971113592386246, -0.041146330535411835, 0.034508801996707916, 0.026750914752483368, 0.022373788058757782, -0.018694370985031128, 0.0015327557921409607, 0.026997089385986328, 0.020948603749275208, 0.06032552570104599, 0.06314752250909805, 0.03418387472629547, -0.012954596430063248, -0.021749239414930344, 0.04889128357172012, -0.028696082532405853, 0.05473778396844864, 0.030931591987609863, 0.010448753833770752, -0.0035987719893455505, 0.02206581085920334, 0.047767274081707, 0.017038270831108093, -0.026871487498283386, 0.019457854330539703, -0.04505913332104683, 0.009563200175762177, -0.05521626025438309, 0.048109665513038635, 0.005955636501312256, -0.050014249980449677, -0.022325947880744934, -0.05688553303480148, 0.024100691080093384, -0.004021629691123962, 0.0012339726090431213, -0.001889832317829132, -0.013405345380306244, -0.01851978898048401, 0.02701321244239807, 0.006163686513900757, 0.019086569547653198, -0.051809199154376984, -0.027004342526197433, 0.04572097212076187, 0.008872948586940765, 0.0512741357088089, -0.06405315548181534, -0.030588679015636444, -0.007133543491363525, 0.04189932346343994, -0.023543167859315872, 0.003669261932373047, 0.02581484615802765, 0.04546916484832764, 0.008357144892215729, -0.012855872511863708, 0.06396778672933578, -0.06968021392822266, -0.06749463826417923, -0.003341369330883026, -0.047809451818466187, -0.027437441051006317, -0.04425112158060074, -0.0004741251468658447, -0.06664586812257767, 0.030398361384868622, 0.057989977300167084, -0.043912142515182495, 0.015051066875457764, 0.06063371151685715, -0.01943785324692726, 0.023307345807552338, 0.05601666122674942, -0.019753795117139816, 0.00393000990152359, 0.02115286886692047, 0.034065842628479004, -0.014573901891708374, -0.0317450612783432, -0.04292687028646469, -0.013736952096223831, -0.054359689354896545, -0.04119043052196503, -0.0012528002262115479, 0.016938038170337677, 0.020419225096702576, -0.0399070605635643, 0.005065470933914185, -0.018013272434473038, 0.03814415633678436, -0.007132180035114288, 0.04292170703411102, -0.008665863424539566, -0.028870899230241776, 0.007290191948413849, -0.06894595921039581, -0.023736361414194107, 0.060378752648830414, 0.06771757453680038, -0.00032763928174972534, -0.06349402666091919, -0.007952965795993805, -0.0546540804207325, 0.02518606185913086, -0.03569938987493515, 0.019033819437026978, -0.007421828806400299, -0.05805186927318573, 0.06603115051984787, -0.01350153237581253, 0.01723071187734604, 0.06487836688756943, -0.02662700042128563, 0.02763468772172928, 0.028882265090942383, 0.04167023301124573, -0.03372121974825859, 0.033962152898311615, -0.03724367171525955, -0.043355025351047516, -0.011053606867790222, 0.045369938015937805, 0.04595194756984711, -0.017100635915994644, 0.05439841002225876, 0.05321582406759262, -0.0019892528653144836, 0.04214077442884445, 0.02707117795944214, 0.04137430340051651, -0.03252594172954559, 0.04563557356595993, -0.06263923645019531, -0.021814700216054916, -0.04846791923046112, -0.02254101261496544, 0.002685725688934326, 0.06416689604520798, -0.03946394473314285, 0.008562333881855011, 0.015454061329364777, 0.025177478790283203, 0.03232904523611069, -0.045930586755275726, -0.01710222288966179, 0.03682912886142731, 0.007788918912410736, -0.02446352317929268, -0.040264539420604706, 0.039720647037029266, -0.059265512973070145, -0.02625107392668724, 0.056392185389995575, -0.00018910318613052368, 0.009994298219680786, 0.0055230408906936646, -0.021072376519441605, 0.037502579391002655, 0.022551216185092926, -5.479156970977783e-05, -0.044772014021873474, 0.06612945348024368, 0.059514425694942474, -0.03396361693739891, 0.04059884697198868, -0.008005227893590927, 0.04556471109390259, 0.013885930180549622, -0.038510944694280624, -0.054573073983192444, 0.0017626658082008362, -0.019194062799215317, -0.02334659919142723, -0.0526873916387558, -0.03169488161802292, 0.04503517597913742, 0.04147135466337204, -0.055238571017980576, -0.0007570907473564148, 0.023567743599414825, -0.04832885414361954, 0.014907248318195343, 0.033091120421886444, -0.02424808219075203, 0.05765155702829361, -0.01375710591673851, 0.005274645984172821, 0.011118538677692413, -0.000606045126914978, 0.059708885848522186, 0.022756047546863556, 0.0067923665046691895, 0.04784237593412399, -0.0653531476855278, 0.02189432829618454, 0.0018523186445236206, -0.030972179025411606, -0.0016329959034919739, -0.04543424770236015, 0.058195628225803375, 0.02336585521697998, 0.03427308797836304, 0.005560696125030518, 0.009191267192363739, -0.06712837517261505, 0.03617782145738602, -0.058673519641160965, -0.0015884339809417725, -0.060147009789943695, -0.000991813838481903, 0.06619789451360703, 0.015265882015228271, 0.002435743808746338, -0.05744733288884163, 0.023986980319023132, 0.06105596572160721, -0.05564387887716293, -0.027487054467201233, 0.060980312526226044, -0.06831076741218567, -0.03857012838125229, -0.019174549728631973, -0.0046511366963386536, 0.022938497364521027, -0.023402810096740723, 0.005739167332649231, 0.002687022089958191, 0.0688343420624733, -0.0405692383646965, -0.010334700345993042, -0.03194623440504074, -0.06354618817567825, 0.04206003248691559, -0.003141827881336212, -0.02060050517320633, 0.047161199152469635, 0.03633908927440643, -0.016679398715496063, -0.05879742652177811, -0.0035826414823532104, 0.03376420587301254, -0.03251204267144203, -0.0352269783616066, 0.002482593059539795, -0.04373326525092125, -0.01844547688961029, 0.008582167327404022, -0.011117495596408844, -0.04696773737668991, -0.03959798440337181, 0.04156089574098587, 0.0020164400339126587, 0.03813961148262024, 0.007185496389865875, -0.0142841637134552, 0.03619424253702164, -0.05784446373581886, -0.05062403529882431, 0.008178330957889557, -0.05227869004011154, -0.016479168087244034, -0.04792933538556099, 0.04115012288093567, -0.035030338913202286, -0.032963335514068604, 0.012778319418430328, -0.029158443212509155, -0.04237808287143707, -0.014443960040807724, -0.007088072597980499, 0.06274769455194473, 0.014294162392616272, 0.016740575432777405, 0.02935750037431717, 0.056365154683589935, 0.06555304676294327, -0.05125514790415764, -0.04942096769809723, 0.02681472897529602, 0.05052300542593002, -0.01819101721048355, 0.060111261904239655, 0.060829244554042816, 0.03961929678916931, -0.0059717074036598206, -0.0005841553211212158, -0.028956972062587738, -0.057702504098415375, -0.009196929633617401, -0.06594731658697128, 0.03851772099733353, 0.06382448226213455, -0.028136536478996277, -0.002083994448184967, 0.04099913686513901, -0.017067011445760727, -0.02153850719332695, -0.026533588767051697, 0.049248866736888885, -0.06908151507377625, -0.049143269658088684, -0.0676727369427681, 0.007528737187385559, -0.0365329310297966, 0.030697643756866455, -0.06926204264163971, 0.04521816968917847, 0.01767130196094513, 0.038245879113674164, -0.043438851833343506, 0.024319976568222046, 0.009472236037254333, 0.05638929456472397, -0.021099891513586044, 0.011322855949401855, -0.050677455961704254, -0.06136798858642578, -0.02058376744389534, 0.01831987500190735, 0.0680341050028801, -0.03600136190652847, 0.054218441247940063, 0.05564635246992111, -0.017490673810243607, 0.001702234148979187, -0.028319887816905975, -0.0032317787408828735, -0.04157453030347824, 0.030887030065059662, -0.018886413425207138, 0.06060919910669327, -0.057453326880931854, 0.06002809852361679, -0.06542212516069412, -0.05896144360303879, -0.02673594281077385, -0.04770651459693909, -0.024862468242645264, -0.025972280651330948, 0.00474771112203598, 0.011045612394809723, -0.04607437551021576, 0.03212876617908478, -0.06579697132110596, -0.061844609677791595, -0.06661919504404068, 0.020928949117660522, 0.06707748025655746, -0.030250579118728638, -0.01786871999502182, 0.0016450658440589905, -0.039257701486349106, 0.011682040989398956, 0.03850970417261124, 0.037275850772857666, 0.010527707636356354, -0.021351676434278488, 0.05177269130945206, -0.040739722549915314, 0.06610175222158432, 0.016430586576461792, 0.05153390020132065, -0.03721078485250473, -0.045583754777908325, 0.06434688717126846, 0.045842841267585754, 0.036854229867458344, 0.02069242298603058, 0.0029176846146583557, 0.038879334926605225, -0.03288404643535614, 0.06841712445020676, 0.03671400994062424, -0.06793142110109329, -0.0073059797286987305, 0.00814925879240036, -0.010311342775821686, -0.054743871092796326, -0.028656847774982452, -0.0055087655782699585, -0.03871160000562668, -0.008269861340522766, 0.058678410947322845, 0.05043034255504608, 0.018396541476249695, 0.005761727690696716, 0.06664387136697769, 0.006356969475746155, 0.012581221759319305, -0.053839053958654404, 0.030124127864837646, -0.0283949114382267, -0.01673831418156624, 0.02749556303024292, -0.06143338978290558, 0.018935739994049072, -0.06799855828285217, -0.05854545161128044, 0.01975645124912262, -0.05458199977874756, 0.006549447774887085, -0.002023555338382721, -0.06386473774909973, -0.04774504154920578, -0.05459091067314148, 0.01954759657382965, -0.0220436193048954, 0.0422545000910759, -0.006072618067264557, -0.027647264301776886, 0.016144469380378723, -0.013066399842500687, -0.015136785805225372, 0.014470845460891724, -0.05439171940088272, -0.055944304913282394, 0.044008709490299225, -0.04908330738544464, 0.038700349628925323, 0.048586368560791016, 0.033560097217559814, -0.05854625254869461, -0.033398423343896866, 0.04069597274065018, 0.04754464328289032, -0.015462860465049744, 0.0683346763253212, 0.037572599947452545, 0.06451822072267532, -0.061644621193408966, 0.0670153871178627, 0.05975251644849777, -0.007945138961076736, -0.04055005684494972, 0.005584046244621277, -0.05346401780843735, -0.024583417922258377, -0.04980706423521042, 0.06811030954122543, -0.005295298993587494, -0.01172410324215889, 0.008887752890586853, 0.025436587631702423, 0.013166174292564392, -0.004898078739643097, -0.058238595724105835, -0.037266843020915985, 0.016789719462394714, -0.045170873403549194, 0.013227224349975586, -0.0005405992269515991, -0.02358967810869217, 0.04235057532787323, -0.06649965047836304, -0.02174089476466179, 0.036462247371673584, -0.043132681399583817, 0.06836561113595963, 0.050452820956707, -0.031052276492118835, 0.0008748471736907959, -0.013362273573875427, 0.01563313603401184, 0.05603808909654617, 0.045236364006996155, 0.06989269703626633, -0.026058387011289597, 0.005561269819736481, 0.007972970604896545, 0.0511460080742836, 0.00042200833559036255, 0.0550411120057106, -0.03169802576303482, -0.0076939016580581665, 0.0038354992866516113, -0.01620311290025711, -0.013193629682064056, -0.06889764964580536, -0.04775640368461609, -0.03710917383432388, -0.013171903789043427, 0.028081856667995453, 0.057146839797496796, 0.043580323457717896, -0.005140230059623718, 0.0619291290640831, -0.0007377937436103821, -0.06480184197425842, 0.0293877050280571, 0.001820892095565796, 0.022944658994674683, -0.06798074394464493, -0.06769570708274841, 0.0001856684684753418, 0.06391366571187973, 0.06140352040529251, -0.052561596035957336, 0.030116960406303406, 0.05826910585165024, -0.05405496805906296, -0.06817629188299179, 0.0425720140337944, -0.019729040563106537, 0.06605445593595505, 0.033412396907806396, 0.03271657973527908, -0.050496332347393036, -0.015698205679655075, 0.03610941022634506, -0.020358100533485413, 0.0034612491726875305, -0.008845087140798569, 0.041327618062496185, 0.028386041522026062, 0.02590450644493103, 0.04840243607759476, -0.06961625814437866, -0.024221904575824738, 0.053571976721286774, -0.010860756039619446, -0.04587935656309128, 0.06570611149072647, -0.051689088344573975, 0.03521022945642471, -0.035531509667634964, 0.008766919374465942, -0.019449077546596527, -0.04510832205414772, 0.06037168949842453, -0.03316338732838631, 0.05859968811273575, -0.03705747053027153, -0.06926669180393219, -0.03271729499101639, 0.04436305910348892, -0.06685352325439453, -0.049609530717134476, 0.009774930775165558, -0.03558141738176346, -0.0054859742522239685, 0.01015009731054306, -0.015381485223770142, 0.008549906313419342, -0.03481888771057129, -0.02465995028614998, -0.05033048987388611, -0.003921054303646088, 0.030774377286434174, -0.00663391500711441, -0.05759509652853012, 0.028305061161518097, 0.038248755037784576, 0.0561937615275383, 0.044522978365421295, 0.0178966224193573, -0.03473057597875595, 0.015253715217113495, -0.05201750993728638, 0.007876284420490265, 0.052073098719120026, 0.06513158231973648, -0.0047588348388671875, -0.04695256054401398, 0.030577637255191803, -0.03458242490887642, 0.008946672081947327, -0.04103431850671768, -0.0014245808124542236, 0.010117903351783752, 0.02336670458316803, -0.06618224084377289, 0.028130285441875458, -0.0510006844997406, -0.0031357258558273315, -0.05273059010505676, 0.05483351647853851, -0.025783032178878784, -0.012381859123706818, -0.010041706264019012, -0.03617051616311073, -0.016395557671785355, 0.03018244355916977, -0.024988465011119843, -0.06881611049175262, -0.030245348811149597, 0.05887202173471451, 0.03408621996641159, 0.027394600212574005, 0.04416617006063461, 0.02460574358701706, -0.06121421232819557, -0.04926074296236038, 0.04896644502878189, -0.055320534855127335, -0.002687595784664154, 0.060540638864040375, 0.033245183527469635, 0.004722185432910919, 0.01361188292503357, -0.06706680357456207, -0.004353635013103485, 0.03332337737083435, -0.017968975007534027, -0.003525152802467346, 0.022169440984725952, 0.04215214401483536, -0.04605872929096222, 0.05405505746603012, 0.06538843363523483, 0.057383082807064056, 0.03621021658182144, -0.027271423488855362, 0.05495445430278778, -0.02677326276898384, 0.037389613687992096, 0.06695512682199478, -0.03394059091806412, 0.05703071504831314, -0.02670428529381752, -0.011599674820899963, 0.0662345215678215, -0.06343963742256165, 0.05258972942829132, 0.017719537019729614, -0.04302901774644852, -0.04566304013133049, 0.014534547924995422, -0.06426049768924713, -0.04779127985239029, 0.013713032007217407, -0.03521076217293739, 0.03186874836683273, 0.03168907016515732, 0.06738995760679245, 0.020355477929115295, -0.024399589747190475, 0.04613938927650452, -0.06962895393371582, -0.040240876376628876, -0.004578612744808197, -0.05178230255842209, 0.021995052695274353, -0.06680842489004135, 0.011808179318904877, -0.014750771224498749, -0.06179092079401016, -0.0008835718035697937, 0.026906438171863556, 0.012833714485168457, -0.054456233978271484, 0.051109038293361664, -0.03071151301264763, 0.05624677985906601, -0.045357901602983475, 0.05183796584606171, 0.06674132496118546, -0.011364471167325974, -0.0012299343943595886, -0.050624504685401917, 0.0630040243268013, 0.037417978048324585, -0.0607665590941906, -0.05310284346342087, -0.05779772251844406, -0.03114897757768631, 0.017128735780715942, -0.006188668310642242, 0.02842005342245102, -0.00512087345123291, 0.048198796808719635, 0.028903208673000336, -0.061935439705848694, 0.05532660335302353, -0.028721950948238373, 0.002754591405391693, -0.02668832242488861, -0.017283305525779724, -0.0246444009244442, -0.0014065653085708618, 0.02000398188829422, -0.014815885573625565, -0.02939772605895996, -0.05166831240057945, 0.02489715814590454, 0.03405088931322098, -0.02467060089111328, -0.013282623142004013, 0.032476574182510376, -0.013867300003767014, -0.05189082399010658, 0.03738667070865631, -0.03020811825990677, -0.03981553763151169, 0.05329630523920059, -0.03305504098534584, 0.024550333619117737, -0.06821516901254654, 0.015012599527835846, -0.03427871689200401, 0.017840467393398285, -0.0002720952033996582, 0.016565032303333282, -0.0007616877555847168, -0.01739046722650528, 0.016549058258533478, -0.06519018113613129, 0.05334874987602234, 0.06751082092523575, 0.02280990034341812, 0.0024664923548698425, 0.03993842005729675, -0.013833664357662201, -0.041735485196113586, 0.028960883617401123, -0.017171520739793777, -0.014721415936946869, -0.03861531987786293, -0.0083824023604393, 0.03699055314064026, -0.047357603907585144, 0.002237074077129364, -0.05211752653121948, -0.049185607582330704, 0.03662109375, 0.024191834032535553, -3.921240568161011e-05, -0.05103270709514618, 0.0013804584741592407, 0.003438122570514679, -0.06232379004359245, -0.019487563520669937, 0.027366645634174347, -0.013872787356376648, -0.048372626304626465, 0.0005417987704277039, -0.03413057699799538, 0.010049939155578613, -0.03773869201540947, 0.02067619562149048, -0.04115314781665802, -0.05095517635345459, 0.022663071751594543, -0.05096609145402908, 0.06890738755464554, -0.003788791596889496, -0.012736059725284576, 0.03195975720882416, -0.013507667928934097, -0.057954270392656326, -0.033881377428770065, -0.027527574449777603, 0.025287017226219177, 0.02907118946313858, -0.05125795304775238, -0.019410498440265656, -0.05166109651327133, -0.017162587493658066, 0.016216076910495758, -0.05629347264766693, 0.056387804448604584, -0.042373575270175934, 0.009746141731739044, 0.022455230355262756, -0.0027808398008346558, -0.042419977486133575, 0.04429541528224945, -0.011818241328001022, 0.016158707439899445, -0.05234465003013611, -0.046092674136161804, 0.03539218753576279, 0.02620980143547058, -0.04873744398355484, 0.004940159618854523, 0.03635445982217789, -0.03934388980269432, -0.05783125385642052, -0.06451869755983353, -0.028722956776618958, 0.043215781450271606, -0.05263684689998627, 0.034561365842819214, 0.06336561590433121, -0.020249906927347183, -0.03478056937456131, -0.04451167955994606, 0.06764166802167892, -0.033898863941431046, -0.024414416402578354, 0.03648000955581665, 0.04759792983531952, -0.007981531322002411, -0.004861548542976379, -0.020395129919052124, -0.056903254240751266, -0.007685065269470215, -0.05604285001754761, -0.05287555605173111, 0.05237625539302826, 0.015744179487228394, 0.04838363081216812, 0.03934107720851898, 0.06224402040243149, 0.0455545112490654, -0.028658505529165268, -0.01662670075893402, 0.022000163793563843, -0.039614684879779816, -0.013195119798183441, -0.06440087407827377, 0.028730958700180054, -0.002844087779521942, 0.06036236137151718, -0.01793544366955757, 0.05493594706058502, -0.06975603848695755, 0.05028393119573593, -0.009805068373680115, 0.01712346076965332, 0.024465136229991913, 0.0014308467507362366, 0.01655590534210205, -0.055834103375673294, -0.01884399726986885, -0.03564295917749405, 0.015614233911037445, 0.02573225647211075, 0.025174513459205627, -0.031377244740724564, -0.009141277521848679, -0.02589445188641548, 0.06831739097833633, 0.013209633529186249, -0.013786882162094116, -0.0396517813205719, -0.03644316643476486, -0.005894988775253296, -0.0015643462538719177, -0.02998621016740799, -0.04782958701252937, -0.04429590329527855, -0.06496693193912506, -0.030247312039136887, 0.043472759425640106, 0.061164818704128265, 0.05097416788339615, -0.02570493519306183, -0.04691626876592636, -0.011950444430112839, 0.05497778207063675, 0.007307276129722595, 0.06261808425188065, 0.013048127293586731, -0.025959845632314682, 0.012315899133682251, 0.04307980090379715, -0.029799990355968475, 0.016495034098625183, 0.02698729932308197, -0.05793751776218414, -0.04416259378194809, -0.023126166313886642, 0.006024442613124847, 0.04810970276594162, 0.006548546254634857, 0.013046219944953918, 0.0009674280881881714, 0.011032596230506897, -0.04060405120253563, 0.010804146528244019, -0.018384233117103577, 0.044535160064697266, -0.020428065210580826, -0.03922927379608154, 0.06986547261476517, -0.02678621932864189, -0.05523502826690674, -0.0021446049213409424, -0.005980394780635834, 0.008707672357559204, -0.06011514365673065, -0.02103661745786667, -0.033500272780656815, 0.0007653981447219849, -0.02933771163225174, -0.0419815331697464, 0.006885804235935211, 0.0003852546215057373, 0.05515307933092117, 0.04956483840942383, -0.04487016797065735, 0.03281306475400925, -0.056428950279951096, -0.058745402842760086, -0.04154013469815254, 0.03536033630371094, 0.032570980489254, -0.03882021829485893, 0.013209879398345947, -0.0010956525802612305, -0.05728495866060257, 0.06420416384935379, -0.03556787967681885, 0.0213882178068161, 0.014896593987941742, 0.019671529531478882, -0.01230616495013237, 0.01745545119047165, 0.009561315178871155, 0.051579006016254425, -0.0018195658922195435, -0.017191294580698013, 0.01598023623228073, -0.043120674788951874, -0.028192270547151566, -0.05376853793859482, 0.0170518159866333, 0.04668695479631424, 0.0048754215240478516, -0.06708300858736038, -0.04234654828906059, -0.040234751999378204, -0.003411725163459778, 0.055983610451221466, 0.06456180661916733, -0.021349303424358368, -0.001300625503063202, 0.0025246962904930115, 0.014039173722267151, 0.009806007146835327, -0.03615927696228027, 0.05614035576581955, -0.030802391469478607, -0.0652681291103363, 0.01438632607460022, 0.0377219095826149, -0.03872787207365036, -0.007326386868953705, 0.05558542162179947, -0.016838394105434418, 0.05119338631629944, -0.05958858132362366, -0.06973481923341751, -0.04079063609242439, 0.03345780074596405, -0.04371744766831398, 0.03904847055673599, -0.037889447063207626, -0.023817390203475952, 0.03851749002933502, -0.06470625102519989, 0.04751566797494888, 0.03734975308179855, 0.05644343048334122, 0.057195283472537994, 0.0065275803208351135, 0.04134237766265869, -0.04027993232011795, 0.051295049488544464, -0.032120537012815475, 0.008496716618537903, -0.06911800056695938, 0.021283254027366638, 0.01170986145734787, 0.0464668795466423, -0.043478336185216904, -0.0521400012075901, 0.0070448219776153564, 0.05228971689939499, 0.015026099979877472, 0.0155453160405159, 0.01569201797246933, 0.0656157061457634, -0.0160822831094265, 0.03406873345375061, 0.0052306801080703735, -0.038781896233558655, -0.012896642088890076, 0.03420092165470123, -0.04978855699300766, 0.007532380521297455, -0.006010673940181732, -0.041204340755939484, 0.019747242331504822, -0.051318760961294174, 0.058758653700351715, 0.027101412415504456, -0.051538847386837006, 0.0365186482667923, 0.06285924464464188, 0.015670813620090485, -0.028805717825889587, 0.048247113823890686, 0.007499538362026215, -0.03365950286388397, -0.035865187644958496, -0.001462101936340332, -0.010823819786310196, -0.010491687804460526, 0.06559225171804428, 0.03808468580245972, -0.006673723459243774, -0.004165850579738617, 0.04125725477933884, -0.06017560511827469, -0.033918485045433044, 0.0027462467551231384, 0.029782146215438843, 0.05638132244348526, 0.03703758120536804, -0.026410017162561417, -0.061957620084285736, -0.030619658529758453, 0.05534187704324722, -0.060059063136577606, 0.008632391691207886, 0.02118135243654251, -0.002695731818675995, -0.018101204186677933, -0.06052614003419876, -0.044817112386226654, 0.0365511029958725, -0.035955656319856644, 0.02011600136756897, -0.06917242705821991, 0.04249642789363861, -0.06518737971782684, -0.0513802245259285, 0.014829009771347046, -0.032013844698667526, 0.06986970454454422, -0.03409375622868538, -0.048608921468257904, -0.04137586057186127, 0.057233043015003204, 0.022452503442764282, 0.05890307575464249, 0.06627074629068375, -0.004420578479766846, -0.06083910912275314, -0.03460397571325302, 0.021582037210464478, -0.06457554548978806, -0.0364416129887104, 0.00205162912607193, 0.0034393295645713806, -0.04237191379070282, 0.0027305185794830322, 0.006021849811077118, 0.03422816842794418, -0.03795270994305611, 0.03275083005428314, 0.025116823613643646, -0.0578266903758049, -0.05123505741357803, -0.034336015582084656, 0.0319209098815918, 0.01694227010011673, 0.012514777481555939, -0.05275407433509827, 0.04699850082397461, 0.0020376890897750854, 0.031117714941501617, 0.06255597621202469, -0.04467657953500748, 0.023648187518119812, -0.04069235175848007, -0.023650579154491425, 0.01909603178501129, 0.03754919022321701, -0.02762269601225853, 0.005299985408782959, -0.04016905277967453, 0.015956595540046692, -0.05319776386022568, -0.015481803566217422, -0.03318890929222107, -0.010264962911605835, 0.06690607219934464, -0.05109696090221405, 0.020410150289535522, -0.013500049710273743, 0.04548878222703934, 0.03468579798936844, -0.009539052844047546, -0.027704108506441116, 0.007051929831504822, -0.02069029211997986, 0.06353486329317093, -0.0366024486720562, -0.06361822783946991, 0.001944907009601593, 0.0005977079272270203, -0.044860005378723145, 0.025121890008449554, -0.014009494334459305, 0.008670002222061157, 0.029977969825267792, 0.033250704407691956, -0.040968988090753555, 0.061871059238910675, -0.017686784267425537, 0.04591444879770279, -0.032547228038311005, -0.06121879816055298, -0.0022869259119033813, -0.05001528933644295, 0.02324049174785614, 0.0687069520354271, 0.019602835178375244, 0.03950461745262146, -0.01629624515771866, -0.023922450840473175, -0.050226401537656784, 0.04454866796731949, 0.02212226390838623, 0.03969580680131912, 0.06313071399927139, 0.03376694768667221, 0.06627901643514633, 0.007553026080131531, 0.03895309567451477, 0.014599621295928955, -0.021159645169973373, -0.04605449363589287, -0.05730035901069641, 0.06094340234994888, -0.003659762442111969, 0.05294821411371231, -0.019789475947618484, 0.010468363761901855, 0.027581602334976196, 0.06135561317205429, -0.04956911504268646, 0.03914627432823181, -0.05682343617081642, 0.052522845566272736, 0.04769592732191086, -0.008421812206506729, -0.01445162296295166, 0.05983442813158035, 0.05262518674135208, 0.0672093853354454, -0.032374393194913864, 0.0014215558767318726, 0.022941820323467255, 0.028278738260269165, -0.06197822466492653, -0.05067342892289162, 0.03538769483566284, 0.015946321189403534, -0.053944140672683716, -0.06883815675973892, 0.05065543204545975, -0.04766681045293808, -0.002687789499759674, -0.03370685875415802, 0.05417477339506149, -0.049293987452983856, -0.014727301895618439, 0.0012113600969314575, 0.031079985201358795, -0.012527715414762497, 0.06936680525541306, -0.00561416894197464, -0.04004238173365593, 0.06117505580186844, 0.025409623980522156, 0.012682050466537476, 0.01717585325241089, -0.00412663072347641, -0.02966408059000969, -0.01914398744702339, -0.008101731538772583, -0.06593994796276093, 0.025960370898246765, 0.045833319425582886, -0.027192503213882446, 0.027465887367725372, 0.06717639416456223, 0.011691823601722717, 0.0005991607904434204, -0.05628564953804016, -0.06582963466644287, -0.0037724822759628296, -0.06324192881584167, -0.010766156017780304, 0.04195042699575424, 0.015825532376766205, 0.06439416855573654, -0.040486134588718414, 0.037275128066539764, 0.06592238694429398, 0.027072831988334656, 0.04562455415725708, 0.05448951572179794, 0.06421390920877457, 0.06822077184915543, 0.028805308043956757, -0.004186950623989105, 0.009222723543643951, -0.0033135712146759033, -0.015498246997594833, -0.03440592810511589, 0.061138249933719635, 0.015149213373661041, 0.027921266853809357, -0.054123178124427795, 0.003142036497592926, 0.02999686449766159, -0.03428180143237114, 0.019686587154865265, -0.04363464564085007, -0.04435694217681885, 0.036425381898880005, -0.053188350051641464, 0.052434466779232025, 0.014643661677837372, -0.01682879775762558, 0.018796592950820923, -0.01190027967095375, -0.005382940173149109, 0.06338600069284439, -0.019897595047950745, -0.0619797520339489, -0.0016175135970115662, 0.016023807227611542, 0.0009338855743408203, 0.06154228001832962, 0.06661628931760788, -0.018488183617591858, 0.0257071852684021, 0.016813822090625763, 0.01664596050977707, 0.037350669503211975, -0.04711876064538956, -0.03655479475855827, 0.045986197888851166, 0.02550622820854187, -0.01784609630703926, -0.032500386238098145, 0.05139613151550293, -0.036961350589990616, 0.034797996282577515, -0.005981162190437317, -0.01987432688474655, 0.046954721212387085, -0.049364298582077026, -0.0323474295437336, 0.006550751626491547, -0.005516797304153442, -0.005955353379249573, -0.050828658044338226, -0.04292832314968109, -0.025822073221206665, -0.05978810042142868, 0.06470463424921036, 0.017313942313194275, -0.02829091250896454, 0.0025382116436958313, -0.003058016300201416, 0.05480090528726578, 0.06892279535531998, 0.041218653321266174, 0.04783708602190018, -0.06380264461040497, 0.012040846049785614, -0.06878133863210678, -0.027002371847629547, 0.03462636470794678, 0.018238462507724762, -0.046709973365068436, 0.01876489818096161, -0.049582235515117645, 0.06085594743490219, 0.012442126870155334, 0.025885678827762604, -0.04042501747608185, -0.05778796970844269, -0.06615068763494492, -0.06131277233362198, -0.06479117274284363, -0.06613819301128387, -0.05114241689443588, 0.05959204584360123, 0.01953495293855667, 0.028160758316516876, 0.05598785728216171, 0.02448543906211853, -0.06351764500141144, 0.03394387662410736, 0.06860782951116562, 0.027709200978279114, 0.0009617060422897339, -0.026828940957784653, 0.054743364453315735, 0.06078306585550308, 0.02596590667963028, -0.006914034485816956, -0.03655119612812996, 0.04592157155275345, -0.023663360625505447, 0.05081557482481003, -0.007504422217607498, 0.01838850975036621, -0.06568147987127304, 0.03799055516719818, -0.005955338478088379, -0.06540125608444214, -0.044860512018203735, -0.012560438364744186, -0.04052071273326874, -0.006086684763431549, -0.009101882576942444, -0.05336299166083336, -0.008034031838178635, 0.04716276377439499, -0.02050657942891121, 0.049311935901641846, -0.036210715770721436, -0.05947883054614067, -0.06670635938644409, 0.04316321015357971, 0.05752677470445633, -0.023442227393388748, -0.01989317312836647, 0.011887907981872559, -0.009807426482439041, -0.043445244431495667, -0.03905588015913963, 0.06015854328870773, 0.0553390309214592, -0.0041535720229148865, -0.06178595870733261, -0.02540147677063942, 0.06955235451459885, -0.05750845745205879, -0.021114539355039597, 0.032264649868011475, 0.050736941397190094, -0.04612993448972702, 0.022679872810840607, -0.05873193219304085, -0.025018755346536636, -0.019718583673238754, -0.035872116684913635, -0.013154331594705582, -0.046269550919532776, -0.030911535024642944, -0.002036638557910919, 0.010428644716739655, -0.02202443778514862, -0.046239931136369705, -0.0012226030230522156, 0.03458978235721588, -0.030137356370687485, 0.024496078491210938, -0.05034938454627991, -0.06981465220451355, 0.00451187789440155, -0.04038029909133911, -0.023808587342500687, -0.06459437310695648, -0.04031930863857269, -0.006831459701061249, 0.055835507810115814, -0.024676073342561722, 0.04943876713514328, 0.0041817352175712585, -0.052571967244148254, -0.03766023367643356, -0.035735052078962326, -0.06908746063709259, 0.03953641653060913, -0.034943826496601105, 0.060674749314785004, -0.02156970649957657, -0.041572362184524536, -0.0036388561129570007, 0.031936705112457275, 0.018942981958389282, -0.01365853101015091, -0.011360269039869308, 0.0600569024682045, -0.05518074706196785, -0.008869096636772156, -0.0018957853317260742, 0.007994167506694794, 0.04372946918010712, 0.05968055874109268, -0.042575135827064514, 0.053579702973365784, -0.00036191195249557495, -0.05850016698241234, 0.029764950275421143, 0.014837928116321564, -0.010852117091417313, 0.03494393825531006, 0.026506975293159485, -0.016873251646757126, 0.024630747735500336, -0.02031981572508812, 0.06745181232690811, -0.00650826096534729, 0.024325408041477203, 0.036592550575733185, -0.016345664858818054, -0.01403580978512764, -0.02250974252820015, 0.032694265246391296, -0.03946531563997269, -0.04888515919446945, -0.01956472173333168, -0.06097368523478508, -0.05858837813138962, -0.0005400329828262329, 0.008529327809810638, 0.007528871297836304, 0.06041400879621506, 0.014409750699996948, -0.018157467246055603, 0.04997844249010086, -0.0172884538769722, -0.021512478590011597, 0.034477077424526215, 0.06844764202833176, -0.04616812616586685, -0.04684581607580185, -0.06318002194166183, 0.06592004746198654, 0.01008133590221405, 0.008176371455192566, -0.05473515763878822, -0.04668169468641281, 0.05988968163728714, 0.002990707755088806, 0.006358720362186432, 0.053220175206661224, 0.04215533286333084, 0.039971381425857544, 0.06790746003389359, 0.06868597120046616, 0.028979137539863586, -0.030489232391119003, -0.024547599256038666, -0.05046758055686951, -0.0557008795440197, -0.0024689286947250366, 0.06940533965826035, -0.02524581179022789, -0.020714018493890762, -0.01604623720049858, -0.06644497811794281, 0.05178696662187576, 0.02187523990869522, 0.037287987768650055, 0.06777612119913101, 0.009918011724948883, -0.02213568612933159, -0.036392368376255035, -0.02931910753250122, -0.043286822736263275, 0.05987183004617691, 0.0012413114309310913, 0.0008069425821304321, -0.010128878057003021, -0.06927428394556046, -0.015395738184452057, 0.04391960799694061, 0.058080025017261505, -0.017355341464281082, 0.038957007229328156, -0.015468567609786987, 0.03492534160614014, -0.035625357180833817, -0.058702502399683, 0.023027196526527405, -0.037491586059331894, 0.0352700799703598, -0.01410721242427826, 0.04838687926530838, 0.03484314680099487, -0.016909275203943253, 0.03373602777719498, 0.05736006051301956, -0.02817525714635849, -0.03367837518453598, 0.052724145352840424, -0.06224049627780914, 0.058787114918231964, 0.0012812688946723938, 0.02158571034669876, -0.013934187591075897, -0.06435108929872513, 0.06893586367368698, -0.009351715445518494, 0.056617371737957, -0.0222952701151371, -0.03131352737545967, -0.06051607429981232, -0.024329151958227158, -0.012627240270376205, -0.03523413464426994, 0.06559240072965622, -0.04897985979914665, -0.06386402249336243, 0.009958580136299133, 0.001778818666934967, 0.02750595659017563, 0.011988334357738495, 0.038951948285102844, 0.03553992509841919, -0.03118715062737465, 0.05872539430856705, 0.06870012730360031, 0.0367128923535347, 0.04063253849744797, -0.03520931676030159, 0.035263724625110626, -0.041447341442108154, 0.06315182894468307, 0.0013340115547180176, -0.06939572840929031, 0.03130050748586655, -0.06748843938112259, 0.0018155276775360107, 0.0032776817679405212, -0.056936345994472504, -0.02685362473130226, -0.05430097132921219, -0.05048682540655136, 0.0624009445309639, 0.0239502415060997, 0.04838576912879944, 0.04493516683578491, 0.021306373178958893, 0.029700644314289093, 0.04793878644704819, -0.04920302331447601, -0.005242399871349335, -0.06023453176021576, -0.036678530275821686, -0.06673333048820496, 0.05396435409784317, 0.0615207776427269, 0.030856795608997345, -0.02029481902718544, -0.06681739538908005, -0.03208368271589279, -0.0604403018951416, -0.04404933750629425, 0.032725557684898376, 0.0395699143409729, 0.05614567548036575, -0.04841503128409386, -0.05937237665057182, -0.053120557218790054, -0.04352285712957382, 0.001729920506477356, 0.004019811749458313, -0.060301508754491806, -0.04053431376814842, -0.0011349990963935852, -0.045071154832839966, -0.06034727394580841, -0.022159148007631302, 0.02376258373260498, 0.0076343342661857605, 0.014237411320209503, -0.06223553791642189, 0.06966698914766312, 0.036180466413497925, 0.051010727882385254, 0.04173384606838226, -0.02855132892727852, -0.016226697713136673, 0.012238219380378723, 0.06404643505811691, -0.005953110754489899, -0.0387536883354187, 0.0524047389626503, 0.040536291897296906, -0.02573787048459053, -0.01938653737306595, 0.06516040116548538, 0.046443693339824677, 0.02281251549720764, 0.06971646100282669, -0.04243634641170502, -0.0025361552834510803, -0.05330837517976761, -0.004410453140735626, 0.0509372279047966, -0.05901166796684265, 0.06044001132249832, -0.003374934196472168, -0.01859373226761818, 0.008005306124687195, -0.05501558259129524, 0.027414023876190186, 0.014943733811378479, -0.06169731542468071, 0.031071148812770844, 0.03726959973573685, -0.06880543380975723, -0.036492712795734406, 0.06872018426656723, -0.004652455449104309, -0.01980512961745262, 0.04198126494884491, -0.05429219454526901, -0.02804921194911003, 0.04287446290254593, 0.02940397709608078, 0.06442622095346451, 0.0038549453020095825, -0.043470099568367004, -0.050512075424194336, -0.01833951845765114, -0.04076896607875824, 0.062399037182331085, 0.015169784426689148, 0.048978909850120544, 0.038377970457077026, -0.05844218283891678, 0.01427248865365982, 0.050721727311611176, -0.04882708936929703, -0.03227650374174118, -0.06912039965391159, 0.01441686600446701, 0.05781994014978409, -0.014342784881591797, 0.017143316566944122, -0.03294963017106056, 0.01007167249917984, 0.0019568726420402527, -0.022745639085769653, 0.03090342879295349, 0.038804665207862854, 0.020441792905330658, -0.01767667755484581, -0.05738764628767967, -0.058530792593955994, -0.02775098755955696, 0.006120860576629639, -0.02543456479907036, -0.022352885454893112, 0.013690836727619171, 0.018838204443454742, 0.005443021655082703, -0.049047160893678665, -0.01771683245897293, 0.03720366209745407, -0.06811898201704025, -0.04867091774940491, 0.06350415199995041, -0.05529205873608589, 0.03636890649795532, -0.027999013662338257, -0.055561721324920654, -0.040450844913721085, 0.03294961154460907, -0.05510096624493599, 0.05084603279829025, -0.0163152813911438, -0.03960316255688667, 0.008995488286018372, 0.0441228523850441, -0.050815142691135406, 0.041554033756256104, -0.05120932310819626, -0.04551786929368973, 