{"encode_conv_weights": [0.006833896040916443, 0.06097546964883804, -0.0008068457245826721, 0.012998245656490326, 0.005434341728687286, -0.012976903468370438, 0.030126504600048065, 0.048483528196811676, 0.04851860553026199, 0.04819720983505249, -0.01131276786327362, -0.04522215574979782, 0.014386869966983795, -0.026141706854104996, -0.05884963274002075, 0.05011238902807236, 0.025930732488632202, 0.06574853509664536, 0.006283648312091827, 0.003436744213104248, 0.0007344558835029602, 0.048615239560604095, -0.041376687586307526, -0.028417430818080902, -0.010688327252864838, -0.007916595786809921, -0.060859888792037964, 0.017298921942710876, 0.05293644219636917, -0.029698364436626434, 0.020425178110599518, -0.03785919025540352, -0.010062873363494873, -0.016186561435461044, -0.0661657378077507, -0.05373293533921242, -0.008737791329622269, 0.004817947745323181, -0.05648567155003548, -0.028345152735710144, 0.02386544644832611, -0.044558215886354446, 0.054848216474056244, 0.05795467644929886, -0.05219760537147522, -0.06206018477678299, -0.01157732680439949, -0.0007994323968887329, 0.06491278856992722, -0.005991324782371521, 0.013544343411922455, -0.03182812035083771, 0.008216574788093567, 0.009207122027873993, -0.0163181871175766, -0.009702198207378387, -0.03835831955075264, -0.003126882016658783, -0.050345830619335175, -0.03894307464361191, 0.04084150493144989, 0.061477892100811005, -0.05502760410308838, 0.04370362311601639, -0.042265791445970535, 0.037448763847351074, 0.0040452852845191956, 0.038974493741989136, -0.03915712982416153, -0.002803198993206024, 0.042104244232177734, 0.01082313060760498, 0.009526237845420837, 0.03023587167263031, -0.021024320274591446, -0.015010125935077667, 0.06555662304162979, -0.04650473594665527, 0.05958353728055954, 0.042386047542095184, -0.004509754478931427, 0.04705102741718292, -0.026120617985725403, -0.01855400949716568, -0.060054950416088104, -0.057007886469364166, -0.04175594821572304, -0.02276453748345375, 0.026925168931484222, -0.004385694861412048, -0.05780189856886864, 0.002541355788707733, 0.007111705839633942, 0.020744062960147858, 0.05269447714090347, -0.060098517686128616, -0.0671694278717041, 0.05110283941030502, 0.029140695929527283, -0.018446184694767, 0.05524493008852005, 0.04759287089109421, 0.04656677693128586, 0.0460805669426918, -0.029273338615894318, 0.06400171667337418, -0.05809381231665611, -0.05301399901509285, 0.03894194960594177, 0.04614447057247162, 0.0015158653259277344, -0.050350889563560486, -0.0645323321223259, 0.009703584015369415, 0.05180170387029648, -0.031773004680871964, 0.055012576282024384, 0.05181221663951874, -0.04622374102473259, -0.008811328560113907, 0.06700656563043594, -0.06170595437288284, 0.055481038987636566, -0.003694877028465271, 0.052939943969249725, -0.06737527996301651, 0.04188220202922821, 0.02387392520904541, -0.052418053150177, 0.04212750494480133, -0.05623144283890724, -0.06431169807910919, -0.005392886698246002, 0.013029173016548157, -0.04098599776625633, 0.0028668493032455444, -0.011044934391975403, -0.03529563918709755, 0.03927408903837204, 0.02403157204389572, -0.06279458850622177, 0.02504313737154007, -0.008960716426372528, -0.05690279230475426, -0.05344158411026001, -0.04408850893378258, -0.008286621421575546, 0.030888572335243225, -0.06637033075094223, 0.027275316417217255, 0.01958893984556198, 0.06041572242975235, -0.06581733375787735, 0.011482775211334229, 0.006952747702598572, -0.04964818060398102, -0.04993054270744324, 0.06268227845430374, -0.00604335218667984, 0.0052322521805763245, -0.009054861962795258, -0.00655587762594223, 0.062253646552562714, -0.0021351277828216553, 0.020880170166492462, 0.036206185817718506, -0.01114850863814354, -0.03981921821832657, 0.0030587613582611084, -0.02512490004301071, -0.031011778861284256, -0.055172935128211975, -0.023753125220537186, -0.02045328915119171, -0.011947326362133026, -0.04838026314973831, 0.02467568963766098, -0.003695942461490631, -0.04134919121861458, -0.0010309666395187378, -0.032962214201688766, 0.02784077078104019, 0.01272079348564148, -0.043913472443819046, 0.01669793576002121, 0.05786219984292984, 0.03839271515607834, -0.053206924349069595, -0.06664253771305084, 0.03316853940486908, -0.028048347681760788, 0.0372156947851181, -0.011616922914981842, -0.002075374126434326, 0.00823957473039627, 0.06960587948560715, -0.032644178718328476, 0.06631075590848923, 0.030845433473587036, 0.018583282828330994, -0.03370465710759163, 0.060558028519153595, 0.01695873588323593, -0.013669509440660477, -0.06998398900032043, 0.04455173760652542, -0.011885832995176315, -0.05206257849931717, 0.004079893231391907, 0.007388070225715637, -0.02767343819141388, 0.025623641908168793, -0.030306488275527954, 0.06986568123102188, -0.051158808171749115, -0.027109511196613312, -0.04945417493581772, -0.00020143389701843262, 0.027039311826229095, -0.036947544664144516, 0.0019009336829185486, 0.012126795947551727, -0.05707259848713875, 0.012151576578617096, -0.00833648070693016, -0.014478698372840881, -0.044178418815135956, -0.03151118382811546, -0.043923571705818176, 0.0307655930519104, -0.04803851619362831, -0.015692494809627533, 0.03994692116975784, -0.006354913115501404, -0.021621499210596085, -0.033810269087553024, 0.006250858306884766, 0.02376444637775421, 0.049556538462638855, 0.03607313334941864, -0.014452554285526276, 0.006469026207923889, 0.03924406319856644, 0.04445990175008774, -0.04105931520462036, 0.03570181876420975, -0.02710910513997078, -0.019076835364103317, 0.033023491501808167, -0.03393806144595146, 0.05860552936792374, -0.015403419733047485, -0.0389258973300457, 0.06712230294942856, 0.0025250986218452454, 0.055029116570949554, -0.0016224309802055359, -0.03642607107758522, -0.01568402349948883, -0.05742505565285683, 0.011040203273296356, 0.030579082667827606, 0.015644140541553497, -0.048213887959718704, 0.061093710362911224, -0.014456875622272491, 0.020349711179733276, -0.0671139732003212, 0.03722710162401199, 0.03140602260828018, 0.06663935631513596, -0.020420674234628677, 0.06863138824701309, -0.05001957342028618, 0.002578519284725189, 0.05798735469579697, 0.02413371205329895, -0.001870676875114441, 0.044780150055885315, -0.024457134306430817, -0.02844792976975441, -0.003776341676712036, 0.06538417190313339, 0.068714939057827, -0.012151867151260376, 0.056087009608745575, -0.043719030916690826, 0.024990543723106384, 0.006612516939640045, 0.04315943270921707, 0.05267747491598129, -0.04582265764474869, -0.05869622156023979, 0.0422409251332283, 0.06617581099271774, 0.020924240350723267, 0.04532632231712341, 0.04978693276643753, 0.033381640911102295, -0.005854159593582153, 0.030074238777160645, 0.04472619295120239, -0.0623735710978508, 0.01526498794555664, -0.008216708898544312, 0.02433685213327408, 0.02768203616142273, -0.036044344305992126, 0.030609212815761566, 0.01365787535905838, -0.04783662036061287, -0.049301743507385254, -0.03974746912717819, 0.03701215982437134, 0.04230388253927231, -0.05019501596689224, 0.053191184997558594, -0.020006660372018814, 0.06667842715978622, -0.054473891854286194, 0.03309692442417145, -0.038569170981645584, -0.03162789344787598, 0.016306720674037933, -0.06912776082754135, -0.04141833633184433, 0.029278449714183807, 0.027778834104537964, -0.012007094919681549, -0.00804852694272995, -0.03458246961236, -0.05332665145397186, 0.005731157958507538, 0.05644499510526657, -0.02854881063103676, 0.010633327066898346, -0.009129185229539871, 0.052906423807144165, -0.052524615079164505, 0.018614836037158966, 0.018030308187007904, -0.05812222510576248, 0.0391136109828949, 0.0033145397901535034, 0.06407061964273453, -0.06927771866321564, 0.011177293956279755, -0.03874029591679573, -0.042324088513851166, -0.0011009573936462402, -0.013544119894504547, 0.010129906237125397, 0.013990089297294617, -0.03949537128210068, 0.05081905424594879, 0.03246195614337921, -0.0396268367767334, -0.019390512257814407, -0.0327853225171566, 0.04558287560939789, 0.0676761046051979, -0.06795869767665863, 0.030418619513511658, 0.014578469097614288, -0.03014397621154785, -0.005566202104091644, -0.04706208407878876, -0.056929174810647964, 0.06918904930353165, -0.015152733772993088, -0.03449765220284462, 0.006396934390068054, 0.01362675428390503, 0.045717597007751465, -0.05931684002280235, 0.04367268830537796, -0.02414104714989662, -0.03817252814769745, -0.06874194741249084, 0.0466889888048172, 0.039188630878925323, 0.015753544867038727, -0.04981699958443642, -0.025343887507915497, -0.01588001847267151, 0.054937541484832764, -0.008622705936431885, -0.03269367292523384, -0.0468141995370388, 0.0669512078166008, -0.0638175904750824, 0.06412187963724136, 0.031285129487514496, 0.020148001611232758, 0.06495027989149094, -0.006218113005161285, 0.0639314129948616, 0.008587196469306946, 0.06691852957010269, 0.043548695743083954, 0.06443173438310623, -0.02687821537256241, -0.0089394710958004, -0.05732318386435509, 0.005389422178268433, -0.0673365369439125, -0.04362194985151291, -0.033058084547519684, 0.06285681575536728, 0.06943845003843307, 0.00015686452388763428, -0.06443075090646744, -0.06659708172082901, -0.05785591900348663, 0.04008283466100693, -0.003163754940032959, -0.05991284176707268, 0.06230054050683975, -0.041362226009368896, -0.011287890374660492, 0.05128050595521927, 0.02588818222284317, -0.032418541610240936, -0.007511112838983536, 0.0550004318356514, -0.06777255237102509, -0.04575683921575546, 0.06264664977788925, -1.6450881958007812e-05, -0.008211206644773483, -0.02352282777428627, 0.003887072205543518, -0.05950719863176346, -0.04068310931324959, 0.025092199444770813, -0.060800664126873016, 0.04497207701206207, 0.05163220316171646, 0.014103978872299194, -0.06100435554981232, 0.04252345860004425, -0.04537942633032799, -0.0641624704003334, -0.023682504892349243, -0.04648389667272568, -0.018184684216976166, -0.01666824147105217, 0.05122358351945877, -0.05492806434631348, -0.014988075941801071, 0.03267321735620499, 0.067904032766819, -0.060768913477659225, 0.04809392988681793, 0.01330728828907013, 0.024406254291534424, -0.012817859649658203, -0.05607396364212036, -0.029659617692232132, 0.05952144414186478, 0.004174426198005676, 0.02412441372871399, 0.003907233476638794, 0.015186302363872528, 0.05734308809041977, 0.05184290558099747, -0.011366963386535645, 0.02716442197561264, 0.06126002222299576, 0.004255503416061401, -0.040126048028469086, 0.04693593829870224, -0.02304290235042572, -0.02156379073858261, -0.03892095386981964, -0.0024034231901168823, -0.006702646613121033, -0.062274783849716187, 0.01715271919965744, 0.06013394147157669, 0.05190252512693405, 0.04552929848432541, 0.060368843376636505, 0.04638589918613434, -0.008660197257995605, -0.03323827311396599, -0.06651410460472107, 0.0019078850746154785, -0.00020901858806610107, 0.035106778144836426, -0.021635375916957855, 0.011665046215057373, 0.014076851308345795, 0.024299979209899902, -0.03852846845984459, -0.0343148335814476, 0.06786491721868515, -0.06647595763206482, 0.06301813572645187, -0.05296093598008156, -0.042271196842193604, 0.04918123781681061, -0.06597751379013062, 0.029289118945598602, -0.037757597863674164, -0.02343064174056053, 0.03647430241107941, -0.04563261568546295, -0.02076413482427597, -0.03282073885202408, 0.006788589060306549, -0.03157633915543556, -0.046324484050273895, 0.04070688784122467, -0.06854762136936188, -0.033095601946115494, 0.057277970016002655, -0.018975455313920975, -0.05763242766261101, 0.06126811355352402, 0.0002624392509460449, -0.04894709587097168, -0.051356278359889984, -0.00012174993753433228, 0.02595037966966629, -0.00716438889503479, -0.0005917400121688843, 0.02573457360267639, 0.0032777637243270874, -0.06894396990537643, 0.06347506493330002, -0.016149058938026428, -0.05126386508345604, 0.04432425647974014, 0.03505738079547882, -0.02572859823703766, -0.06944724172353745, -0.019953463226556778, -0.050104446709156036, -0.022949978709220886, 0.023661859333515167, -0.06813491880893707, 0.0017069131135940552, -0.04293021559715271, -0.03940178453922272, 0.05471431463956833, -0.0045145973563194275, 0.052810974419116974, 0.04376693069934845, -0.055933643132448196, -0.011408854275941849, -0.04226294532418251, -0.041321128606796265, -0.05074624717235565, 0.015753649175167084, -0.002430833876132965, -0.035265836864709854, -0.06571366637945175, -0.0012927725911140442, -0.05059413984417915, 0.031045742332935333, 0.015918485820293427, -0.058231648057699203, 0.05286608636379242, 0.05228012055158615, -0.014575980603694916, -0.029137350618839264, -0.06844397634267807, -0.021630190312862396, 0.0318409726023674, 0.06559569388628006, -0.000748366117477417, 0.058488376438617706, -0.03647845983505249, -0.046651311218738556, 0.005723327398300171, 0.05168724060058594, -0.025800757110118866, 0.03004060685634613, -0.017147623002529144, 0.05299827456474304, -0.05159585922956467, 0.004319801926612854, -0.01764683797955513, 0.005956210196018219, 0.04430457949638367, 0.06313496083021164, -0.012086566537618637, -0.03741803392767906, 0.03285212814807892, -0.05009619519114494, -0.010870888829231262, -0.06457522511482239, 0.03902202844619751, -0.0684041678905487, 0.06550657004117966, -0.017732296139001846, 0.015684664249420166, 0.027875036001205444, 0.01174619048833847, -0.009734362363815308, 0.028216786682605743, 0.024378702044487, 0.03724880516529083, 0.010186374187469482, -0.044431596994400024, -0.01367080956697464, -0.05104047805070877, -0.008143357932567596, -0.013730484992265701, 0.055720992386341095, 0.04565151035785675, 0.0031744539737701416, -0.0509590208530426, -0.009238041937351227, 0.052092403173446655, 0.02336585521697998, -0.05524374544620514, -0.003025151789188385, 0.06311299651861191, 0.016487374901771545, 0.05970137566328049, 0.0066972896456718445, -0.030299264937639236, 0.007749907672405243, 0.007427796721458435, 0.0018393546342849731, -0.049486543983221054, 0.028339840471744537, -0.06082114204764366, 0.006074048578739166, 0.06206297129392624, 0.021055608987808228, 0.028213903307914734, -0.01589319482445717, -0.06209781393408775, 0.03652537614107132, 0.018137149512767792, 0.014145448803901672, -0.013625171035528183, 0.027221418917179108, 0.03716381639242172, 0.029732435941696167, 0.009081758558750153, 0.042731255292892456, 0.04455723613500595, 0.04548186808824539, -0.0683496743440628, 0.016755491495132446, 0.019539549946784973, 0.0030305981636047363, -0.06702061742544174, -0.004806414246559143, 0.015672072768211365, -0.0103471539914608, 0.037102580070495605, -0.04476224631071091, -0.02060632035136223, 0.06167341023683548, -0.06043704226613045, -0.029529497027397156, -0.017470695078372955, -0.06727346777915955, -0.002502627670764923, 0.042523570358753204, 0.023060843348503113, 0.06633973866701126, 0.04680141061544418, -0.0051494017243385315, 0.05247422307729721, 0.0676702931523323, -0.04282381385564804, -0.023271631449460983, -0.05537588521838188, 0.0314907506108284, -0.062466491013765335, -0.046250924468040466, 0.059679605066776276, -0.03936785086989403, -0.05889575928449631, -0.011171497404575348, -0.03258819878101349, 0.0029518604278564453, -0.05527547746896744, -0.06078682467341423, -0.06052625924348831, -0.0020402073860168457, -0.029100053012371063, 0.06237243860960007, -0.03840022161602974, 0.06760186702013016, -0.0012628436088562012, -0.06821068376302719, 0.02471281588077545, 0.020935669541358948, 0.055487699806690216, -0.052100200206041336, -0.040674641728401184, -0.0017679780721664429, -0.027913477271795273, 0.05051647126674652, 0.04566539078950882, -0.02490168809890747, 0.059531278908252716, 0.061852939426898956, -0.04442160949110985, 0.03798489272594452, -0.05700625106692314, -0.060068003833293915, -0.02817343920469284, 0.04911131411790848, -0.008368022739887238, -0.06709472835063934, 0.054559141397476196, -0.038532208651304245, -0.0007574111223220825, 0.03219503164291382, 0.004338562488555908, 0.018710747361183167, 0.02992667257785797, -0.014891110360622406, -0.007977906614542007, -0.05477695167064667, 0.06232853978872299, 0.034832537174224854, 0.0025058016180992126, 0.05546029657125473, 0.04646759480237961, 0.055146582424640656, 0.03995441645383835, -0.06708662956953049, 0.0036181434988975525, 0.0500015988945961, 0.042177148163318634, 0.04379776865243912, 0.012273222208023071, -0.05107057839632034, -0.04244357347488403, -0.046887874603271484, 0.062044866383075714, -0.0593995563685894, 0.03315706551074982, -0.053721778094768524, 0.01332855224609375, 0.01852676272392273, -0.038729701191186905, 0.0019520670175552368, 0.024151436984539032, -0.026614341884851456, 0.059065081179142, -0.06713229417800903, 0.028411567211151123, 0.03824310749769211, 0.0658099427819252, 0.024003371596336365, 0.022271886467933655, -0.05365678295493126, -7.68899917602539e-06, 0.05185987055301666, 0.06840107589960098, -0.004027828574180603, -0.018720462918281555, -0.025708578526973724, -0.04162749648094177, -0.06887342780828476, 0.03893444687128067, 0.0442635640501976, -0.04913928359746933, -0.04789227619767189, 0.018111035227775574, -0.026636969298124313, -0.06647910177707672, -0.029457852244377136, -0.04181999713182449, 0.03625714033842087, -0.04979817569255829, 0.06406452506780624, 0.05897902697324753, 0.032637640833854675, -0.03892083466053009, 0.04455854743719101, -0.06258678436279297, 0.001836337149143219, -0.012472283095121384, 0.02836713194847107, -0.0252804234623909, -0.02175256982445717, -0.04698847606778145, -0.02544018253684044, -0.04344162344932556, -0.02414027228951454, -0.01902323216199875, -0.025368165224790573, 0.0512717142701149, 0.005487993359565735, -0.04143868386745453, 0.03887833654880524, 0.00546177476644516, -0.05436743050813675, 0.015027791261672974, -0.03902430832386017, 0.05096059292554855, -0.03674422949552536, 0.02539946138858795, -0.05824656039476395, 0.050320759415626526, 0.04290739446878433, -0.048279717564582825, 0.04539899528026581, 0.004893042147159576, 0.029781632125377655, 0.05501756817102432, -0.022084351629018784, 0.03847628831863403, 0.06520489603281021, -0.03535090386867523, 0.013936072587966919, -0.04491851478815079, 0.005444444715976715, -0.002365127205848694, 0.06616415828466415, 0.06528579443693161, -0.062205687165260315, 0.03620176017284393, -0.06917767226696014, 0.03966329246759415, -0.006517104804515839, -0.04880088195204735, -0.0028283819556236267, 0.03523261845111847, 0.02424135059118271, -0.06371332705020905, 0.015265941619873047, -0.0393456406891346, -0.01376529410481453, 0.01502806693315506, -0.040596604347229004, 0.016979500651359558, 0.03857371211051941, -0.028769079595804214, 0.048717059195041656, 0.041162990033626556, 0.06055805832147598, -0.008053850382566452, 0.01982586830854416, -0.02165384218096733, -0.04841720312833786, -0.015673980116844177, -0.0176057368516922, -0.007528956979513168, 0.031082555651664734, 0.06878691166639328, 0.033606961369514465, -0.02235139161348343, 0.03533864766359329, 0.052274204790592194, -0.06509488821029663, -0.038278136402368546, -0.033135898411273956, 0.022667698562145233, 0.03683946281671524, -0.05789920315146446, -0.028217077255249023, 0.06662512570619583, 0.004723511636257172, 0.05677669495344162, 0.05186992138624191, 0.0313042551279068, -0.06180825084447861, -0.05434633046388626, -0.0679595023393631, 0.03080427646636963, -0.05458443611860275, -0.020933043211698532, 0.04998853802680969, -0.045779429376125336, 0.05862458795309067, -0.003977082669734955, -0.027987122535705566, -0.06524501740932465, -0.017800435423851013, 0.041926391422748566, 0.05610007792711258, -0.00041925162076950073, -0.0035131946206092834, -0.028638843446969986, 0.025178715586662292, 0.058796025812625885, -0.06532099843025208, -0.0075227320194244385, 0.02421114593744278, -0.05844658240675926, -0.03412080928683281, 0.004803851246833801, 0.06397291272878647, 0.004280567169189453, -0.033937059342861176, 0.031633585691452026, -0.021338630467653275, -0.05647631734609604, -0.0507906973361969, 0.06905453652143478, 0.0281611829996109, -0.017803173512220383, -0.0686822161078453, -0.05353287607431412, -0.030264031141996384, 0.016023576259613037, 0.021980009973049164, 0.024639658629894257, -0.019833270460367203, -0.032888997346162796, 0.0148516446352005, -0.04475705325603485, -0.04451891407370567, 0.06771060079336166, 0.06287319213151932, 0.030585087835788727, 0.06219152361154556, 0.03120160847902298, -0.02491118013858795, -0.002585768699645996, -0.03949413821101189, -0.04614368826150894, 0.04938296973705292, 0.061474911868572235, 0.05425524711608887, 0.05775543302297592, -0.025285206735134125, 0.06759359687566757, -0.06968370825052261, 0.005374342203140259, -0.058331117033958435, -0.0434173122048378, 0.058488138020038605, -0.0662473738193512, 0.002971649169921875, -0.004180699586868286, 0.048834480345249176, -0.04928365722298622, -0.06553348898887634, 0.043901264667510986, 0.007285274565219879, 0.017420552670955658, -0.0449545718729496, 0.05701742321252823, -0.06088816374540329, 0.012789703905582428, -0.0020471662282943726, 0.0265689417719841, -0.06238915026187897, 0.025805503129959106, 0.018176056444644928, -0.05446191504597664, 0.03753878176212311, -0.029572755098342896, -0.01938461884856224, 0.06408201903104782, 0.05233388394117355, 0.04460565000772476, -0.047499656677246094, -0.06260287761688232, -0.031443867832422256, -0.0061528682708740234, -0.06877979636192322, 0.05973000079393387, 0.037038467824459076, 0.04027383029460907, 0.0042000263929367065, 0.008839763700962067, 0.034520819783210754, -0.06650657206773758, -0.027171354740858078, -0.02071245387196541, 0.040418095886707306, 0.04512173682451248, -0.028911784291267395, -0.024487469345331192, -0.02737358957529068, 0.029538750648498535, -0.011412184685468674, 0.030789516866207123, 0.02752549946308136, -0.013355985283851624, -0.05435622110962868, -0.019385110586881638, -0.049853451550006866, -0.0403047613799572, -0.005003027617931366, -0.028454087674617767, -0.03501414135098457, -0.05757623910903931, -0.048873063176870346, 0.05214012414216995, -0.03989130258560181, 0.023118697106838226, 0.05846818536520004, -0.026859261095523834, -0.062266211956739426, -0.06545062363147736, -0.007444322109222412, 0.002466827630996704, -0.03301943838596344, 0.02898898720741272, 0.03052520751953125, 0.0002824068069458008, -0.05307697504758835, 0.036175891757011414, 0.030488312244415283, -0.01469505950808525, -0.02907557040452957, 0.007123589515686035, 0.05847618728876114, -0.04528775438666344, 0.051200106739997864, -0.04275384545326233, -0.0421716570854187, 0.06782227009534836, 0.009302482008934021, 0.0017489418387413025, 0.04299113154411316, -0.031551577150821686, 0.04639095067977905, -0.010865304619073868, -0.003917299211025238, 0.041116125881671906, -0.04052291810512543, -0.05166054517030716, 0.021052390336990356, 0.046696171164512634, -0.02596069872379303, -0.059358492493629456, -0.04658597707748413, 0.04497247189283371, 0.0007634684443473816, 0.02882833033800125, -0.06394979357719421, -0.009432431310415268, -0.06346110254526138, -0.06172432005405426, 0.05300421267747879, 0.03845040500164032, 0.03534229099750519, -0.03576317057013512, -0.06448087841272354, -0.04206772521138191, -0.04454236850142479, -0.05367612838745117, 0.006057664752006531, 0.05717254430055618, -0.041967686265707016, 0.03655969351530075, 0.04931262880563736, -0.019087016582489014, 0.03740665316581726, -0.04144386202096939, 0.06979607790708542, 0.05358918756246567, 0.03501908481121063, 0.04528021067380905, 0.04066283255815506, -0.06838905811309814, -0.017809823155403137, 0.00026404857635498047, 0.023254238069057465, -0.03371838107705116, -0.05988900735974312, -0.010235194116830826, 0.03647143393754959, -0.006623551249504089, 0.0683053657412529, -0.05776382237672806, 0.022360213100910187, 0.00967976450920105, -0.00371357798576355, -0.01122162863612175, -0.034024421125650406, 0.06482001394033432, -0.028746899217367172, 0.04894819110631943, 0.0013601481914520264, -0.04455111175775528, -0.06603717058897018, -0.03168608993291855, 0.004282146692276001, 0.06706174463033676, 0.06230538338422775, 0.048192739486694336, 0.01900067925453186, -0.038077566772699356, -0.04318708926439285, -0.024731654673814774, -0.05467746779322624, 0.054441072046756744, 0.04862373322248459, -0.00312824547290802, -0.06049394980072975, 0.007659487426280975, -0.00488695502281189, 0.04295498877763748, 0.03306444734334946, -0.021532703191041946, 0.04017796367406845, 0.013205178081989288, -0.05018226057291031, -0.012568745762109756, -0.06708700209856033, -0.01815309002995491, 0.021886691451072693, -0.029594235122203827, 0.005368821322917938, -0.05558086186647415, -0.05437556281685829, 0.03196409344673157, 0.019252926111221313, 0.018976695835590363, -0.02814018726348877, -0.03926985710859299, -0.028318677097558975, -0.020927846431732178, 0.010584406554698944, -0.04150272160768509, 0.005284331738948822, 0.01816607266664505, 0.02617582678794861, 0.013056069612503052, -0.06453119218349457, -0.030049722641706467, -0.03873924911022186, 0.0503893718123436, 0.05062764137983322, -0.02426813915371895, -0.019906096160411835, 0.017099842429161072, 0.003242865204811096, -0.06422184407711029, -0.042191192507743835, -0.06220380961894989, 0.06239563971757889, -0.015066377818584442, 0.007098197937011719, 0.033959269523620605, 0.022006459534168243, -0.026793651282787323, -0.06159374490380287, 0.007707469165325165, -0.06361572444438934, 0.009858429431915283, 0.027951791882514954, -0.05051276087760925, 0.05096589773893356, 0.05680219084024429, -0.019497964531183243, -0.06519615650177002, -0.02066505327820778, 0.02862498164176941, 0.05282067507505417, 0.00293847918510437, -0.038768667727708817, -0.03982815146446228, 0.04059448093175888, -0.04845326393842697, -0.06283288449048996, 0.061424724757671356, 0.026421666145324707, -0.0017403364181518555, 0.043966710567474365, 0.021535195410251617, 0.021338604390621185, 0.0332016795873642, -0.04707759991288185, -0.03182118013501167, -0.04236102104187012, 0.05121523141860962, 0.007245190441608429, -0.03293949365615845, -0.060154519975185394, -0.05333112180233002, 0.06292375177145004, 0.04823516309261322, 0.013651855289936066, -0.01056211069226265, 0.06174152344465256, -0.028051231056451797, -0.003275945782661438, 0.02597302943468094, -0.0023059919476509094, 0.06592438369989395, 0.00891539454460144, -0.017100434750318527, 0.02332405000925064, -0.04605687037110329, -0.03038165718317032, -0.04338671267032623, -0.059081073850393295, -0.06984265148639679, -0.04041631519794464, 0.013206057250499725, -0.02831840142607689, 0.005450800061225891, 0.031169675290584564, -0.0031315460801124573, 0.04305368661880493, 0.008950866758823395, 0.008611246943473816, -0.0017823055386543274, -0.047816697508096695, 0.00345398485660553, -0.02524394541978836, 0.031771764159202576, -0.014553356915712357, 0.03840937465429306, -0.03496061637997627, -0.06349599361419678, -0.028848960995674133, 0.02827153354883194, 0.02211320400238037, -0.03051416203379631, -0.056345295161008835, 0.047820381820201874, 0.06586792320013046, -0.009734448045492172, -0.0428609699010849, 0.011502280831336975, 0.03657495975494385, 0.04431760311126709, 0.0363023579120636, -0.012215986847877502, -0.03187570348381996, -7.322430610656738e-05, -0.03542868420481682, 0.03955160081386566, -0.016204994171857834, 0.030143313109874725, 0.030604831874370575, -0.02925100177526474, -0.050661563873291016, 0.0329374298453331, -0.012779437005519867, -0.033897124230861664, 0.03962051123380661, 0.009785063564777374, -0.023597482591867447, -0.003165721893310547, 0.02987045794725418, 0.02458856999874115, 0.0490458682179451, 0.05260676145553589, -0.05838005989789963, 0.0512683242559433, -0.03210623562335968, -0.06437011063098907, 0.03853428363800049, 0.05970502644777298, 0.02407679706811905, -0.02582661062479019, 0.04957439750432968, -0.0535450205206871, -0.06486699730157852, 0.06397343426942825, 0.042923130095005035, 0.05691475421190262, 0.05784294754266739, -0.06885924190282822, -0.05366287752985954, -0.02901393547654152, 0.06758386641740799, -0.06980806589126587, 0.03650584816932678, 0.06726924329996109, 0.03517930209636688, -0.03743695840239525, 0.018992498517036438, 0.010568596422672272, 0.002333596348762512, 0.014454178512096405, -0.036509450525045395, -0.03262421861290932, -0.03977074474096298, -0.0035665854811668396, -0.04650299251079559, 0.04886207729578018, -0.03432715684175491, -0.05807590112090111, 0.00686383992433548, -0.031912822276353836, -0.02818308025598526, 0.006163686513900757, 0.05006757378578186, 0.035119764506816864, 0.006378389894962311, -0.03242418169975281, -0.030247971415519714, -0.06275168061256409, 0.06296906620264053, -0.016042128205299377, -0.037229351699352264, 0.06819600611925125, -0.02419023960828781, 0.030373334884643555, 0.00863616168498993, 0.014932096004486084, -0.05407838523387909, 0.06016027182340622, -0.005580350756645203, -0.033138714730739594, -0.04497072845697403, -0.047200314700603485, -4.769861698150635e-05, -0.04411081224679947, -0.04081552475690842, 0.013643838465213776, 0.037835270166397095, 0.028274819254875183, -0.04870482161641121, -0.006517842411994934, -0.002564653754234314, 0.05139632523059845, -0.001066654920578003, 0.03227093070745468, 0.004576049745082855, -0.0073719993233680725, -0.01112467423081398, -0.00425296276807785, 0.018375426530838013, 0.01924707740545273, -0.01581905409693718, -0.03458362817764282, 0.05028548091650009, -0.04458749294281006, 0.047529712319374084, 0.039204783737659454, 0.02636583149433136, 0.052387550473213196, -0.04603738337755203, 0.0032350867986679077, -0.005454488098621368, 0.048539258539676666, -0.01779019832611084, -0.029559362679719925, -0.022559043020009995, 0.019968926906585693, -0.0002883896231651306, 0.055063433945178986, 0.062462396919727325, -0.02527560666203499, -0.03212540224194527, 0.008311010897159576, 0.025117553770542145, -0.037150729447603226, 0.03883010894060135, 0.010631352663040161, 0.026745788753032684, 0.015552915632724762, 0.02111002802848816, -0.06840448081493378, 0.015124805271625519, 0.04312510788440704, -0.03914336860179901, 0.028528809547424316, -0.06317851692438126, -0.005032472312450409, 0.01613248884677887, 0.04189806431531906, 0.04367312788963318, -0.049924690276384354, -0.029524650424718857, 0.04230954498052597, 0.020018264651298523, 0.025177903473377228, -0.0685262382030487, 0.06643538922071457, 0.030935287475585938, -0.048489049077034, -0.03241230919957161, -0.06493932753801346, 0.008568517863750458, -0.023449257016181946, -0.0669737234711647, -0.05441673845052719, 0.035021863877773285, 0.06322386115789413, 0.043921664357185364, 0.057505764067173004, -0.041170813143253326, -0.057544220238924026, -0.029843732714653015, 0.02767421305179596, 0.03431404381990433, 0.015554144978523254, -0.06289174407720566, 0.051680199801921844, 0.029312647879123688, -0.04804600030183792, -0.04352441057562828, 0.03906472772359848, -0.02768193557858467, -0.008109711110591888, -0.06092984974384308, 0.048466287553310394, -0.06914027780294418, 0.043157316744327545, 0.022947438061237335, -0.05195050686597824, 0.026580192148685455, -0.022352702915668488, 0.038086146116256714, 0.03150355815887451, -0.026863988488912582, -0.022174634039402008, 0.012338310480117798, 0.045409344136714935, 0.06409650295972824, 0.054237641394138336, 0.011702775955200195, -0.013048909604549408, 0.05567992478609085, -0.045544691383838654, 0.028271310031414032, 0.06361771374940872, -0.06026006489992142, -0.06996279209852219, 0.054814308881759644, -0.0051947832107543945, -0.028339043259620667, 0.06331891566514969, 0.05143662542104721, 0.05331266671419144, 0.04421725124120712, -0.056200943887233734, 0.03751898556947708, 0.017008453607559204, -0.05134632810950279, 0.06240776926279068, -0.06497545540332794, 0.03801137953996658, 0.026350557804107666, 0.019649773836135864, -0.04506254941225052, 0.060907356441020966, 0.026846058666706085, -0.01746012642979622, -0.015794310718774796, 0.06306324154138565, -0.0005698651075363159, -0.06217772513628006, -0.016984667629003525, -0.010397881269454956, 0.016128815710544586, 0.024201184511184692, 0.05091794580221176, -0.05651024356484413, 0.002591527998447418, 0.0653817281126976, -0.010142266750335693, -0.06423573195934296, 0.03625214099884033, 0.05409634858369827, 0.011800557374954224, -0.06260035187005997, -0.013668801635503769, -0.014217115938663483, 0.0699814185500145, 0.0625109001994133, 0.02836897224187851, -0.025551650673151016, -0.05417430028319359, 0.06359108537435532, -0.03919057920575142, -0.06737781316041946, -0.05433467775583267, 0.0677528902888298, -0.007415682077407837, 0.03421551734209061, -0.019452109932899475, 0.0044715553522109985, 0.059257782995700836, 0.001262754201889038, 0.011962316930294037, 0.038859881460666656, 0.03357774019241333, -0.013047091662883759, 0.06844408065080643, 0.04020532965660095, -0.04732208698987961, 0.05996481329202652, 0.06950380653142929, 0.015107639133930206, 0.02483750879764557, -0.0036328285932540894, 0.002900630235671997, 0.06164022535085678, -0.02571142464876175, 0.022308260202407837, 0.041323065757751465, 0.016621068120002747, -0.024352844804525375, 0.006657890975475311, -0.050883758813142776, -0.01931154727935791, 0.0024216994643211365, -0.031552061438560486, 0.027886077761650085, 0.023673593997955322, -0.016242798417806625, -0.027192160487174988, 0.06257476657629013, 0.008395060896873474, -0.018704764544963837, -0.04410161077976227, -0.02512729912996292, 0.05699797719717026, 0.037164367735385895, -0.06715688854455948, 0.04709243029356003, 0.03943513333797455, -0.018701933324337006, -0.03407780081033707, -0.03046458214521408, 0.023037061095237732, -0.002611987292766571, 0.010347172617912292, 0.029351219534873962, -0.03758794069290161, -0.039053648710250854, -0.013688042759895325, 0.002310328185558319, -0.008132081478834152, 0.05601993948221207, 0.06205452233552933, 0.02607109397649765, 0.05617431551218033, -0.01637326180934906, -0.04424067959189415, 0.004776157438755035, -0.003143623471260071, -0.04660051316022873, 0.03343763202428818, 0.06965572386980057, -0.0560251846909523, -0.035378873348236084, 0.01844828575849533, -0.015058055520057678, -0.031530946493148804, 0.0019942298531532288, -0.03924863040447235, 0.024052917957305908, 0.048954710364341736, 0.016527332365512848, -0.002158120274543762, 0.008267462253570557, 0.046667471528053284, 0.008642077445983887, -0.026414070278406143, -0.012329787015914917, 0.004905253648757935, -0.06517703086137772, -0.010252848267555237, 0.005958378314971924, 0.014792300760746002, -0.0696549192070961, 0.06382747739553452, 0.030790209770202637, 0.03564020246267319, 0.05508265644311905, -0.0058794766664505005, 0.05376450717449188, -0.006303638219833374, -0.011059504002332687, 0.0695611760020256, 0.0479891374707222, 0.019569747149944305, 0.05389265716075897, -0.021352317184209824, -0.008829083293676376, -0.06998836994171143, -0.027158234268426895, 0.04201693832874298, -0.02794264629483223, 0.008740760385990143, -0.030561894178390503, 0.0666336789727211, 0.018363773822784424, -0.04907778650522232, 0.012541458010673523, 0.0017222762107849121, 0.056038402020931244, -0.011323027312755585, 0.025233440101146698, -0.03770536556839943, 0.0669797733426094, -0.021505121141672134, -0.02688910812139511, 0.025418035686016083, 0.06585986167192459, 0.029835574328899384, 0.048313140869140625, -0.021722018718719482, 0.00271480530500412, 0.03536815196275711, 0.055099405348300934, -0.02871169149875641, -0.060889437794685364, 0.06247296184301376, 0.037561677396297455, 0.011040255427360535, 0.06193961948156357, 0.008307568728923798, -0.028735775500535965, 0.058840177953243256, 0.040490902960300446, -0.014708265662193298, 0.019911572337150574, -0.05609237030148506, -0.029689177870750427, 0.06348022073507309, 0.05187869071960449, -0.002859652042388916, 0.016050666570663452, -0.05481012910604477, 0.04514528065919876, 0.06088045984506607, -0.0436910055577755, -0.015268351882696152, -0.03812434524297714, -0.03834427148103714, 0.017665624618530273, -0.05474807322025299, -0.03226926922798157, 0.023402683436870575, -0.0019555389881134033, 0.03510986268520355, -0.05453312024474144, -0.043643563985824585, -0.0005331039428710938, 0.03585781902074814, 0.04301070421934128, 0.04407849907875061, -0.06992596387863159, -0.019366953521966934, 0.033477045595645905, 0.046715378761291504, 0.051817379891872406, 0.015818998217582703, 0.061903275549411774, 0.027449235320091248, -0.042706720530986786, -0.04589422419667244, 0.011518768966197968, -0.015789758414030075, -0.05018989369273186, -0.00934513658285141, -0.044835664331912994, -0.040298521518707275, -0.030962549149990082, 0.01880919188261032, -0.010976485908031464, -0.05616460740566254, 0.005435682833194733, 0.05246002972126007, -0.043972425162792206, -0.04022233933210373, -0.021491479128599167, -0.04468456283211708, -0.030412815511226654, -0.009417854249477386, -0.012445982545614243, -0.0689595565199852, 0.051769912242889404, -0.04891347140073776, 0.03653158247470856, 0.05265091359615326, -0.05356742441654205, -0.010665271431207657, -0.009995747357606888, -0.03371502086520195, -0.03224299103021622, -0.0041151344776153564, 0.025895625352859497, 0.053949788212776184, 0.04602520912885666, 0.016927286982536316, -0.02890726923942566, -0.02766009420156479, -0.008734449744224548, 0.022932082414627075, 0.030499257147312164, -0.04547329619526863, 0.06473677605390549, 0.03742513805627823, 0.007872112095355988, -0.044331811368465424, 0.06440242379903793, -0.031982291489839554, 0.05785001069307327, -0.028779268264770508, -0.018608752638101578, -0.06499677151441574, 0.027931690216064453, 0.03657569736242294, 0.009544476866722107, 0.0499960258603096, 0.01384841650724411, -0.0013604313135147095, -0.002031072974205017, 0.014818176627159119, -0.0066193342208862305, 0.030201561748981476, -0.011863090097904205, -0.02333882451057434, 0.021518610417842865, 0.0022392943501472473, 0.005921564996242523, -0.012302782386541367, 0.0019001215696334839, -0.02366560325026512, 0.00512811541557312, -0.009362921118736267, 0.03172900527715683, 0.0208066925406456, -0.03910813480615616, 0.0496453195810318, 0.06940344721078873, -0.0417187437415123, 0.048846714198589325, -0.0013566836714744568, 0.03158021718263626, 0.046431973576545715, -0.0501224547624588, 0.011607915163040161, 0.0375479981303215, 0.030521191656589508, 0.032061927020549774, 0.023964084684848785, 0.06654783338308334, -0.04608476907014847, 0.03264012187719345, -0.002138182520866394, 0.008573547005653381, 0.0478062704205513, 0.016738049685955048, -0.0296744704246521, -0.036121901124715805, 0.0036474987864494324, -0.052504606544971466, -0.05171620845794678, 0.03086806833744049, -0.04700538143515587, 0.03084322065114975, 0.04948968440294266, -0.014337070286273956, -0.04573134332895279, -0.02869109809398651, -0.01441047340631485, -0.06182717904448509, -0.04681668430566788, 0.03938315063714981, -0.020606543868780136, 0.014018476009368896, -0.02607061341404915, -0.012646351009607315, 0.058658696711063385, 0.0015390217304229736, 0.00015366077423095703, 0.03508896380662918, -0.06700028479099274, 0.015494123101234436, 0.01621399074792862, -0.0444229319691658, -0.04903234913945198, 0.019791267812252045, -0.0017833635210990906, -0.03417192026972771, 0.03868164122104645, 0.049491800367832184, -0.06648577004671097, 0.059261925518512726, 0.060850776731967926, -0.030005931854248047, 0.03081955760717392, 0.06375206261873245, -0.06038910150527954, -0.010399002581834793, 0.045430563390254974, 0.025824926793575287, -0.002687789499759674, 0.06778988987207413, 0.06933098286390305, 0.044041723012924194, 0.010605551302433014, 0.0477287620306015, 0.05808886140584946, -0.04302186518907547, -0.026010096073150635, 0.03295561671257019, 0.05466955900192261, 0.04328148066997528, -0.004485927522182465, 0.06591131538152695, 0.020910650491714478, 0.051520444452762604, 0.05032163858413696, -0.0699911117553711, -0.01615767925977707, -0.03712683171033859, -0.034170668572187424, -0.016326691955327988, 0.05180336534976959, 0.05930540710687637, -0.028861403465270996, -0.06631046533584595, -0.003997668623924255, 0.06712392717599869, 0.02394714206457138, 0.04297512769699097, 0.047735705971717834, 0.062448449432849884, 0.038158223032951355, 0.055047206580638885, 0.04219234734773636, 0.06384173780679703, 0.05299696326255798, 0.059041477739810944, -0.014573689550161362, -0.04063987731933594, -0.0028857216238975525, -0.0021379441022872925, 0.015619322657585144, -0.028843391686677933, 0.030992425978183746, 0.0338558703660965, 0.019989140331745148, 0.022760361433029175, -0.013534758239984512, -0.0467216819524765, -0.015208516269922256, 0.022840067744255066, 0.0049422308802604675, 0.03273293375968933, 0.018476225435733795, -0.014640800654888153, -0.017779238522052765, 0.05415220558643341, -0.04737374186515808, -0.004744298756122589, -0.02120618149638176, 0.0014937594532966614, 0.024786479771137238, 0.05012178421020508, 0.008007459342479706, 0.042762741446495056, 0.044513143599033356, -0.026874788105487823, -0.036332350224256516, 0.03489670902490616, 0.06264195591211319, -0.00868174433708191, -0.06931323558092117, -0.009860362857580185, -0.06766422837972641, 0.051820263266563416, 0.0510047972202301, -0.051934435963630676, -0.02001827210187912, 0.04620972275733948, 0.04097432643175125, -0.043854184448719025, 0.029232002794742584, 0.019901081919670105, -0.06979606300592422, 0.00873509794473648, 0.04764890670776367, -0.024420659989118576, -0.013316452503204346, 0.02018009126186371, -0.06056580692529678, 0.046324364840984344, 0.058376915752887726, -0.017788756638765335, -0.03940587490797043, -0.016695212572813034, -0.04119696468114853, 0.06957010179758072, -0.039444033056497574, 0.04111982136964798, -0.01035580039024353, 0.02282670885324478, 0.05750332027673721, -0.023438967764377594, -0.012696247547864914, -0.04885156452655792, 0.015968017280101776, -0.047088898718357086, -0.04622630029916763, -0.057258863002061844, 0.02002866566181183, -0.04620802402496338, 0.06344827264547348, 0.0647650882601738, 0.06370595842599869, 0.03833641856908798, 0.02889801561832428, -0.05863632634282112, 0.020789265632629395, -0.021467342972755432, -0.03646312281489372, -0.049086280167102814, 0.014009915292263031, -0.027275454252958298, 0.05710948258638382, 0.06884514540433884, -0.06992392241954803, 0.031549714505672455, 0.059835098683834076, 0.03966057300567627, -0.056105226278305054, -0.03709189593791962, 0.009197942912578583, 0.06372050195932388, 0.027531132102012634, -0.04719313234090805, -0.025002915412187576, 0.011997193098068237, 0.01713162660598755, 0.05092640221118927, -0.0666961669921875, -0.060110218822956085, 0.04207409918308258, -0.013063386082649231, -0.03686140105128288, -0.030113164335489273, -0.008368704468011856, 0.028149962425231934, -0.021490126848220825, -0.050927191972732544, 0.06885164231061935, -0.059744104743003845, -0.045217640697956085, -0.04466281831264496, 0.06581193953752518, 0.0061790794134140015, -0.043880730867385864, 0.03685320168733597, -0.035118862986564636, 0.002544686198234558, -0.0641353502869606, 0.04350874572992325, 0.06640269607305527, -0.03252290189266205, 0.03194360435009003, 0.03735971450805664, 0.016601890325546265, -0.06507939845323563, -0.05983825773000717, -0.012989342212677002, 0.05934616178274155, 0.06073901802301407, 0.004667632281780243, 0.0048841387033462524, 0.004017181694507599, 0.04563865065574646, -0.004264079034328461, -0.05744152516126633, -0.037218812853097916, -0.03520858287811279, -0.03759818896651268, 0.0009380877017974854, 0.026555567979812622, -0.04259202256798744, 0.04056369513273239, -0.0070034414529800415, -0.029207170009613037, -0.03227344900369644, 0.023699358105659485, 0.06918711215257645, -0.01457163691520691, -0.012468289583921432, -0.00023224204778671265, -0.022373639047145844, 0.05889678746461868, -0.037074729800224304, -0.06585387885570526, -0.03355804458260536, -0.06159136816859245, 0.06642606109380722, -0.054608121514320374, -0.036541908979415894, 0.056973136961460114, 0.05185539275407791, 0.05111478269100189, -0.044197358191013336, 0.03512930870056152, 0.018073976039886475, 0.05173436552286148, -0.04409441351890564, 0.06703359633684158, -0.03608189523220062, 0.01581389456987381, 0.032893359661102295, 0.009438931941986084, -0.06724739819765091, -0.06652966886758804, 0.02666430175304413, 0.049064673483371735, 0.02636820822954178, -0.019424021244049072, 0.06345527619123459, -0.045242153108119965, -0.01624906063079834, 0.05317377299070358, -0.06564169377088547, -8.890032768249512e-05, 0.02526310831308365, -0.02470250427722931, 0.05024450272321701, -0.0662519559264183, 0.05635193735361099, -0.061648089438676834, -0.0018776655197143555, 0.0041113123297691345, -0.017820440232753754, 0.04443436861038208, -0.029899053275585175, -0.011054683476686478, 0.06510374695062637, 0.06038636714220047, 0.007718026638031006, -0.03899369388818741, 0.00778575986623764, -0.023745674639940262, -0.014924176037311554, 0.06472355872392654, 0.0637919083237648, 0.06481585651636124, -0.01730116829276085, 0.035559408366680145, -0.05886194109916687, 0.06915435940027237, 0.033133745193481445, -0.005134500563144684, -0.06627258658409119, 0.032443568110466, -0.02080295979976654, 0.034900687634944916, 0.04426871985197067, -0.054998792707920074, -0.0008191242814064026, -0.020495843142271042, -0.047091078013181686, -0.015783369541168213, -0.055847883224487305, 0.03440730273723602, 0.04686010628938675, -0.006165795028209686, 0.06764335185289383, -0.017360880970954895, 0.05998832732439041, 0.06498133391141891, -0.018621776252985, -0.030063971877098083, 0.053287945687770844, 0.019426733255386353, 0.01527528464794159, -0.056261077523231506, -0.029952462762594223, 0.03723742812871933, -0.000831112265586853, -0.06594117730855942, 0.013517484068870544, -0.04511716961860657, 0.06413478404283524, 0.045788273215293884, -0.013865705579519272, -0.02487337216734886, -0.0571502223610878, -0.01910630613565445, 0.03784380853176117, -0.06456912308931351, -0.006819196045398712, 0.015601016581058502, -0.021673928946256638, 0.04631651192903519, 0.06816179305315018, -0.026137955486774445, 0.03092276304960251, 0.02049926668405533, 0.022785350680351257, 0.03835903853178024, -0.04085683450102806, 0.05435316264629364, -0.03531244024634361, -0.021710887551307678, -0.008160114288330078, -0.04094265401363373, -0.05083161219954491, 0.04875098168849945, 0.01718919724225998, -0.039160288870334625, 0.007208295166492462, -0.03421133756637573, 0.05717233568429947, 0.029336534440517426, -0.05005716532468796, 0.05853002518415451, 0.02851974219083786, -0.010955248028039932, -0.06039060652256012, 0.03703877329826355, -0.04183531925082207, 0.061064667999744415, 0.012516170740127563, 0.00852133333683014, -0.05945342034101486, -0.04960313066840172, -0.05862951651215553, 0.04710771143436432, -0.06300941109657288, -0.05321091413497925, 0.0060948580503463745, 0.0030135363340377808, 0.06348612159490585, -0.05429583415389061, 0.008650854229927063, -0.05316820740699768, -0.057484038174152374, -0.01890166848897934, -0.06219664216041565, 0.046885885298252106, 0.037290193140506744, 0.0579632893204689, -0.016464941203594208, 0.06938643008470535, 0.013935104012489319, 0.00978291779756546, 0.05752716213464737, 0.022749729454517365, 0.023598462343215942, -0.010600555688142776, 0.031219661235809326, -0.03574468940496445, -0.056992609053850174, -0.02600937709212303, -0.009916335344314575, 0.0662473812699318, 0.06584056466817856, -0.05092760920524597, 0.056352995336055756, 0.018886566162109375, -0.06384611874818802, -0.006683140993118286, 0.0450197234749794, 0.03109322488307953, -0.005465544760227203, 0.06552758067846298, -0.04279996082186699, -0.017430651932954788, -0.0646013617515564, 0.0688977912068367, -0.006717413663864136, -0.04259306192398071, -0.007467672228813171, -0.06981823593378067, 0.03921406716108322, -0.05201312154531479, 0.06991956382989883, -0.010727420449256897, -0.06123974174261093, -0.04462939500808716, -0.05702147260308266, -0.03914903849363327, -0.047260675579309464, -0.011477861553430557, -0.02834058180451393, 0.04660675674676895, 0.01860497146844864, 0.002689562737941742, 0.0293118879199028, -0.00731319934129715, 0.06210831552743912, -0.0530259907245636, -0.06805527955293655, -0.005946598947048187, -0.04751262813806534, -0.055785469710826874, -0.030406448990106583, 0.028500862419605255, 0.06106219440698624, 0.03655742108821869, -0.027490779757499695, -0.03622346371412277, -0.010279588401317596, 0.02979881316423416, -0.006752312183380127, -0.022463280707597733, 0.06846890598535538, 0.012821763753890991, -0.03456789627671242, -0.015826720744371414, 0.012975871562957764, -0.012832380831241608, -0.043976590037345886, 0.027189694344997406, -0.04340485483407974, 0.06990190595388412, -0.024218305945396423, 0.04333847016096115, 0.06842147558927536, -0.012499812990427017, -0.01192454993724823, -0.06635159254074097, -0.03864133358001709, 0.03516903519630432, 0.035011790692806244, -0.06596794724464417, -0.06812111288309097, -0.02192799001932144, -0.03981347382068634, 0.034663617610931396, -0.03886595368385315, -0.026862196624279022, 0.020786188542842865, 0.029981352388858795, -0.04596412181854248, 0.048832207918167114, -0.04929345101118088, -0.024498991668224335, 0.05171162635087967, 0.005367152392864227, -0.06682490557432175, 0.05256839841604233, 0.0022106394171714783, -0.02257421240210533, 0.015265002846717834, 0.04899372160434723, 0.01806965470314026, -0.01573113724589348, -0.01480383425951004, -0.008491028100252151, 0.04311899095773697, 0.03696437180042267, 0.004397839307785034, -0.015314601361751556, -0.06021678447723389, 0.04474108666181564, 0.04571158438920975, 0.022373832762241364, 0.062229521572589874, 0.0609196200966835, -0.022648390382528305, -0.05050835385918617, -0.03196433186531067, -0.01029212400317192, -0.0050262510776519775, 0.040574878454208374, -0.0684547871351242, 0.003371983766555786, 0.047106705605983734, 0.037099435925483704, -0.04300869628787041, -0.010867021977901459, 0.03745390474796295, 0.03588534891605377, -0.030444208532571793, -0.030008111149072647, 0.011465281248092651, -0.01460488885641098, 0.05246109515428543, -0.026645883917808533, -0.05063679814338684, 0.06736031919717789, 0.016811788082122803, -0.01290079951286316, 0.004703201353549957, 0.050145022571086884, 0.03006083518266678, -0.013979386538267136, 0.025791361927986145, -0.025453682988882065, -0.058182213455438614, -0.060628462582826614, -0.0038448795676231384, -0.006165564060211182, -0.0555187426507473, 0.050605691969394684, 0.04540637135505676, 0.01745227724313736, 0.00792238861322403, -0.040675535798072815, 0.034366607666015625, -0.023287642747163773, 0.0006413683295249939, 0.018165796995162964, -0.016019422560930252, 0.01201409101486206, -0.03052292764186859, -0.01187106966972351, 0.03199101239442825, -0.05195165425539017, 0.06176053732633591, -0.0577305406332016, 0.03547944128513336, -0.01013471931219101, 0.014225989580154419, -0.02718188241124153, -0.05863330513238907, 0.030357539653778076, 0.04097878932952881, 0.06973207741975784, 0.06330529600381851, 0.01033075898885727, 0.05841744691133499, 0.045466236770153046, 0.017836079001426697, 0.028528697788715363, -0.04995571821928024, 0.010984532535076141, -0.048029180616140366, 0.05082608759403229, -0.0079115629196167, -0.06843370199203491, 0.043030284345149994, -0.06926023960113525, -0.007819350808858871, -0.057227738201618195, 0.06488514691591263, 0.005956858396530151, -0.019149959087371826, 0.014958910644054413, -0.04030515253543854, 0.059008486568927765, 0.05558931082487106, -0.04130212217569351, -0.04388204589486122, 0.028703950345516205, -0.04554295912384987, -0.001624777913093567, -0.042447399348020554, 0.05045162886381149, -0.03371882438659668, -0.013082019984722137, 0.0020717233419418335, -0.012404713779687881, 0.01343315839767456, 0.0527937188744545, 0.01816672831773758, -0.05663508176803589, -0.00587230920791626, 0.04274667799472809, 0.010272771120071411, -0.007028691470623016, -0.06544147431850433, 0.057405807077884674, -0.02683105319738388, 0.05747578293085098, 0.02869291603565216, 0.024713285267353058, 0.06261249631643295, 0.02420324832201004, -0.03759181126952171, 0.035081423819065094, 0.06009668856859207, -0.03554503992199898, 0.05660455673933029, 0.045703426003456116, -0.031160563230514526, -0.06336593627929688, -0.06282782554626465, -0.06606241315603256, 0.0070182159543037415, -0.03652248904109001, 0.044412873685359955, 0.012858830392360687, -0.05112632364034653, 0.02745172381401062, -0.042418841272592545, 0.050292789936065674, -0.054411470890045166, 0.037003614008426666, -0.053616009652614594, 0.0023489072918891907, -0.03751540184020996, -0.04169415682554245, 0.01770121604204178, -0.0049143582582473755, -0.01893853396177292, 0.014679782092571259, -0.06966876238584518, 0.03172078728675842, -0.031249698251485825, 0.04129142314195633, 0.04247751832008362, -0.030481569468975067, -0.038352224975824356, -0.018999505788087845, 0.025504454970359802, 0.020758822560310364, 0.06583397835493088, 0.05162081867456436, -0.017451945692300797, 0.014338001608848572, 0.025055907666683197, 0.009073257446289062, -0.023382902145385742, 0.06928304582834244, -0.006615877151489258, 0.014650367200374603, 0.04154043644666672, -0.0003897473216056824, -0.0030212178826332092, 0.039322055876255035, -0.03554891422390938, 0.005581580102443695, -0.06358769536018372, 0.04197848588228226, -0.0449487566947937, -0.043219681829214096, -0.005582280457019806, 0.02235802263021469, 0.05776376277208328, -0.05402681231498718, 0.0563548281788826, 0.06553123146295547, -0.040543023496866226, -0.0044912248849868774, -0.04006576165556908, 0.014270752668380737, 0.036900594830513, 0.05547361820936203, 0.02392444759607315, 0.014829210937023163, -0.04215952754020691, 0.02686980366706848, -0.0070133209228515625, 0.011410616338253021, 0.018579795956611633, 0.06320161372423172, -0.016131766140460968, -0.035361699759960175, -0.053350549191236496, 0.05558136850595474, 0.05959293991327286, 0.050876326858997345, 0.050359100103378296, 0.0600186362862587, 0.04694201797246933, 0.0578431561589241, 0.04417040944099426, 0.04390767216682434, 0.06218794733285904, 0.004115968942642212, -0.04168524593114853, 0.05550991743803024, 0.06222184747457504, -0.010643694549798965, 0.028395481407642365, -0.03734777495265007, -0.04561162739992142, -0.013681665062904358, 0.058741919696331024, 0.021534286439418793, 0.01870877295732498, -0.004229582846164703, -0.007119409739971161, 0.056794844567775726, -0.011923685669898987, 0.010313786566257477, 0.014834575355052948, 0.06869306415319443, 0.023771271109580994, 0.0034643560647964478, 0.04561367630958557, 0.025230422616004944, -0.04198224097490311, -0.023022931069135666, 0.06403588503599167, -0.047534286975860596, 0.062476418912410736, -0.040495581924915314, -0.01576569303870201, -0.0353308841586113, 0.04666665941476822, -0.050771862268447876, 0.017926447093486786, 0.011066660284996033, -0.033742357045412064, -0.021753117442131042, 0.001163393259048462, 0.04605567455291748, -0.03468222916126251, 0.016291625797748566, -0.05955498293042183, -0.017642643302679062, 0.01820329576730728, 0.04261849820613861, 0.012929126620292664, -0.0463859960436821, -0.03066602349281311, -0.020170368254184723, 0.046904854476451874, 0.042980924248695374, 0.050456538796424866, -0.01996242254972458, -0.008619219064712524, 0.025864511728286743, -0.0073735713958740234, 0.020220398902893066, -0.06321665644645691, -0.056639716029167175, -0.002345137298107147, -0.029438484460115433, 0.03672067075967789, 0.02642510086297989, 0.04967179894447327, 0.004689902067184448, 0.051588527858257294, 0.05850500613451004, 0.019169114530086517, 0.019793376326560974, 0.030829958617687225, -0.030273981392383575, 0.004148118197917938, -0.055043987929821014, -0.019278574734926224, 0.014433249831199646, -0.028563715517520905, 0.03653118014335632, 0.00871683657169342, -0.035937681794166565, -0.0348706915974617, 0.036025531589984894, -0.002043098211288452, 0.025280185043811798, -0.004052251577377319, 0.04933929443359375, -0.06354658305644989, -0.06533898413181305, 0.04819856584072113, -0.02506372332572937, 0.026437878608703613, -0.04918569326400757, 0.024754270911216736, -0.05178970843553543, 0.01434876024723053, -0.04824969172477722, 0.0006760060787200928, -0.0014291182160377502, -0.06391426920890808, -0.007976330816745758, -0.047999586910009384, 0.014079414308071136, 0.04524460434913635, 0.05302855372428894, -0.053700681775808334, 0.006907477974891663, 0.0036543160676956177, 0.05941016227006912, 0.06445140391588211, -0.02419060841202736, 0.014541193842887878, -0.006453201174736023, -0.04373638331890106, 0.040301017463207245, 0.05014019459486008, -0.02576345205307007, -0.04326970875263214, -0.06767125427722931, 0.023862577974796295, 0.03693631291389465, -0.026715300977230072, 0.0288730189204216, 0.023592203855514526, -0.03631652146577835, 0.006824880838394165, 0.028416365385055542, 0.006960950791835785, -0.03698801249265671, 0.05844270437955856, -0.06444423645734787, -0.012923814356327057, 0.0467514768242836, 0.021654978394508362, 0.020161151885986328, -0.011370789259672165, 0.063532255589962, -0.06224875524640083, 0.04227690398693085, 0.06312022358179092, -0.0542960986495018, -0.02348361909389496, -0.05902969464659691, 0.04039487987756729, -0.04493597894906998, 0.0664677545428276, 0.028704248368740082, -0.030375290662050247, -0.010876081883907318, -0.029777277261018753, -0.005553796887397766, -0.007205143570899963, -0.04969353973865509, -0.04392048344016075, 0.03225112706422806, -0.0069509148597717285, 0.027562938630580902, 0.041898213326931, 0.01206989586353302, -0.02560453489422798, 0.007073923945426941, -0.027452275156974792, 0.052321724593639374, 0.03196951001882553, -0.051228828728199005, -0.0026363879442214966, -0.02162287011742592, 0.003695935010910034, 0.0018532946705818176, -0.05765962228178978, -0.04599788784980774, -0.0602671355009079, -0.04427197203040123, 0.017333708703517914, -0.036516085267066956, 0.04102484881877899, 0.05768490582704544, 0.028697557747364044, -0.004743419587612152, 0.038748569786548615, -0.06484179943799973, 0.006564483046531677, -0.055719465017318726, -0.025945227593183517, -0.06920665502548218, 0.02607382833957672, -0.051416415721178055, 0.04170586168766022, 9.469687938690186e-06, 0.034339532256126404, 0.0433964878320694, 0.06733144074678421, -0.014594852924346924, 0.04485626518726349, 0.0033558085560798645, -0.01425020769238472, -0.018635451793670654, 0.014114253222942352, 0.031356386840343475, -0.05291301757097244, 0.04802817106246948, 0.01515170931816101, 0.0460112988948822, 0.043955594301223755, 0.0009334608912467957, 0.014280281960964203, -0.01256198063492775, 0.031983911991119385, 0.014418236911296844, 0.029210321605205536, 0.025722108781337738, 0.0035720467567443848, -0.0305817648768425, -0.010953877121210098, -0.01259145513176918, -0.0661451444029808, 0.009507149457931519, -0.005052819848060608, -0.037226468324661255, -0.014852851629257202, -0.03808988630771637, 0.056597404181957245, -0.010828062891960144, -0.003997594118118286, -0.013758506625890732, -0.03748884052038193, -0.03558589518070221, 0.015269316732883453, -0.040863342583179474, -0.008166953921318054, -0.05559193342924118, 0.06447366625070572, 0.027627743780612946, -0.05132526531815529, 0.018412940204143524, -0.017777003347873688, -0.049171820282936096, -0.0060730427503585815, -0.054647766053676605, -0.036317452788352966, 0.041807450354099274, 0.01170484721660614, -0.04590144008398056, -0.01012878492474556, 0.027913421392440796, -0.02420053258538246, 0.004568666219711304, -0.05599560961127281, 0.04354509711265564, -0.05411508306860924, 0.062663234770298, 0.050279244780540466, -0.04552891105413437, 0.033789269626140594, -0.05953621119260788, -0.03949415683746338, 0.01723340153694153, 0.02325262874364853, -0.04515569657087326, -0.05835229158401489, -0.0636925995349884, 0.06404609233140945, -0.02443452551960945, 0.005762703716754913, 0.03272569179534912, -0.052328646183013916, 0.015698499977588654, 0.06206909567117691, -0.059123218059539795, -0.0659380629658699, -0.014022238552570343, -0.017564382404088974, 0.01327599585056305, 0.05345539748668671, 0.0415160208940506, 0.0327247679233551, 0.0016881674528121948, 0.06310000270605087, -0.0349145382642746, 0.020497478544712067, -0.04431913048028946, -0.014706995338201523, -0.06426200270652771, 0.032479144632816315, -0.049368515610694885, -0.040064528584480286, 0.03915673494338989, 0.042286597192287445, -0.003612406551837921, 0.013812191784381866, -0.06841994822025299, 0.019156478345394135, 0.013559021055698395, -0.034381043165922165, -0.06848539412021637, -0.04815739020705223, -0.004463888704776764, -0.05051952600479126, -0.007583413273096085, -0.06203611195087433, 0.0421580895781517, -0.048160769045352936, 0.06366381794214249, -0.005781427025794983, -0.05600351095199585, 0.0513308048248291, -0.05029667913913727, -0.061868295073509216, 0.007808998227119446, 0.05234084278345108, -0.005705155432224274, -0.03905593976378441, -0.028766587376594543, 0.05126465857028961, 0.020961038768291473, -0.03381695970892906, -0.0232807956635952, -0.013301476836204529, 0.049613721668720245, 0.014156095683574677, 0.011322811245918274, 0.023079149425029755, -0.04999864473938942, -0.02574649080634117, 0.04199899733066559, 0.029130160808563232, -0.04635654389858246, 0.050774410367012024, 0.02112439274787903, -0.05926722288131714, -0.015849512070417404, -0.06711816787719727, -0.011778373271226883, -0.04916127026081085, -0.06210237741470337, 0.048051461577415466, 0.04745941609144211, 0.06578738242387772, 0.021420791745185852, 0.00881299376487732, 0.03107982873916626, 0.04885147511959076, -0.019349057227373123, 0.0465419664978981, 0.016880027949810028, -0.047718264162540436, 0.061397381126880646, 0.06600511819124222, 0.05715378373861313, -0.04027252271771431, -0.013472195714712143, -0.045794710516929626, -0.06989097595214844, -0.01604723557829857, -0.037995580583810806, -0.04454450309276581, 0.0523272305727005, -0.05543678626418114, 0.06890962272882462, 0.06362833827733994, -0.0022481977939605713, -0.04432336986064911, 0.007709071040153503, 0.06846161931753159, 0.016447417438030243, -0.007593829184770584, -0.02736489847302437, -0.027406085282564163, -0.009952425956726074, 0.006936267018318176, 0.015631437301635742, 0.023761451244354248, 0.024007149040699005, 0.003465898334980011, -0.050443075597286224, -0.030597377568483353, -0.06901071965694427, -0.05844999477267265, -0.011180609464645386, -0.009527698159217834, -0.03776649758219719, -0.05917946249246597, -0.0667712613940239, 0.055593810975551605, 0.06401533633470535, -0.02922792360186577, -0.04239930585026741, -0.007774271070957184, 0.003468453884124756, -0.028279509395360947, 0.05804967135190964, 0.015659406781196594, 0.04178890585899353, -0.003806881606578827, -0.014019463211297989, -0.033277325332164764, -0.002677641808986664, -0.05047085881233215, -0.023473884910345078, -0.06320691853761673, -0.06346680968999863, -0.06928186118602753, 0.03075478971004486, -0.02909974753856659, -0.011046569794416428, -0.047134578227996826, 0.06632577627897263, 0.006048351526260376, -0.018848586827516556, -0.018709339201450348, -0.007725004106760025, -0.053766898810863495, -0.03741201385855675, 0.0468778982758522, -0.061986736953258514, -0.006150200963020325, -0.009444162249565125, 0.01783483475446701, -0.057315099984407425, -0.05532854422926903, -0.03938410431146622, 0.039924636483192444, -0.0655515268445015, 0.0498654842376709, 0.01657404750585556, 0.03424966335296631, -0.025635357946157455, -0.04204566776752472, 0.017899073660373688, 0.021014340221881866, -0.01645532250404358, -0.019529882818460464, 0.059593893587589264, 0.00199282169342041, -0.04418138414621353, 0.06870103627443314, 0.06765232235193253, -0.01969648152589798, 0.015193380415439606, 0.012938037514686584, -0.028507370501756668, -0.004150897264480591, -0.0046531930565834045, 0.01529337465763092, 0.043939799070358276, -0.06349694728851318, -0.03402454033493996, 0.016561225056648254, 0.05039165914058685, -0.014870863407850266, 0.04470818489789963, 0.015056274831295013, 0.025189504027366638, -0.030426587909460068, 0.025243058800697327, -0.012729834765195847, -0.036299191415309906, -0.04612662270665169, -0.030441567301750183, 0.0666404590010643, -0.00693010538816452, 0.0013863369822502136, 0.009729571640491486, -0.053892359137535095, 0.058357931673526764, 0.024229519069194794, -0.00043942034244537354, 0.029420718550682068, 0.01861432194709778, -0.008325673639774323, 0.04930266737937927, -0.02814330905675888, -0.06928039342164993, -0.02694450318813324, -0.05485035479068756, -0.02944377437233925, -0.05644211173057556, 0.040884800255298615, 0.01945987343788147, -0.03904584050178528, 0.06486641615629196, 0.0013579577207565308, -0.04496700316667557, -0.024574115872383118, 0.007717527449131012, -0.000836499035358429, -0.014513742178678513, -0.05425547435879707, -0.009965740144252777, 0.051059454679489136, 0.05916164070367813, -0.06189747154712677, -0.0028604939579963684, -0.038226328790187836, -0.005773551762104034, -0.0073482319712638855, -0.044206369668245316, -0.029441997408866882, 0.03458641469478607, -0.003002673387527466, -0.03247997537255287, 0.006752192974090576, -0.061480093747377396, -0.05411161482334137, -0.0067252591252326965, -0.03601386025547981, 0.04924605041742325, -0.019995924085378647, -0.03409075736999512, 0.06642762571573257, 0.021183252334594727, -0.01568244770169258, 0.05735389143228531, -0.05427631735801697, -0.06762644648551941, 0.03202284872531891, 0.05254029482603073, 0.04464227706193924, 0.04528036713600159, -0.05013439804315567, 0.06543564051389694, -0.02079450711607933, 0.032676368951797485, -0.059564292430877686, -0.017911124974489212, -0.007705729454755783, 0.045880645513534546, 0.029064714908599854, -0.023899797350168228, 0.059240929782390594, 0.06695636361837387, 0.032477229833602905, 0.032555751502513885, 0.04194464534521103, 0.03717219829559326, -0.03851454704999924, 0.06064204126596451, -0.005585826933383942, -0.047122444957494736, 0.020378664135932922, -0.00020816922187805176, 0.02889201045036316, -0.014620255678892136, 0.012984216213226318, 0.04033011198043823, -0.011956054717302322, 0.05003282427787781, -0.05452083796262741, -0.027091659605503082, -0.02286006137728691, -0.01353958249092102, 0.02884434163570404, 0.060234613716602325, 0.03973653167486191, -0.03771520406007767, -0.006380103528499603, -0.03387344256043434, -0.03546908497810364, 0.021218977868556976, 0.01887671649456024, 0.01881558448076248, -0.043802112340927124, 0.025790415704250336, -0.03416105732321739, 0.0021018385887145996, -0.0351339690387249, 0.0019612014293670654, -0.012763071805238724, 0.058427594602108, -0.06663841009140015, -0.00666462630033493, 0.036130622029304504, -0.014056876301765442, -0.051505714654922485, -0.041309233754873276, -0.056178368628025055, 0.023198850452899933, -0.026169229298830032, -0.020378686487674713, -0.0648045539855957, 0.06855607777833939, -0.027938898652791977, -0.04723188281059265, 0.061213232576847076, 0.03676553815603256, -0.05852170288562775, 0.030634313821792603, 0.019719794392585754, -0.018611226230859756, -0.06399883329868317, -0.06277384608983994, -0.04011840373277664, -0.057744093239307404, -0.02489088475704193, -0.028219163417816162, -0.008278589695692062, 0.03267984837293625, 0.006332099437713623, -0.014831297099590302, -0.044030822813510895, -0.06791312247514725, 0.057781122624874115, 0.0377810075879097, 0.021709293127059937, -0.0629916712641716, 0.05840709060430527, 0.06551215797662735, -0.006299450993537903, -0.029669947922229767, 0.012430310249328613, -0.03787721320986748, -0.03207108750939369, -0.023217670619487762, 0.0011108070611953735, 0.027565494179725647, 0.010497704148292542, -0.044458284974098206, -0.031703297048807144, 0.028657779097557068, -0.05811288580298424, 0.001316361129283905, -0.023144055157899857, 0.03943398594856262, 0.0636177733540535, 0.060862503945827484, -0.010311029851436615, 0.0428285151720047, -0.016719859093427658, -0.029387235641479492, -0.052203960716724396, -0.061414819210767746, 0.03440038114786148, 0.05925389379262924, -0.01377030462026596, -0.06143492832779884, 0.03461708128452301, -0.05000406503677368, 0.05139140039682388, -0.01889016106724739, 0.02510547637939453, 0.057392917573451996, -0.06926668435335159, 0.006111949682235718, -0.0246867835521698, 0.0018579959869384766, -0.027864977717399597, 0.05849889665842056, 0.04995068162679672, -0.003676801919937134, -0.05542958527803421, 0.03630116581916809, -0.03541134297847748, -0.04894976317882538, 0.02743387222290039, 0.03660055249929428, 0.04229512810707092, -0.051952753216028214, 0.059686921536922455, 0.022286206483840942, 0.007423602044582367, -0.04280979931354523, -0.014723524451255798, 0.006714552640914917, 0.054824478924274445, -0.04749263823032379, 0.06093301624059677, 0.036768168210983276, 0.017887532711029053, 0.05291566997766495, 0.025658749043941498, 0.001917511224746704, 0.0017673000693321228, -0.02533382922410965, -0.06496160477399826, -0.0025872886180877686, 0.009363852441310883, 0.007837310433387756, -0.04513431340456009, -0.06494604796171188, -0.028012897819280624, 0.057351551949977875, 0.006575226783752441, -0.036504264920949936, 0.005161210894584656, 0.03356357663869858, -0.06332854926586151, 0.05676976591348648, -0.040540661662817, 0.05139937251806259, -0.02891562506556511, -0.044353634119033813, -0.01789044961333275, -0.066002257168293, 0.03776562958955765, -0.04206029325723648, -0.06755135953426361, 0.04727764427661896, -0.033261872828006744, -0.010292276740074158, 0.05547221750020981, -0.005982711911201477, 0.05482025444507599, 0.05819178372621536, 0.06867366284132004, -0.032694023102521896, 0.031031064689159393, 0.06288377195596695, -0.030119433999061584, 0.026662632822990417, -0.014679651707410812, 0.027128756046295166, -0.0001707524061203003, -0.022997457534074783, 0.0010057836771011353, -0.013877816498279572, -0.00809020921587944, 0.04049782454967499, -0.026894040405750275, -0.06823375821113586, 0.0033744946122169495, 0.049153611063957214, 0.042340271174907684, -0.018981292843818665, 0.01452135294675827, -0.0252348855137825, 0.05992012470960617, 0.05474808067083359, 0.0482763797044754, -0.05411984771490097, -0.017899252474308014, -0.014044046401977539, 0.009992226958274841, -0.06617645919322968, -0.03792065009474754, -0.046649135649204254, 0.04523544758558273, -0.04280136898159981, 0.023567259311676025, 0.04527238756418228, 0.06470345705747604, -0.06744503974914551, -0.06634348630905151, -0.019232600927352905, -0.06268378347158432, -0.049524515867233276, -0.061751432716846466, 0.04039973020553589, -0.04049210995435715, -0.05117252469062805, -0.024211976677179337, -0.011104188859462738, -0.029422692954540253, -0.031199980527162552, 0.016579054296016693, 0.016024142503738403, -0.062103770673274994, 0.04589826613664627, -0.02629702165722847, 0.05111031234264374, -0.05624017491936684, 0.058408431708812714, -0.04482412338256836, 0.018929868936538696, 0.028266876935958862, 0.00402088463306427, 0.01681838184595108, -0.0006120577454566956, 0.05963063985109329, -0.0037329643964767456, 0.029065243899822235, 0.02700907737016678, -0.062455371022224426, 0.02252577245235443, 0.061322130262851715, 0.047029390931129456, 0.06202401965856552, -0.06261621415615082, 0.06449157744646072, -0.0008673369884490967, 0.02997298538684845, -0.06545481830835342, 0.01489364355802536, 0.03824419528245926, 0.06726010888814926, 0.06312710791826248, 0.02460239827632904, -0.05997474491596222, -0.02026817947626114, -0.024204492568969727, 0.002957873046398163, 0.03697637468576431, -0.06374029815196991, -0.039566487073898315, -0.011088106781244278, 0.0012882053852081299, 0.01911746710538864, -0.03533511981368065, -0.02193748578429222, 0.02724788337945938, 0.056909941136837006, 0.06198117882013321, 0.03706597536802292, -0.050280265510082245, 0.020162761211395264, -0.06035228073596954, -0.034729938954114914, 0.006689473986625671, 0.03709373623132706, -0.023401200771331787, -0.030210178345441818, 0.023105621337890625, -0.02759113907814026, 0.0642584040760994, -0.011524021625518799, -0.06353263556957245, 0.06290728598833084, 0.000961698591709137, -0.059353332966566086, 0.0018293783068656921, 0.03763274848461151, 0.05544387549161911, -0.047926176339387894, -0.0015236511826515198, -0.034790974110364914, 0.045666761696338654, -0.010751757770776749, -0.04133131727576256, -0.01568378508090973, -0.010370362550020218, 0.05748898535966873, 0.005853757262229919, 0.05965449661016464, 0.06839590519666672, 0.01259911060333252, -0.03317764401435852, -0.0007557719945907593, 0.04066735506057739, 0.02546970546245575, -0.05191555619239807, -0.001708589494228363, -0.005236044526100159, -0.038068365305662155, 0.04731602966785431, -0.01841621845960617, -0.059587277472019196, -0.04559192806482315, -0.02289053052663803, -0.03423365205526352, -0.04704216867685318, 0.05024737864732742, 0.015391342341899872, -0.039454441517591476, -0.022083017975091934, -0.014513812959194183, 0.021172411739826202, -0.01673060655593872, -0.0669989287853241, 0.020544379949569702, 0.02536599338054657, -0.017175886780023575, 0.005225710570812225, -0.05670640617609024, -0.048691898584365845, -0.03502360358834267, 0.008731842041015625, 0.06952039152383804, -0.05346284061670303, -0.024515300989151, 0.06365885585546494, -0.012565281242132187, -0.009431373327970505, -0.012852393090724945, 0.015558652579784393, -0.011884290724992752, 0.04265555739402771, -0.06331838667392731, -0.0015178397297859192, 0.03806515783071518, -0.04748775064945221, 0.0339183509349823, -0.035807788372039795, -0.024703238159418106, 0.06556008011102676, 0.03647513687610626, -0.04308939352631569, 0.022107243537902832, -0.024472378194332123, -0.02909175306558609, -0.00860583409667015, -0.02659868821501732, -0.04596558213233948, -0.04181564599275589, -0.008497290313243866, -0.007642529904842377, 0.029538512229919434, -0.02148423343896866, 0.03235030174255371, 0.04318830370903015, -0.05112961679697037, -0.06156152859330177, 0.04633762687444687, -0.0207529254257679, -0.004605479538440704, 0.04009634256362915, 0.013261258602142334, 0.035649374127388, 0.01078265905380249, -0.04963464289903641, -0.011979930102825165, -0.014708451926708221, 0.0669502392411232, 0.032019518315792084, 0.055528588593006134, 0.06617305427789688, -0.06568694114685059, 0.001486271619796753, -0.05759425088763237, 0.00906652957201004, 0.061620377004146576, 0.05728498846292496, -0.0617743544280529, 0.041462332010269165, -0.028848275542259216, 0.029976993799209595, 0.04002927988767624, 0.008393995463848114, -0.040827427059412, 0.04853273928165436, -0.036533843725919724, 0.01152985543012619, 0.02502569556236267, -0.02609729766845703, -0.0674196407198906, 0.008563168346881866, 0.0023256316781044006, 0.019479475915431976, 0.048477157950401306, 0.05434800684452057, 0.02844788134098053, -0.006317444145679474, -0.06356405466794968, 0.0413278266787529, -0.0652419775724411, 0.024440228939056396, 0.02171771228313446, -0.020695511251688004, -0.03294777870178223, 0.05172868072986603, 0.0384063720703125, -0.015247758477926254, -0.0045067667961120605, 0.012019194662570953, 0.023991338908672333, -0.02100113406777382, 0.03139263391494751, 0.005004964768886566, 0.03338286280632019, -0.06713653355836868, -0.006592147052288055, 0.01634123921394348, -0.03875785693526268, 0.045843884348869324, -0.018371056765317917, 0.043131835758686066, -0.0015871822834014893, 0.05967835336923599, -0.015126243233680725, -0.03296409174799919, 0.06333743780851364, -0.009854137897491455, 0.05216343700885773, -0.024482637643814087, -0.025817502290010452, -0.00302693247795105, -0.045449502766132355, 0.008196517825126648, 0.03299170732498169, -0.03455838933587074, -0.03742673620581627, -0.021310094743967056, -0.06920228153467178, 0.0390755757689476, 0.013829320669174194, 0.030830509960651398, -0.03876113146543503, -0.05117303878068924, 0.0273873433470726, -0.013642001897096634, 0.053978703916072845, 0.06957405060529709, 0.0018667429685592651, -0.03360317274928093, 0.013279229402542114, 0.05711928755044937, -0.028769243508577347, -0.02689775824546814, 0.05845623463392258, -0.06333114206790924, 0.026604898273944855, 0.02099575102329254, -0.06867597997188568, -0.04592186212539673, -0.00620676577091217, -0.014798935502767563, 0.022728674113750458, 0.03181810677051544, 0.0036887824535369873, -0.04544616490602493, 0.06519343703985214, -0.01797373592853546, 0.00831768661737442, 0.0391385480761528, 0.06861279159784317, -0.04706427827477455, 0.017370522022247314, 0.007942616939544678, 0.06778518110513687, 0.06778685003519058, -0.06073426082730293, 0.011902019381523132, -0.05656836926937103, 0.05564924329519272, -0.005258515477180481, -0.02332228422164917, 0.06714393943548203, -0.0037050172686576843, 0.04645457863807678, -0.04657157510519028, 0.019062422215938568, 0.024318233132362366, 0.034179821610450745, -0.005494028329849243, -0.012179944664239883, -0.012991100549697876, -0.02968284860253334, -0.04250533878803253, -0.0004797130823135376, -0.03707844018936157, 0.013930782675743103, 0.021329469978809357, 0.033491745591163635, -0.020377494394779205, 0.06777375191450119, 0.04987040162086487, -0.044554926455020905, 0.009484872221946716, 0.005782902240753174, 0.043871231377124786, 0.015807993710041046, -0.00407487154006958, -0.032388925552368164, 0.009312637150287628, 0.029324635863304138, -0.03530106320977211, 0.03128967434167862, -0.062358319759368896, 0.0641334280371666, 0.0034097135066986084, -0.04749210923910141, -0.005794413387775421, -0.051219068467617035, 0.06905599683523178, -0.05653282627463341, 0.01506119966506958, 0.005169205367565155, 0.05282219499349594, -0.008792024105787277, -0.05696484073996544, 0.009031325578689575, -0.05204809829592705, 0.027309730648994446, -0.01516781747341156, 0.05847323685884476, 0.06603182107210159, 0.043381206691265106, -0.04349441081285477, 0.06702906638383865, -0.024341318756341934, 0.03204115480184555, -0.0022596046328544617, 0.028600260615348816, -0.008233733475208282, -0.035286303609609604, -0.05738668516278267, 0.058580927550792694, -0.036046821624040604, -0.06988400965929031, 0.05068477243185043, 0.06768893450498581, 0.046790480613708496, 0.010643936693668365, 0.004357337951660156, -0.06271311640739441, 0.05557788163423538, 0.03127434849739075, -0.05653037503361702, 0.04978720098733902, -0.030023805797100067, -0.06684259325265884, -0.03794987499713898, 0.003861531615257263, 0.020656317472457886, 0.04384402185678482, 0.05076824873685837, 0.02753385901451111, -0.004720680415630341, -0.026368383318185806, 0.006930559873580933, -0.05025897175073624, -0.06424597650766373, 0.048384495079517365, -0.004121407866477966, -0.03948422521352768, 0.04896368086338043, 0.04127843677997589, -0.05483131855726242, 0.05908655375242233, -0.011174384504556656, 0.025873981416225433, -0.032855574041604996, -0.0428493358194828, 0.037402406334877014, 0.021157212555408478, -0.019146472215652466, -0.02662568911910057, -0.008278436958789825, -0.0696476623415947, -0.06279998272657394, -0.01515766978263855, -0.044117264449596405, -0.005548432469367981, 0.053323954343795776, 0.06881105154752731, 0.038600318133831024, 0.023362331092357635, 0.002559579908847809, -0.015566177666187286, 0.033090077340602875, -0.036920759826898575, -0.06872054934501648, -0.048423539847135544, -0.06879523396492004, -0.0539889931678772, 0.02976960688829422, -0.03961579501628876, 0.016563698649406433, 0.02826421707868576, 0.0656510666012764, -0.06117236986756325, -0.06500592827796936, -0.03600411117076874, 0.04461930692195892, 0.017379581928253174, 0.042193375527858734, 0.00455726683139801, -0.06723763048648834, -0.007795795798301697, 0.055802009999752045, 0.03070366382598877, 0.03602368384599686, -0.04874567687511444, -0.024108435958623886, -0.0002498328685760498, 0.06798561662435532, -0.027456805109977722, 0.024007797241210938, -0.042886845767498016, 0.008822329342365265, -0.016677383333444595, -0.000455707311630249, -0.020096536725759506, -0.06584801524877548, 0.05389971286058426, 0.03440038859844208, -0.021873999387025833, -0.020675353705883026, 0.0414455309510231, -0.015181314200162888, 0.03476240485906601, 0.032139502465724945, -0.06509608030319214, 0.05139189958572388, -0.024507585912942886, -0.013328835368156433, 0.061730243265628815, 0.0686267539858818, -0.03890995681285858, -0.014436554163694382, -0.01826959103345871, -0.04345165938138962, -0.04259942099452019, 0.06488772481679916, 0.057259492576122284, 0.02011200785636902, -0.02031002938747406, 0.03739479184150696, 0.009617231786251068, 0.00702735036611557, 0.043764278292655945, -0.0175173357129097, -0.05517636612057686, 0.06835664063692093, -0.021044742316007614, -0.05534021183848381, -0.04475964233279228, 0.04421994090080261, 0.031411878764629364, -0.057771049439907074, -0.03979269415140152, -0.0037813708186149597, 0.015671782195568085, 0.06563685089349747, 0.05993082374334335, -0.037733208388090134, -0.014423996210098267, -0.054061345756053925, 0.022100791335105896, 0.04044336825609207, 0.013809926807880402, -0.012451447546482086, 0.055737532675266266, -0.029953423887491226, 0.06585633009672165, -0.01670454442501068, 0.02181059867143631, -0.02649042382836342, 0.0603942945599556, 0.04734963923692703, 0.028342127799987793, -0.04721973091363907, -0.009109735488891602, 0.009233824908733368, 0.051186539232730865, -0.026029720902442932, 0.042871564626693726, 0.006634272634983063, -0.032815273851156235, 0.006308913230895996, -0.02716854214668274, -0.05930732190608978, 0.06119867414236069, 0.03919169306755066, 0.011058889329433441, 0.042993925511837006, 0.05603037029504776, 0.03771977871656418, -0.0018537342548370361, -0.027993880212306976, -0.06500617414712906, 0.05854172259569168, 0.016586966812610626, -0.0338842049241066, -0.006831899285316467, 0.021397076547145844, -0.028973694890737534, 0.0030927062034606934, -0.021734971553087234, 0.06081844121217728, 0.02190830558538437, -0.028490133583545685, -0.028455067425966263, -0.010543782263994217, -0.04924185574054718, 0.04312555491924286, -0.023229114711284637, -0.06543190777301788, -0.023465551435947418, -0.05994744598865509, 0.03290142863988876, -0.023053854703903198, 0.0197494775056839, 0.06282573193311691, -0.02205481380224228, 0.055794037878513336, -0.0358797051012516, -0.0012113526463508606, 0.04389098286628723, -0.048616111278533936, 0.05264917016029358, -0.01112806424498558, 0.0050772204995155334, -0.03881722688674927, -0.02440262958407402, -0.03095584735274315, 0.058126769959926605, 0.01150377094745636, 0.06180689483880997, -0.009205259382724762, -0.03537334129214287, 0.010431095957756042, 0.043209269642829895, -0.04001850634813309, -0.0324576273560524, 0.020215146243572235, -0.06602822244167328, 0.007544025778770447, 0.03129664063453674, -0.007352001965045929, 0.0685039535164833, -0.02787773311138153, -0.034577254205942154, -0.05887563154101372, 0.0384511798620224, -0.004499070346355438, -0.04376618564128876, -0.04382758587598801, 0.04732499271631241, -0.046929068863391876, 0.03199170529842377, -0.05591079592704773, -0.057845521718263626, -0.02475442737340927, 0.007904529571533203, 0.031858816742897034, 0.01842852681875229, 0.059820301830768585, 0.05574429780244827, 0.02320493757724762, -0.00808422639966011, -0.05278002470731735, 0.03375023603439331, -0.047461844980716705, -0.00446639209985733, 0.009375914931297302, -0.0020237937569618225, -0.018565796315670013, 0.034779928624629974, 0.052443183958530426, -0.021335728466510773, -0.014244448393583298, 0.050005458295345306, -0.0680031105875969, 0.004255659878253937, -0.06269758939743042, 0.03342688828706741, -0.01688191294670105, -0.024658724665641785, 0.002256922423839569, 0.06034325808286667, 0.06891914457082748, 0.014200538396835327, -0.06851858645677567, -0.01012173667550087, -0.03635847568511963, 0.028613470494747162, -0.05527937784790993, 0.0515294075012207, -0.046148814260959625, 0.04730095714330673, 0.0593649223446846, 0.05526227504014969, -0.013721421360969543, 0.04264635592699051, -0.0527249276638031, 0.03175544738769531, -0.04789812117815018, 0.05081235617399216, -0.059942882508039474, 0.019238919019699097, 0.026936180889606476, -0.05258123576641083, 0.0513681098818779, -0.04434409737586975, -0.06731297820806503, 0.06708265095949173, 0.05242181569337845, 0.05829717963933945, -0.05821802839636803, 0.004037745296955109, 0.030983977019786835, -0.014300260692834854, -0.022764436900615692, 0.06555461138486862, 0.010300315916538239, 0.06647602468729019, -0.06419477611780167, 0.02781778573989868, 0.0689442977309227, -0.04002455249428749, -0.03052842989563942, -0.013530883938074112, -0.06738892942667007, 0.061766572296619415, -0.0515843890607357, 0.014762364327907562, -0.034120719879865646, -0.00818302109837532, -0.05838871747255325, -0.04202357679605484, 4.617869853973389e-05, 0.054191090166568756, 0.008957259356975555, 0.057866357266902924, -0.03067336231470108, 0.0041368454694747925, -0.029873128980398178, -0.06947397440671921, -0.03922473266720772, -0.04355062544345856, -0.01888522133231163, 0.0479426383972168, -0.039118118584156036, 0.04667899012565613, 0.02080690860748291, -0.06396923214197159, -0.006831169128417969, -0.06250718235969543, 0.0002919808030128479, 0.054790809750556946, 0.01788531243801117, -0.023606106638908386, -0.0005515515804290771, 0.031238600611686707, 0.01904875785112381, 0.0647500529885292, -0.012463580816984177, 0.06277037411928177, -0.05941291153430939, 0.017476707696914673, 0.0189947709441185, 0.06510896235704422, -0.013643927872180939, 0.00035022199153900146, 0.010046623647212982, 0.0579848513007164, -0.05873936787247658, 0.00527963787317276, -0.006977304816246033, -0.012086961418390274, -0.029451236128807068, 0.005057930946350098, 0.011400729417800903, -0.041087254881858826, -0.037250857800245285, -0.05031844228506088, -0.02676737681031227, -0.04981881380081177, 0.04748671501874924, 0.049679286777973175, -0.051193561404943466, 0.0013448894023895264, -0.028977446258068085, 0.005922131240367889, -0.03838958218693733, -0.06191731244325638, -0.0015249475836753845, -0.04453657567501068, 0.06831016391515732, -0.004636421799659729, -0.057505518198013306, 0.06301809102296829, 0.04845190793275833, -0.05761668458580971, 0.006606742739677429, -0.0067621320486068726, -0.006738252937793732, -0.03674907237291336, -0.01240372285246849, -0.006783761084079742, 0.06431401520967484, 0.029277414083480835, 0.03827383369207382, 0.03295004367828369, 0.01839815080165863, 0.05546656996011734, -0.020119808614253998, 0.0540979728102684, 0.025496050715446472, -0.018957093358039856, -0.029267948120832443, 0.004535287618637085, 0.002411887049674988, -0.030404437333345413, 0.050699785351753235, -0.06395810097455978, 0.005992040038108826, 0.060737065970897675, 0.06832187622785568, 0.005313873291015625, -0.006461702287197113, -0.041248004883527756, -0.038054607808589935, -0.03152576833963394, -0.04140471667051315, -0.016446318477392197, 0.00972159206867218, 0.03775209188461304, -0.03636131435632706, 0.05160454660654068, 0.045425720512866974, -0.06622197479009628, -0.06926190108060837, 0.05074039846658707, 0.06348405033349991, -0.06695087999105453, -0.04461103677749634, -0.06621044129133224, 0.05243339389562607, -0.06031453236937523, 0.020413458347320557, 0.028298906981945038, 0.052825748920440674, 0.059345416724681854, 0.010903112590312958, 0.005926653742790222, -0.06749999523162842, 0.049779899418354034, -6.28158450126648e-05, 0.00982309877872467, 0.062332071363925934, -0.0011906102299690247, 0.06945761293172836, 0.04240249842405319, 0.06508969515562057, -0.046554598957300186, 0.05485016107559204, 0.007600821554660797, 0.03292723745107651, 0.002922661602497101, -0.06950362026691437, -0.061066173017024994, 0.02546314150094986, -0.03677523881196976, 0.031071938574314117, 0.06842785328626633, 0.05931020528078079, 0.04817959666252136, 0.05464912950992584, 0.026018783450126648, -0.012530490756034851, -0.06704379618167877, 0.018122144043445587, 0.02710898220539093, -0.042915381491184235, 0.06128775328397751, -0.04147077351808548, 0.004190564155578613, -0.02739834040403366, -0.0007954388856887817, 0.04235833138227463, -0.0044844746589660645, 0.0646943524479866, 0.06345590204000473, -0.02227048948407173, 0.0070846304297447205, -0.06672253459692001, 0.06064761430025101, -0.03857405483722687, -0.02404523268342018, -0.050297074019908905, -0.01607421785593033, 0.05886160582304001, -0.04128533974289894, -0.0633104145526886, -0.038119781762361526, -0.0018197521567344666, -0.042185910046100616, 0.0236746147274971, 0.0542406290769577, 0.05373860150575638, -0.055361561477184296, 0.05334653705358505, 0.03206196427345276, 0.03390083461999893, -0.0625651553273201, 0.054478488862514496, -0.04264427721500397, -0.0065806955099105835, -0.002844005823135376, 0.06522425264120102, 0.011813394725322723, 0.06478946655988693, 0.06528269499540329, -0.0035002529621124268, -0.05587472394108772, -0.014024220407009125, 0.0044122114777565, 0.0155644491314888, -0.06461358815431595, 0.053527675569057465, -0.03074287623167038, -0.016926206648349762, -0.009950477629899979, 0.06801394373178482, 0.03806191682815552, 0.023444920778274536, 0.04658644646406174, 0.009393736720085144, 0.016851112246513367, -0.01356741413474083, 0.007253676652908325, -0.05854397267103195, -0.049100279808044434, 0.013382948935031891, -0.030538354068994522, -0.0480317696928978, 0.050771020352840424, -0.06610472500324249, -0.031687039881944656, -0.007019750773906708, 0.0637756809592247, 0.0122428759932518, -0.024505510926246643, 0.03080468624830246, 0.006557062268257141, -0.006017223000526428, -0.05581337958574295, -0.01616676151752472, 0.01616101711988449, 0.029655076563358307, -0.058559682220220566, -0.02636886015534401, 0.03824586421251297, -0.0288534052670002, 0.050927579402923584, -0.0644177570939064, -0.05021771788597107, -0.026132769882678986, 0.04546414315700531, -0.0675392597913742, 0.030443452298641205, -0.004758790135383606, 0.03566014766693115, -0.028719674795866013, 0.05076616257429123, -0.004639580845832825, 0.06089114397764206, -0.01856471225619316, 0.027094751596450806, 0.004308141767978668, -0.022617176175117493, 0.00755174458026886, 0.046481937170028687, 0.01389121264219284, -0.0019564181566238403, -0.014528915286064148, -0.04724537953734398, -0.014525294303894043, 0.003169730305671692, 0.03145613521337509, -0.06749122589826584, 0.030625052750110626, 0.028470918536186218, -0.06326225399971008, 0.06353474408388138, -0.04312177374958992, -0.05996611714363098, 0.00673288106918335, -0.05892660468816757, 0.0035941600799560547, 0.009183615446090698, 0.003950648009777069, 0.04505534470081329, 0.011490508913993835, 0.031025737524032593, -0.048574600368738174, -0.05230896174907684, -0.029197964817285538, 0.03459876775741577, -0.04652886837720871, 0.023396477103233337, 1.4156103134155273e-06, 0.06543373316526413, -0.050471231341362, 0.03997693955898285, -0.06590119004249573, -0.03696856275200844, -0.034147851169109344, 0.062122128903865814, 0.06383740156888962, 0.0342072919011116, -0.04077613353729248, -0.06502743810415268, 0.0060330405831336975, 0.06450933963060379, 0.014706172049045563, 0.03382274508476257, -0.06683944165706635, 0.04843028634786606, 0.006757259368896484, 0.04284898191690445, -0.06527434289455414, 0.05616041272878647, 0.01885441690683365, 0.020995020866394043, 0.004560157656669617, 0.016941338777542114, -0.038578156381845474, -0.002857118844985962, -0.023577146232128143, -0.027473945170640945, -0.0075495243072509766, 0.04757280647754669, -0.01423662155866623, 0.0240977481007576, -0.06160029023885727, 0.046450212597846985, -0.04483916983008385, 0.04064622521400452, 0.016730114817619324, -0.03692634031176567, -0.015921108424663544, 0.02198689430952072, 0.06790567189455032, -0.04921925812959671, -0.06972721219062805, 0.006239853799343109, -0.04015902057290077, 0.055813468992710114, 0.02285170555114746, 0.03585893660783768, -0.06500620394945145, -0.06881781667470932, 0.06055092066526413, -0.046883828938007355, 0.01821797341108322, 0.05863357335329056, -0.017249464988708496, -0.04576537013053894, 0.031194567680358887, 0.024261265993118286, -0.04839973896741867, 0.046096235513687134, -0.03969778120517731, -0.042643673717975616, -0.0634346604347229, -0.04485958814620972, -0.051282063126564026, 0.0020850449800491333, -0.013321634382009506, -0.031953468918800354, 0.04498352110385895, 0.055955372750759125, -0.019224032759666443, -0.043940749019384384, 0.05123918503522873, -0.03515642136335373, 0.01286172866821289, -0.06056435778737068, 0.025075241923332214, -0.004575610160827637, -0.03419872000813484, -0.024227328598499298, -0.03470999002456665, -0.006051495671272278, -0.04277699440717697, -0.049064867198467255, 0.014200881123542786, 0.0566750094294548, -0.025889266282320023, -0.06586609035730362, -0.034830544143915176, 0.004183173179626465, -0.038233812898397446, 0.05902861803770065, -0.04370267689228058, -0.007115021347999573, 0.03617829829454422, 0.011149071156978607, -0.041147686541080475, 0.06298146396875381, -0.020955216139554977, -0.05926436185836792, 0.008066609501838684, 0.06958384066820145, -0.04537121206521988, -0.04457270726561546, -0.033986009657382965, -0.05082431808114052, 0.0020724087953567505, 0.03594851493835449, -0.03938969224691391, -0.06894323229789734, -0.06844402104616165, 0.05168856680393219, -0.004508018493652344, -0.026961639523506165, -0.06560362130403519, 0.025123119354248047, -0.012657608836889267, 0.023052074015140533, -0.057795360684394836, -0.04067719727754593, -0.029802460223436356, -0.05032801628112793, -0.012284375727176666, -0.01737331598997116, 0.04607336223125458, 0.04783821105957031, -0.04582975059747696, 0.008074373006820679, -0.06395357102155685, -0.011205263435840607, -0.02819032222032547, 0.028676435351371765, -0.027527306228876114, -0.02530566230416298, 0.06370123475790024, 0.009850800037384033, -0.0656115785241127, -0.003636576235294342, -0.047186970710754395, -0.061371415853500366, -0.014325182884931564, 0.01987941563129425, 0.024920806288719177, 0.019531063735485077, 0.027903929352760315, -0.038331467658281326, 0.004152171313762665, -0.05356631055474281, 0.056488461792469025, 0.02437750995159149, 0.038011521100997925, -0.031092658638954163, -0.03740619122982025, 0.0635453537106514, 0.002023167908191681, -0.04389123618602753, 0.002037346363067627, -0.03983447700738907, -0.02679530531167984, -0.005949303507804871, 0.005474768579006195, 0.010601259768009186, -0.03698703646659851, 0.058165453374385834, 0.00727689266204834, 0.03778453171253204, 0.023005850613117218, -0.0017690062522888184, -0.03779445216059685, 0.05476231127977371, 0.029186591506004333, -0.06551218032836914, 0.01876794546842575, -0.0323505736887455, 0.0008001253008842468, -0.05389271676540375, 0.06347944587469101, 0.020196057856082916, -0.020521271973848343, -0.021056856960058212, -0.051214106380939484, -0.06369542330503464, 0.014269478619098663, 0.05094965547323227, -0.06627004593610764, -0.062132932245731354, 0.00860472023487091, 0.005855672061443329, -0.013684779405593872, -0.02861875668168068, -0.04685942083597183, 0.04236982762813568, -0.0025199726223945618, 0.03157436102628708, -0.020309772342443466, -0.04811841994524002, 0.05310466140508652, 0.06730624288320541, 0.02515362948179245, -0.04046666994690895, -0.03368799760937691, -0.045451633632183075, -0.06050513684749603, -0.013369947671890259, 0.03341902047395706, -0.0004663318395614624, -0.06392945349216461, -0.0168110653758049, -0.0183279886841774, 0.037889882922172546, -0.04688030853867531, 0.03761511296033859, 0.01148425042629242, 0.014647647738456726, -0.05382991582155228, -0.04937862604856491, -0.055902883410453796, -0.02976391837000847, -0.05424829572439194, 0.015821516513824463, -0.05651881918311119, 0.005034886300563812, 0.05986226350069046, -0.06289861351251602, 0.015508748590946198, 0.021162234246730804, -0.05827224254608154, -0.06133152171969414, -0.039161987602710724, 0.0004010498523712158, -0.028505682945251465, -0.009754613041877747, -0.057830214500427246, -0.01833842322230339, -0.055970869958400726, -0.05777933448553085, 0.04301530122756958, 0.02575945109128952, -0.06688418239355087, -0.02482670173048973, 0.04102788120508194, -0.0661119744181633, -0.05672271549701691, 0.029806718230247498, 0.037945978343486786, -0.026723019778728485, -0.05496029928326607, -0.026803988963365555, 0.02801404893398285, 0.05832845717668533, 0.006419196724891663, 0.005990892648696899, -0.006196275353431702, 0.0351993590593338, 0.06060544401407242, 0.057674430310726166, 0.0502399280667305, 0.02468515932559967, -0.05500373989343643, 0.06318940967321396, 0.04790925234556198, 0.0036382898688316345, 0.026024959981441498, 0.06137578934431076, 0.041994258761405945, 0.028994396328926086, -0.021797239780426025, -0.016728993505239487, 0.004148274660110474, 0.021933354437351227, 0.06619527190923691, -0.004559844732284546, -0.022211924195289612, -0.03147811442613602, -0.028975721448659897, 0.015166163444519043, 0.005052104592323303, -0.003537803888320923, -0.001631610095500946, 0.036912254989147186, -0.03122347965836525, -0.06625645607709885, 0.0010125935077667236, -0.06146813556551933, 0.004072047770023346, 0.022661283612251282, 0.02494143694639206, -0.005788624286651611, 0.06367632001638412, 0.007937751710414886, -0.044019460678100586, -0.029481153935194016, -0.03731578215956688, 0.03627679497003555, 0.03859754651784897, -0.017202802002429962, -0.015876099467277527, 0.054142504930496216, 0.02481575310230255, -0.05590338259935379, 0.012677818536758423, -0.06983286887407303, 0.04646546393632889, 0.021655775606632233, -0.009473450481891632, 0.029808469116687775, -0.04635707288980484, 0.008957900106906891, -0.042182356119155884, -0.04228945076465607, -0.015726719051599503, -0.04626597464084625, -0.0443253368139267, -0.06571972370147705, 0.0583181157708168, -0.02165626361966133, -0.023037530481815338, 0.03686637431383133, -0.06555455178022385, 0.030973196029663086, 0.04036349803209305, 0.009861648082733154, 0.001851096749305725, -0.0423106849193573, -0.037852730602025986, -0.0021649524569511414, 0.03116460144519806, -0.01135251671075821, 0.06827675551176071, -0.02904612571001053, 0.004187598824501038, -0.023078713566064835, 0.06939723342657089, 0.06924126297235489, 0.004328012466430664, -0.017853211611509323, 0.026868179440498352, 0.024683065712451935, 0.04835209995508194, 0.04654566943645477, 0.05984727293252945, -0.029034726321697235, -0.029404599219560623, 0.02207140624523163, -0.037278275936841965, 0.06202464550733566, 0.05213967710733414, 0.05779210478067398, -0.05738603323698044, -0.05837103724479675, -0.024861980229616165, 0.0653119757771492, 0.01184837520122528, 0.002022355794906616, 0.06798883527517319, -0.052426666021347046, 0.030331842601299286, -0.04744241386651993, 0.05672382563352585, -0.06274188309907913, 0.03824391961097717, -0.04611973464488983, -0.05560346320271492, -0.03777966648340225, -0.025643441826105118, -0.05048205330967903, 0.006829969584941864, 0.05062670260667801, 0.014012694358825684, 0.000779271125793457, -0.0492788627743721, 0.06153135746717453, -0.04784313216805458, -0.06546536087989807, -0.05092305690050125, -0.004872038960456848, 0.05033477395772934, 0.04033198952674866, 0.035062022507190704, -0.022175587713718414, 0.055895544588565826, 0.0021380186080932617, -0.009281862527132034, -0.05873556435108185, 0.0034572407603263855, -0.015575923025608063, -0.035558976233005524, -0.028522580862045288, -0.0009070858359336853, -0.01891837641596794, -0.02852511778473854, -0.05221548676490784, 0.06350352615118027, -0.01377897709608078, -0.006641082465648651, 0.02913675457239151, 0.04326948523521423, -0.03922707214951515, 0.04036068171262741, 0.013415344059467316, -0.019158344715833664, 0.023945406079292297, -0.020964644849300385, -0.019243434071540833, -0.009226799011230469, -0.04735514149069786, -0.0332801453769207, -0.024798113852739334, 0.04051730036735535, -0.05148372799158096, -0.03435242176055908, 0.05044533312320709, 0.01278597116470337, -0.058085814118385315, 0.00858885794878006, 0.004409804940223694, -0.017971988767385483, -0.0499725416302681, -0.02659846469759941, -0.021817442029714584, -0.03449754789471626, -0.048100896179676056, 0.009716995060443878, -0.030614878982305527, -0.06388135254383087, 0.06893985718488693, -0.05530320852994919, -0.018074139952659607, -0.02974141761660576, 0.022999368607997894, 0.029138244688510895, 0.02326902747154236, -0.061815496534109116, 0.022634856402873993, 0.050320371985435486, -0.03499601408839226, -0.04408468306064606, 0.0471014678478241, 0.02426093816757202, 0.0023029744625091553, 