{"decode_conv_weights": [0.006833896040916443, 0.017298921942710876, -0.0163181871175766, 0.04705102741718292, 0.03894194960594177, 0.0028668493032455444, 0.062253646552562714, 0.03316853940486908, -0.011616922914981842, -0.036947544664144516, 0.005434341728687286, -0.03785919025540352, -0.050345830619335175, -0.057007886469364166, -0.0645323321223259, 0.02403157204389572, -0.008960716426372528, -0.02512490004301071, -0.032644178718328476, 0.012151576578617096, 0.04851860553026199, -0.05373293533921242, -0.05502760410308838, -0.004385694861412048, 0.007111705839633942, -0.008811328560113907, -0.008286621421575546, -0.02045328915119171, -0.03370465710759163, -0.03151118382811546, -0.0389258973300457, -0.024457134306430817, 0.06538417190313339, 0.01365787535905838, -0.009129185229539871, 0.014578469097614288, -0.0638175904750824, 0.06230054050683975, -0.04648389667272568, 0.04693593829870224, -0.03892095386981964, -0.05742505565285683, -0.043719030916690826, 0.03701215982437134, 0.018030308187007904, -0.056929174810647964, 0.06495027989149094, 0.02588818222284317, 0.0550004318356514, 0.067904032766819, 0.01715271919965744, -0.048213887959718704, 0.05267747491598129, -0.020006660372018814, 0.06407061964273453, 0.006396934390068054, -0.05931684002280235, -0.02687821537256241, -1.6450881958007812e-05, 0.024406254291534424, 0.060368843376636505, -0.04563261568546295, 0.03505738079547882, 0.015918485820293427, 0.05228012055158615, -0.010870888829231262, -0.003025151789188385, 0.04455723613500595, -0.023271631449460983, -0.027913477271795273, 0.05546029657125473, -0.03157633915543556, -0.06854762136936188, -0.06813491880893707, -0.021630190312862396, 0.06550657004117966, 0.0066972896456718445, 0.019539549946784973, -0.046250924468040466, 0.059531278908252716, 0.03798489272594452, 0.011665046215057373, -0.05763242766261101, 0.05471431463956833, 0.058488376438617706, 0.01174619048833847, 0.0018393546342849731, 0.015672072768211365, -0.04476224631071091, -0.05527547746896744, 0.04911131411790848, 0.012273222208023071, -0.025708578526973724, -0.04344162344932556, 0.013936072587966919, -0.008053850382566452, -0.04841720312833786, -0.020933043211698532, -0.0507906973361969, 0.05775543302297592, 0.03753878176212311, 0.062044866383075714, 0.0442635640501976, 0.0512717142701149, 0.03887833654880524, 0.03620176017284393, 0.031082555651664734, -0.003977082669734955, -0.0686822161078453, 0.005374342203140259, 0.05233388394117355, 0.01332855224609375, 0.0019520670175552368, -0.04181999713182449, -0.03902430832386017, -0.04880088195204735, 0.03533864766359329, 0.041926391422748566, 0.021980009973049164, -0.0662473738193512, 0.048834480345249176, 0.05973000079393387, -0.03501414135098457, 0.06782227009534836, -0.06448087841272354, -0.05776382237672806, -0.00488695502281189, 0.013056069612503052, 0.012998245656490326, 0.020425178110599518, -0.003126882016658783, -0.060054950416088104, -0.050350889563560486, 0.03927408903837204, 0.036206185817718506, -0.006138958036899567, 0.06960587948560715, -0.05707259848713875, 0.048483528196811676, -0.0661657378077507, 0.061477892100811005, 0.026925168931484222, -0.031773004680871964, 0.06410453468561172, -0.04408850893378258, -0.023753125220537186, 0.018583282828330994, -0.044178418815135956, -0.04522215574979782, -0.05648567155003548, 0.037448763847351074, 0.019656941294670105, -0.060098517686128616, 0.055481038987636566, 0.027275316417217255, 0.02467568963766098, -0.013669509440660477, -0.04803851619362831, 0.055029116570949554, 0.05639677494764328, 0.056087009608745575, -0.03974746912717819, 0.018614836037158966, -0.04706208407878876, 0.020148001611232758, 0.05128050595521927, 0.05122358351945877, 0.003037460148334503, -0.062274783849716187, 0.015644140541553497, 0.04315943270921707, 0.053191184997558594, 0.0033145397901535034, -0.03449765220284462, 0.008587196469306946, 0.02797809988260269, 0.06264664977788925, 0.01330728828907013, 0.04552929848432541, 0.020349711179733276, 0.0422409251332283, 0.03309692442417145, -0.03874029591679573, -0.03421403467655182, -0.03817252814769745, 0.005389422178268433, 0.003887072205543518, -0.029659617692232132, -0.03323827311396599, 0.006788589060306549, -0.019953463226556778, -0.017866142094135284, -0.06844397634267807, -0.0684041678905487, 0.05970137566328049, 0.016755491495132446, -0.062466491013765335, -0.02490168809890747, 0.0019078850746154785, -0.016665756702423096, -0.018975455313920975, -0.03940178453922272, -0.000748366117477417, 0.027875036001205444, 0.007427796721458435, -0.004806414246559143, -0.05889575928449631, 0.0659184381365776, -0.02817343920469284, -0.03852846845984459, -0.04894709587097168, 0.04376693069934845, 0.005723327398300171, 0.024378702044487, -0.06082114204764366, 0.05721084028482437, -0.06043704226613045, -0.0020402073860168457, 0.054559141397476196, -0.046887874603271484, 0.03893444687128067, -0.025368165224790573, -0.002365127205848694, 0.030498884618282318, -0.007528956979513168, 0.05862458795309067, -0.017803173512220383, -0.06968370825052261, 0.06408201903104782, -0.053721778094768524, 0.018111035227775574, -0.023149345070123672, 0.015027791261672974, -0.006517104804515839, -0.02235139161348343, -0.017800435423851013, 0.016023576259613037, 0.058488138020038605, -0.06260287761688232, 0.02190374583005905, 0.059065081179142, 0.06406452506780624, 0.02539946138858795, 0.02424135059118271, -0.038278136402368546, -0.0035131946206092834, -0.032888997346162796, 0.034518979489803314, 0.043901264667510986, 0.0042000263929367065, 0.05214012414216995, 0.04299113154411316, -0.05367612838745117, -0.00371357798576355, -0.021532703191041946, 0.023187853395938873, 0.030126504600048065, -0.016186561435461044, 0.04084150493144989, -0.02276453748345375, 0.05180170387029648, 0.02504313737154007, 0.0030587613582611084, -0.03968295082449913, 0.030845433473587036, -0.014478698372840881, -0.01131276786327362, 0.004817947745323181, -0.042265791445970535, 0.002541355788707733, -0.04622374102473259, -0.012349698692560196, -0.06637033075094223, -0.04838026314973831, 0.01695873588323593, 0.0307655930519104, -0.05884963274002075, -0.044558215886354446, -0.03915712982416153, 0.02159726619720459, 0.029140695929527283, -0.06737527996301651, -0.06581733375787735, -0.0010309666395187378, -0.011885832995176315, -0.006354913115501404, -0.01568402349948883, 0.04325009137392044, 0.006612516939640045, -0.05019501596689224, 0.0391136109828949, -0.015152733772993088, 0.0639314129948616, -0.007511112838983536, 0.03267321735620499, -0.03346391022205353, 0.05190252512693405, -0.014456875622272491, -0.05869622156023979, -0.054473891854286194, 0.011177293956279755, 0.045717597007751465, 0.06443173438310623, 0.048072539269924164, -0.02352282777428627, -0.05607396364212036, -0.008660197257995605, 0.03140602260828018, 0.04532632231712341, 0.016306720674037933, -0.013544119894504547, 0.040265366435050964, 0.039188630878925323, -0.033058084547519684, 0.025092199444770813, 0.02412441372871399, -0.06651410460472107, 0.04070688784122467, 0.023661859333515167, 0.0631747618317604, 0.06559569388628006, 0.015684664249420166, 0.007749907672405243, -0.06702061742544174, -0.03936785086989403, -0.04442160949110985, -0.021635375916957855, 0.009848281741142273, 0.0002624392509460449, 0.052810974419116974, -0.046651311218738556, 0.028216786682605743, 0.028339840471744537, 0.037102580070495605, 0.0029518604278564453, 0.06728547066450119, -0.06709472835063934, -0.06647595763206482, 0.02595037966966629, -0.04226294532418251, 0.03004060685634613, -0.044431596994400024, 0.021055608987808228, -0.023536480963230133, -0.06727346777915955, -0.03840022161602974, 0.03219503164291382, 0.03315706551074982, -0.04789227619767189, -0.04143868386745453, -0.062205687165260315, 0.05567283183336258, 0.033606961369514465, -0.06524501740932465, -0.030264031141996384, -0.0434173122048378, -0.047499656677246094, -0.038729701191186905, -0.029457852244377136, -0.0647599846124649, -0.03674422949552536, 0.03523261845111847, -0.06509488821029663, -0.00041925162076950073, -0.019833270460367203, -0.004180699586868286, -0.06877979636192322, 0.006031692028045654, 0.03824310749769211, -0.03892083466053009, 0.04290739446878433, -0.0393456406891346, 0.03683946281671524, 0.058796025812625885, -0.04451891407370567, -0.06838095188140869, -0.0449545718729496, -0.06650657206773758, 0.05846818536520004, -0.010865304619073868, -0.041967686265707016, 0.06482001394033432, -0.05018226057291031, 0.04495204985141754, 0.04819720983505249, -0.008737791329622269, 0.04370362311601639, -0.05780189856886864, 0.05181221663951874, -0.05344158411026001, -0.055172935128211975, 0.009580753743648529, 0.060558028519153595, -0.043923571705818176, -0.026141706854104996, 0.02386544644832611, 0.038974493741989136, 0.05269447714090347, -0.06170595437288284, 0.004643142223358154, 0.06041572242975235, -0.04134919121861458, 0.04455173760652542, 0.03994692116975784, 0.06574853509664536, -0.05219760537147522, 0.01082313060760498, -0.0023702234029769897, 0.04759287089109421, -0.052418053150177, -0.04964818060398102, 0.01272079348564148, 0.007388070225715637, 0.006250858306884766, 0.030579082667827606, 0.04840511828660965, -0.04582265764474869, 0.06667842715978622, -0.06927771866321564, 0.01362675428390503, 0.043548695743083954, -0.04575683921575546, 0.04809392988681793, -0.0548529252409935, 0.04638589918613434, 0.03722710162401199, 0.020924240350723267, -0.03162789344787598, -0.0011009573936462402, -0.02414104714989662, -0.05732318386435509, 0.03913204371929169, -0.04068310931324959, 0.004174426198005676, 0.03570181876420975, 0.06863138824701309, -0.005854159593582153, 0.029278449714183807, -0.03949537128210068, 0.023983314633369446, -0.025343887507915497, 0.00015686452388763428, 0.05163220316171646, 0.05734308809041977, 0.035106778144836426, 0.057277970016002655, -0.04293021559715271, -0.003163836896419525, -0.03647845983505249, -0.009734362363815308, -0.049486543983221054, -0.0103471539914608, -0.03258819878101349, -0.060068003833293915, 0.024299979209899902, 0.036982424557209015, -0.00012174993753433228, -0.011408854275941849, -0.025800757110118866, 0.010186374187469482, 0.06206297129392624, 0.06167341023683548, -0.06052625924348831, -0.044024161994457245, -0.0007574111223220825, -0.042271196842193604, 0.02573457360267639, 0.015753649175167084, -0.05159585922956467, -0.008143357932567596, -0.06209781393408775, -0.02530694752931595, 0.023060843348503113, -0.06821068376302719, 0.02992667257785797, 0.01852676272392273, -0.06647910177707672, -0.05436743050813675, 0.03966329246759415, 0.014288969337940216, 0.052274204790592194, 0.05610007792711258, 0.024639658629894257, 0.002971649169921875, -0.0061528682708740234, -0.026614341884851456, -0.04979817569255829, 0.06692814081907272, 0.050320759415626526, 0.015265941619873047, 0.022667698562145233, 0.025178715586662292, -0.04475705325603485, -0.06553348898887634, 0.04027383029460907, 0.00129670649766922, 0.022271886467933655, 0.001836337149143219, 0.004893042147159576, -0.040596604347229004, 0.06662512570619583, 0.02421114593744278, 0.030585087835788727, -0.06127099320292473, 0.012789703905582428, -0.027171354740858078, -0.06545062363147736, -0.04052291810512543, -0.019087016582489014, 0.0013601481914520264, -0.01815309002995491, -0.018993966281414032, 0.014386869966983795, -0.028345152735710144, 0.0040452852845191956, 0.020744062960147858, 0.06700656563043594, 0.030888572335243225, -0.011947326362133026, -0.05106945335865021, -0.06998398900032043, -0.015692494809627533, 0.025930732488632202, 0.05795467644929886, 0.042104244232177734, 0.05110283941030502, 0.052939943969249725, -0.04234287515282631, 0.006952747702598572, 0.02784077078104019, 0.004079893231391907, -0.033810269087553024, 0.0007344558835029602, -0.0007994323968887329, -0.021024320274591446, 0.041032567620277405, -0.029273338615894318, -0.06431169807910919, -0.00604335218667984, 0.05786219984292984, -0.030306488275527954, 0.03607313334941864, 0.061093710362911224, -0.0141412653028965, 0.06617581099271774, -0.038569170981645584, -0.042324088513851166, 0.04367268830537796, -0.0089394710958004, -0.008211206644773483, -0.012817859649658203, -0.06499385088682175, -0.04105931520462036, -0.020420674234628677, 0.033381640911102295, -0.04141833633184433, 0.013990089297294617, 0.0466889888048172, -0.04362194985151291, 0.016257472336292267, 0.04497207701206207, 0.015186302363872528, 0.033023491501808167, 0.05798735469579697, -0.0623735710978508, -0.00804852694272995, -0.0396268367767334, 0.03358051925897598, -0.008622705936431885, -0.05785591900348663, 0.04252345860004425, 0.02716442197561264, 0.014076851308345795, 0.06126811355352402, -0.0045145973563194275, -0.021174106746912003, 0.05168724060058594, 0.03724880516529083, 0.006074048578739166, -0.02060632035136223, -0.06078682467341423, -0.008368022739887238, 0.06786491721868515, 0.02241690456867218, -0.0005917400121688843, -0.05074624717235565, 0.05299827456474304, -0.05104047805070877, -0.01589319482445717, -0.017470695078372955, 0.06237243860960007, 0.023748278617858887, 0.018710747361183167, 0.029289118945598602, 0.06347506493330002, -0.06571366637945175, 0.005956210196018219, 0.04565151035785675, 0.014145448803901672, 0.008350774645805359, -0.0051494017243385315, 0.055487699806690216, -0.05477695167064667, 0.024151436984539032, 0.03625714033842087, 0.05096059292554855, -0.0028283819556236267, -0.06032700836658478, -0.033135898411273956, -0.028638843446969986, 0.0148516446352005, -0.04928365722298622, 0.037038467824459076, 0.028411567211151123, 0.032637640833854675, -0.03953017294406891, 0.04539899528026581, 0.01502806693315506, -0.028217077255249023, -0.0075227320194244385, 0.06287319213151932, 0.017420552670955658, 0.034520819783210754, -0.00679122656583786, 0.05185987055301666, -0.0252804234623909, -0.022084351629018784, -0.028769079595804214, 0.05186992138624191, 0.004803851246833801, -0.02491118013858795, 0.058135129511356354, -0.06238915026187897, 0.04512173682451248, -0.03301943838596344, 0.046696171164512634, 0.06979607790708542, -0.03168608993291855, 0.005368821322917938, 0.050011031329631805, 0.05011238902807236, 0.054848216474056244, -0.002803198993206024, -0.0671694278717041, -0.003694877028465271, 0.01958893984556198, -0.003695942461490631, -0.06736943125724792, -0.05206257849931717, -0.021621499210596085, 0.003436744213104248, -0.01157732680439949, 0.03023587167263031, 0.05524493008852005, 0.02387392520904541, 0.026862800121307373, 0.06268227845430374, 0.01669793576002121, 0.025623641908168793, 0.049556538462638855, -0.028417430818080902, 0.013544343411922455, -0.04650473594665527, 0.0007331445813179016, -0.05301399901509285, -0.04098599776625633, -0.00655587762594223, -0.06664253771305084, -0.027109511196613312, 0.03924406319856644, -0.0671139732003212, -0.01708083599805832, 0.04978693276643753, -0.06912776082754135, 0.010129906237125397, -0.06874194741249084, -0.0673365369439125, -0.05950719863176346, 0.05952144414186478, -0.04784872382879257, -0.019076835364103317, 0.002578519284725189, 0.04472619295120239, -0.012007094919681549, 0.03246195614337921, -0.04981699958443642, 0.06943845003843307, -0.06678936630487442, -0.06100435554981232, -0.011366963386535645, -0.015403419733047485, 0.044780150055885315, 0.02433685213327408, 0.005731157958507538, 0.04558287560939789, 0.013860829174518585, 0.0669512078166008, -0.05991284176707268, -0.023682504892349243, -0.040126048028469086, -0.0343148335814476, -0.051356278359889984, -0.055933643132448196, -0.018775347620248795, -0.017147623002529144, -0.01367080956697464, 0.028213903307914734, -0.029529497027397156, -0.029100053012371063, -0.038532208651304245, -0.05296093598008156, 0.061432547867298126, -0.06894396990537643, -0.035265836864709854, -0.01764683797955513, 0.055720992386341095, 0.018137149512767792, 0.042523570358753204, -0.0012628436088562012, -0.03596380352973938, -0.007977906614542007, 0.03647430241107941, 0.04432425647974014, 0.031045742332935333, -0.012086566537618637, -0.009238041937351227, 0.03716381639242172, -0.057335689663887024, -0.04282381385564804, -0.0017679780721664429, 0.0025058016180992126, -0.06713229417800903, 0.05897902697324753, -0.05824656039476395, -0.06371332705020905, 0.007333740592002869, -0.05789920315146446, -0.06532099843025208, 0.06771060079336166, 0.007285274565219879, 0.008839763700962067, 0.024003371596336365, -0.06258678436279297, 0.01744149625301361, 0.05501756817102432, 0.03857371211051941, 0.05677669495344162, -0.03412080928683281, 0.03120160847902298, -0.06088816374540329, 0.0036181434988975525, -0.002816326916217804, -0.018720462918281555, -0.02544018253684044, -0.03535090386867523, 0.06055805832147598, -0.05434633046388626, -0.033937059342861176, -0.04614368826150894, 0.032407358288764954, -0.05446191504597664, -0.02737358957529068, 0.0002824068069458008, -0.04658597707748413, 0.04528021067380905, 0.06230538338422775, 0.03196409344673157, 0.017222605645656586, 0.006283648312091827, -0.06206018477678299, 0.009526237845420837, -0.018446184694767, 0.04188220202922821, 0.011482775211334229, -0.032962214201688766, -0.024620261043310165, -0.02767343819141388, 0.02376444637775421, -0.041376687586307526, -0.005991324782371521, 0.06555662304162979, 0.0460805669426918, -0.05623144283890724, -0.029451850801706314, -0.009054861962795258, -0.053206924349069595, -0.051158808171749115, 0.006469026207923889, -0.060859888792037964, 0.009207122027873993, -0.004509754478931427, 0.02282865345478058, 0.0015158653259277344, -0.03529563918709755, 0.020880170166492462, 0.0372156947851181, 0.027039311826229095, 0.04445990175008774, 0.06663935631513596, -0.010541774332523346, 0.030074238777160645, 0.027778834104537964, 0.05081905424594879, 0.015753544867038727, 0.06285681575536728, -0.060800664126873016, 0.003907233476638794, -0.037973225116729736, 0.05860552936792374, -0.001870676875114441, -0.008216708898544312, -0.05332665145397186, -0.0327853225171566, 0.054937541484832764, -0.06659708172082901, 0.00884624570608139, -0.0641624704003334, 0.004255503416061401, 0.0025250986218452454, -0.003776341676712036, 0.030609212815761566, 0.010633327066898346, 0.030418619513511658, 0.030813664197921753, 0.031285129487514496, -0.011287890374660492, -0.01666824147105217, -0.02156379073858261, 0.06301813572645187, -0.00716438889503479, -0.041321128606796265, -0.031287942081689835, 0.004319801926612854, -0.013730484992265701, 0.03652537614107132, -0.002502627670764923, 0.06760186702013016, 0.004338562488555908, -0.06597751379013062, -0.030508697032928467, -0.05126386508345604, -0.05059413984417915, 0.06313496083021164, -0.0509590208530426, 0.027221418917179108, 0.04680141061544418, 0.020935669541358948, 0.011445194482803345, 0.034832537174224854, -0.03282073885202408, -0.06944724172353745, 0.05286608636379242, -0.05009619519114494, -0.05524374544620514, 0.042731255292892456, -0.023030050098896027, 0.0314907506108284, 0.04566539078950882, 0.055146582424640656, 0.0658099427819252, 0.04455854743719101, -0.048279717564582825, -0.01376529410481453, 0.0008995532989501953, 0.004723511636257172, -0.05844658240675926, 0.06219152361154556, 0.05701742321252823, -0.06708662956953049, -7.68899917602539e-06, 0.02836713194847107, 0.06811854988336563, 0.06520489603281021, 0.041162990033626556, -0.06180825084447861, 0.004280567169189453, -0.03949413821101189, 0.0265689417719841, 0.04379776865243912, 0.0016210749745368958, -0.06887342780828476, -0.01902323216199875, 0.005444444715976715, -0.02165384218096733, -0.05458443611860275, -0.05647631734609604, 0.05425524711608887, 0.05368608236312866, -0.01938461884856224, 0.030789516866207123, 0.030488312244415283, 0.02882833033800125, -0.017809823155403137, -0.038077566772699356, -0.02814018726348877, 0.01242942363023758, 0.048615239560604095, 0.06491278856992722, -0.015010125935077667, 0.04656677693128586, 0.04212750494480133, -0.04993054270744324, -0.043913472443819046, 0.016468971967697144, 0.06986568123102188, -0.014452554285526276, -0.007916595786809921, 0.008216574788093567, 0.042386047542095184, -0.05809381231665611, 0.013029173016548157, -0.025827810168266296, -0.0021351277828216553, -0.028048347681760788, -0.00020143389701843262, -0.0008068457245826721, -0.029698364436626434, -0.03835831955075264, -0.01855400949716568, -0.015835028141736984, 0.009703584015369415, -0.06279458850622177, -0.03981921821832657, 0.00823957473039627, 0.012126795947551727, -0.02710910513997078, -0.05001957342028618, -0.05708961933851242, 0.01526498794555664, -0.03458246961236, -0.019390512257814407, -0.01588001847267151, -0.06443075090646744, 0.014103978872299194, 0.05184290558099747, 0.006328374147415161, 0.06712230294942856, -0.02844792976975441, -0.036044344305992126, -0.02854881063103676, -0.06795869767665863, -0.0468141995370388, -0.003163754940032959, 0.010872803628444672, -0.018184684216976166, -0.02304290235042572, -0.03642607107758522, -0.012151867151260376, -0.049301743507385254, -0.052524615079164505, -0.005566202104091644, 0.030426494777202606, -0.006218113005161285, -0.032418541610240936, -0.014988075941801071, -0.006702646613121033, 0.04918123781681061, 0.0032777637243270874, -0.002430833876132965, 0.04730851948261261, 0.04430457949638367, 0.0031744539737701416, -0.013625171035528183, 0.06633973866701126, 0.02471281588077545, -0.014891110360622406, -0.02343064174056053, -0.025243427604436874, -0.02572859823703766, -0.058231648057699203, 0.03285212814807892, 0.02336585521697998, 0.009081758558750153, 0.0676702931523323, -0.040674641728401184, 0.052276112139225006, 0.04646759480237961, -0.046324484050273895, -0.022949978709220886, -0.029137350618839264, 0.03902202844619751, 0.016487374901771545, -0.0683496743440628, -0.027901992201805115, 0.059679605066776276, 0.061852939426898956, 0.03995441645383835, -0.05365678295493126, -0.012472283095121384, 0.029781632125377655, 0.016979500651359558, 0.06287433952093124, 0.0313042551279068, 0.06397291272878647, -0.002585768699645996, -0.0020471662282943726, 0.042177148163318634, -0.004027828574180603, -0.04698847606778145, 0.06304388493299484, -0.04491851478815079, 0.01982586830854416, 0.03080427646636963, -0.021338630467653275, 0.061474911868572235, 0.018176056444644928, -0.04244357347488403, 0.06378037482500076, -0.04913928359746933, 0.005487993359565735, 0.06528579443693161, -0.0176057368516922, -0.045779429376125336, 0.0281611829996109, 0.06759359687566757, 0.03395158797502518, 0.04460565000772476, -0.05435622110962868, 0.007123589515686035, -0.06346110254526138, -0.03371838107705116, -0.05467746779322624, -0.020927846431732178, 0.01998148113489151, -0.010688327252864838, -0.03182812035083771, 0.05958353728055954, 0.06400171667337418, -0.005392886698246002, 0.0052322521805763245, 0.03839271515607834, -0.04904551804065704, -0.04945417493581772, 0.06097546964883804, 0.05293644219636917, -0.009702198207378387, -0.026120617985725403, 0.04614447057247162, -0.011044934391975403, -0.05010318011045456, -0.01114850863814354, -0.002075374126434326, 0.0019009336829185486, -0.012976903468370438, -0.010062873363494873, -0.03894307464361191, -0.04175594821572304, 0.01582416146993637, 0.055012576282024384, -0.05690279230475426, -0.031011778861284256, 0.06631075590848923, -0.00833648070693016, -0.03393806144595146, 0.02413371205329895, -0.012079387903213501, 0.02768203616142273, 0.05644499510526657, 0.0676761046051979, -0.03269367292523384, 0.04008283466100693, -0.04537942633032799, 0.06126002222299576, -0.04043472185730934, -0.0016224309802055359, 0.068714939057827, -0.04783662036061287, 0.052906423807144165, -0.03014397621154785, 0.06412187963724136, -0.041362226009368896, -0.01845729351043701, -0.05492806434631348, -0.0024034231901168823, 0.011040203273296356, 0.024990543723106384, 0.04230388253927231, -0.05812222510576248, 0.06918904930353165, 0.04169568419456482, 0.06691852957010269, -0.06777255237102509, -0.060768913477659225, 0.06013394147157669, -0.037757597863674164, -0.016149058938026428, -0.0012927725911140442, -0.0074891746044158936, -0.03741803392767906, 0.052092403173446655, 0.029732435941696167, 0.05247422307729721, -0.052100200206041336, 0.06232853978872299, -0.02076413482427597, -0.04947783797979355, -0.050104446709156036, -0.014575980603694916, -0.06457522511482239, 0.06311299651861191, 0.04548186808824539, -0.05537588521838188, 0.05051647126674652, 0.041204437613487244, -0.00020901858806610107, -0.033095601946115494, 0.0017069131135940552, 0.0318409726023674, -0.017732296139001846, -0.030299264937639236, 0.0030305981636047363, -0.012434441596269608, -0.011171497404575348, -0.05700625106692314, 0.0500015988945961, 0.06840107589960098, -0.02175256982445717, 0.03847628831863403, 0.048717059195041656, -0.004913158714771271, -0.0679595023393631, 0.031633585691452026, 0.04938296973705292, 0.025805503129959106, -0.05107057839632034, -0.04162749648094177, -0.02414027228951454, -0.04580209404230118, 0.06616415828466415, -0.015673980116844177, 0.04998853802680969, 0.06905453652143478, -0.025285206735134125, -0.029572755098342896, -0.0593995563685894, 0.02354665845632553, -0.026636969298124313, 0.00546177476644516, -0.06917767226696014, 0.06878691166639328, -0.027987122535705566, -0.05353287607431412, -0.058331117033958435, -0.058599114418029785, -0.031443867832422256, -0.0403047613799572, 0.051200106739997864, 0.03845040500164032, 0.03647143393754959, -0.00312824547290802, 0.005284331738948822, 0.0457342192530632, -0.03873924911022186, 0.02862498164176941, 0.06174152344465256, 0.031771764159202576, -0.03989130258560181, -0.031551577150821686, 0.006057664752006531, -0.01122162863612175, -0.028746899217367172, -0.012568745762109756, -0.019906096160411835, -0.03982815146446228, -0.0023059919476509094, -0.06349599361419678, -0.062266211956739426, 0.041116125881671906, 0.021052390336990356, -0.04144386202096939, -0.06603717058897018, -0.029594235122203827, -0.042191192507743835, 0.061424724757671356, 0.02332405000925064, 0.02827153354883194, -0.056345295161008835, 0.02458856999874115, 0.018992498517036438, 0.030373334884643555, -0.01581905409693718, 0.015552915632724762, 0.035021863877773285, 0.03150355815887451, 0.012338310480117798, 0.019649773836135864, -0.0428609699010849, 0.0512683242559433, -0.036509450525045395, 0.06016027182340622, 0.047529712319374084, 0.04312510788440704, -0.06317851692438126, 0.02767421305179596, 0.011702775955200195, -0.01746012642979622, 0.0363023579120636, 0.05970502644777298, -0.04650299251079559, -0.047200314700603485, -0.04081552475690842, 0.048539258539676666, 0.04367312788963318, 0.051680199801921844, 0.028271310031414032, -0.06217772513628006, -0.05433467775583267, 0.006657890975475311, 0.0024216994643211365, -0.008132081478834152, -0.012329787015914917, 0.0666336789727211, -0.028735775500535965, 0.03585781902074814, -0.021491479128599167, 0.03742513805627823, 0.06440242379903793, 0.001262754201889038, -0.016242798417806625, 0.05617431551218033, 0.005958378314971924, 0.0017222762107849121, 0.019911572337150574, -0.019366953521966934, 0.051817379891872406, -0.04891347140073776, -0.018608752638101578, -0.013047091662883759, -0.018704764544963837, -0.003143623471260071, 0.030790209770202637, -0.03770536556839943, -0.02688910812139511, -0.05481012910604477, -0.042706720530986786, -0.010665271431207657, 0.009544476866722107, -0.0013566836714744568, -0.02869109809398651, 0.03081955760717392, -0.010399002581834793, -0.028861403465270996, 0.022840067744255066, -0.02001827210187912, -0.04885156452655792, 0.009197942912578583, 0.01384841650724411, 0.011607915163040161, 0.032061927020549774, -0.02607061341404915, 0.06778988987207413, 0.02394714206457138, -0.014640800654888153, 0.029232002794742584, -0.057258863002061844, -0.025002915412187576, 0.05092640221118927, -0.02333882451057434, 0.03264012187719345, 0.00015366077423095703, 0.0477287620306015, 0.038158223032951355, -0.004744298756122589, 0.04764890670776367, 0.02018009126186371, 0.02889801561832428, -0.013063386082649231, -0.05983825773000717, -0.037074729800224304, -0.045242153108119965, -0.01730116829276085, 0.019426733255386353, -0.029952462762594223, -0.021710887551307678, 0.0060948580503463745, -0.05092760920524597, -0.02834058180451393, 0.004667632281780243, 0.06642606109380722, -8.890032768249512e-05, -0.02426813915371895, -0.038768667727708817, 0.02597302943468094, -0.03496061637997627, -0.026859261095523834, -0.003917299211025238, 0.03655969351530075, -0.06253809481859207, -0.04455111175775528, 0.021886691451072693, -0.06422184407711029, -0.06283288449048996, -0.017100434750318527, 0.040418095886707306, 0.002466827630996704, 0.009518757462501526, -0.059358492493629456, 0.03501908481121063, 0.06706174463033676, -0.05437556281685829, -0.015066377818584442, 0.043966710567474365, -0.04338671267032623, -0.027731455862522125, -0.009734448045492172, -0.05838005989789963, 0.014454178512096405, -0.05407838523387909, -0.04458749294281006, 0.015124805271625519, 0.057505764067173004, 0.007303498685359955, 0.054237641394138336, 0.026846058666706085, 0.04431760311126709, 0.03853428363800049, -0.0035665854811668396, -0.04497072845697403, 0.052387550473213196, -0.03236866369843483, 0.04189806431531906, -0.06289174407720566, -0.045544691383838654, -0.0005698651075363159, -7.322430610656738e-05, 0.04957439750432968, -0.05807590112090111, 0.006211571395397186, 0.028274819254875183, -0.022559043020009995, 0.04230954498052597, -0.04352441057562828, -0.06996279209852219, 0.016128815710544586, 0.03421551734209061, -0.06592930853366852, 0.023673593997955322, 0.02607109397649765, -0.010252848267555237, 0.012541458010673523, -0.014708265662193298, -0.06992596387863159, -0.009417854249477386, -0.053308263421058655, -0.028779268264770508, 0.03357774019241333, 0.008395060896873474, 0.004776157438755035, 0.06382747739553452, 0.025233440101146698, 0.06348022073507309, 0.048190824687480927, 0.027449235320091248, -0.05356742441654205, 0.03657569736242294, -0.04732208698987961, 0.05699797719717026, 0.06965572386980057, -0.0058794766664505005, 0.023745723068714142, 0.029835574328899384, -0.0436910055577755, -0.015789758414030075, -0.03224299103021622, 0.0499960258603096, -0.0501224547624588, -0.04681668430566788, 0.054422229528427124, -0.002687789499759674, 0.06712392717599869, 0.018476225435733795, -0.043854184448719025, -0.04622630029916763, -0.04719313234090805, 0.014818176627159119, 0.048920899629592896, -0.04608476907014847, 0.0015390217304229736, 0.010605551302433014, 0.062448449432849884, -0.04737374186515808, 0.00873509794473648, 0.06344827264547348, -0.05976659059524536, 0.04207409918308258, 0.005921564996242523, 0.0478062704205513, 0.015494123101234436, -0.026010096073150635, 0.06384173780679703, 0.024786479771137238, -0.0029898807406425476, 0.058376915752887726, -0.021467342972755432, -0.008368704468011856, 0.06073901802301407, -0.06159136816859245, -0.06564169377088547, 0.06915435940027237, 0.0021534934639930725, -0.06594117730855942, -0.05083161219954491, -0.05429583415389061, -0.06384611874818802, 0.002689562737941742, 0.04563865065574646, 0.056973136961460114, -0.005398057401180267, 0.003242865204811096, -0.04845326393842697, 0.00891539454460144, -0.02071245387196541, -0.007444322109222412, -0.05166054517030716, 0.03740665316581726, -0.05649445950984955, 0.004282146692276001, -0.05558086186647415, 0.06239563971757889, -0.0017403364181518555, -0.03038165718317032, -0.024487469345331192, 0.03052520751953125, 0.015906237065792084, 0.0007634684443473816, -0.06838905811309814, 0.01900067925453186, 0.018976695835590363, 0.022006459534168243, 0.0332016795873642, -0.04041631519794464, 0.04845628887414932, 0.03657495975494385, -0.06437011063098907, -0.03977074474096298, -0.033138714730739594, 0.02636583149433136, 0.028528809547424316, -0.029843732714653015, -0.05838245525956154, 0.05567992478609085, 0.06306324154138565, -0.03187570348381996, -0.02582661062479019, -0.03432715684175491, -0.04411081224679947, -0.005454488098621368, -0.03619213029742241, -0.029524650424718857, -0.04804600030183792, -0.06026006489992142, -0.010397881269454956, -0.016204994171857834, 0.06397343426942825, -0.02818308025598526, -0.013791199773550034, -0.002564653754234314, 0.055063433945178986, -0.0685262382030487, -0.008109711110591888, -0.028339043259620667, -0.05651024356484413, 0.059257782995700836, 0.006536982953548431, 0.06257476657629013, -0.04424067959189415, -0.0696549192070961, -0.011323027312755585, -0.029689177870750427, 0.046715378761291504, 0.051769912242889404, -0.06855187565088272, 0.027931690216064453, 0.04020532965660095, -0.02512729912996292, 0.03343763202428818, 0.05508265644311905, -0.021505121141672134, 0.016050666570663452, 0.06126158684492111, 0.011518768966197968, -0.03371502086520195, -0.013668801635503769, 0.015107639133930206, 0.04709243029356003, 0.01844828575849533, -0.011059504002332687, 0.01518338918685913, 0.00271480530500412, -0.03834427148103714, -0.044835664331912994, 0.053949788212776184, -0.002031072974205017, 0.030521191656589508, 0.014018476009368896, 0.042834728956222534, 0.044041723012924194, 0.047735705971717834, 0.05415220558643341, -0.06979606300592422, -0.04620802402496338, 0.01713162660598755, -0.011863090097904205, 0.048426225781440735, 0.008573547005653381, -0.06700028479099274, -0.04302186518907547, 0.04219234734773636, 0.0014937594532966614, -0.013316452503204346, 0.03833641856908798, 0.04416816681623459, -0.030113164335489273, -0.02366560325026512, -0.036121901124715805, -0.04903234913945198, 0.04328148066997528, -0.014573689550161362, 0.042762741446495056, -0.021682575345039368, -0.016695212572813034, 0.014009915292263031, -0.050927191972732544, 0.004017181694507599, -0.036541908979415894, -0.02470250427722931, -0.06627258658409119, -0.0480458028614521, 0.06413478404283524, -0.039160288870334625, -0.057484038174152374, 0.03109322488307953, 0.06210831552743912, -0.037218812853097916, -0.044197358191013336, 0.018263742327690125, -0.06220380961894989, 0.026421666145324707, -0.04605687037110329, -0.028911784291267395, 0.02898898720741272, -0.02596069872379303, 0.05358918756246567, 0.02590341866016388, 0.048192739486694336, 0.019252926111221313, 0.033959269523620605, 0.021338604390621185, -0.06984265148639679, -0.011412184685468674, 0.036175891757011414, -0.05847243592143059, -0.009432431310415268, 0.023254238069057465, -0.024731654673814774, -0.028318677097558975, 0.007707469165325165, -0.04236102104187012, 0.005450800061225891, 0.04590451717376709, -0.012215986847877502, 0.02407679706811905, 0.04886207729578018, -4.769861698150635e-05, 0.0032350867986679077, 0.01613248884677887, 0.015554144978523254, 0.007535703480243683, 0.06361771374940872, -0.016984667629003525, 0.03955160081386566, -0.06486699730157852, -0.031912822276353836, 0.037835270166397095, -0.029559362679719925, -0.060574546456336975, 0.025177903473377228, -0.02768193557858467, -0.0051947832107543945, 0.05091794580221176, -0.02925100177526474, 0.05784294754266739, 0.035119764506816864, -0.03956387937068939, 0.03227093070745468, -0.03212540224194527, -0.048489049077034, -0.06914027780294418, 0.05331266671419144, -0.010142266750335693, 0.038859881460666656, -0.04511373117566109, -0.04410161077976227, -0.04660051316022873, 0.03564020246267319, 0.0669797733426094, -0.002859652042388916, 0.061903275549411774, 0.05265091359615326, 0.01349378377199173, -0.06260035187005997, 0.06950380653142929, -0.06715688854455948, -0.035378873348236084, -0.006303638219833374, 0.06585986167192459, 0.06088045984506607, 0.004855319857597351, -0.00934513658285141, 0.025895625352859497, 0.0625109001994133, 0.002900630235671997, -0.03407780081033707, 0.0019942298531532288, 0.019569747149944305, -0.006150372326374054, -0.02871169149875641, -0.03226926922798157, 0.01880919188261032, -0.02890726923942566, 0.030201561748981476, 0.06654783338308334, 0.058658696711063385, 0.020253993570804596, 0.05808886140584946, 0.055047206580638885, -0.02120618149638176, -0.024420659989118576, 0.06370595842599869, -0.060110218822956085, 0.0022392943501472473, 0.060044996440410614, -0.0296744704246521, -0.0444229319691658, 0.05466955900192261, 0.059041477739810944, 0.008007459342479706, 0.046324364840984344, 0.020789265632629395, -0.007397212088108063, -0.021490126848220825, 0.03172900527715683, -0.05171620845794678, -0.03417192026972771, 0.020910650491714478, -0.0021379441022872925, -0.036332350224256516, 0.022136904299259186, -0.039444033056497574, 0.06884514540433884, -0.045217640697956085, -0.05744152516126633, 0.05111478269100189, 0.05635193735361099, 0.034900687634944916, -0.003866925835609436, -0.02487337216734886, 0.05717233568429947, 0.046885885298252106, -0.04279996082186699, -0.005946598947048187, 0.0009380877017974854, 0.05173436552286148, 0.024531491100788116, 0.007098197937011719, 0.021535195410251617, -0.059081073850393295, 0.029538750648498535, -0.05307697504758835, 0.04497247189283371, 0.04066283255815506, 0.02364380657672882, -0.04318708926439285, -0.03926985710859299, -0.06159374490380287, -0.03182118013501167, -0.02831840142607689, -0.013355985283851624, -0.02907557040452957, -0.06112554669380188, 0.05300421267747879, -0.010235194116830826, 0.04862373322248459, -0.04150272160768509, 0.027951791882514954, -0.03293949365615845, 0.04305368661880493, 0.006503313779830933, -0.03542868420481682, -0.0535450205206871, 0.00686383992433548, 0.013643838465213776, -0.01779019832611084, -0.049924690276384354, 0.029312647879123688, 0.05509281903505325, 0.054814308881759644, 0.024201184511184692, 0.030604831874370575, 0.05691475421190262, 0.05006757378578186, -0.006517842411994934, -0.0002883896231651306, 0.04688763618469238, 0.030935287475585938, 0.048466287553310394, 0.05143662542104721, 0.0653817281126976, -0.012779437005519867, -0.02901393547654152, -0.030247971415519714, 0.04261232912540436, -0.01112467423081398, -0.037150729447603226, 0.008568517863750458, -0.05195050686597824, 0.03751898556947708, 0.05409634858369827, 0.06844408065080643, 0.020412780344486237, 0.037164367735385895, -0.0560251846909523, 0.05376450717449188, 0.025418035686016083, 0.04514528065919876, -0.04589422419667244, -0.009995747357606888, 0.02467406541109085, 0.0699814185500145, -0.0036328285932540894, -0.018701933324337006, -0.031530946493148804, 0.0479891374707222, -0.021722018718719482, -0.03812434524297714, -0.06013604998588562, -0.030962549149990082, 0.016927286982536316, -0.05417430028319359, 0.022308260202407837, -0.002611987292766571, 0.048954710364341736, -0.008829083293676376, 0.0003315582871437073, 0.037561677396297455, 0.03510986268520355, 0.005435682833194733, 0.022932082414627075, 0.021518610417842865, -0.002138182520866394, 0.03508896380662918, -0.03619296848773956, 0.03295561671257019, 0.05299696326255798, 0.05012178421020508, -0.06056580692529678, -0.05863632634282112, -0.03686140105128288, 0.0019001215696334839, 0.06040748208761215, -0.052504606544971466, -0.0017833635210990906, 0.06591131538152695, -0.0028857216238975525, -0.026874788105487823, -0.03940587490797043, -0.049086280167102814, -0.00337393581867218, -0.059744104743003845, 0.0496453195810318, 0.03084322065114975, -0.06648577004671097, -0.0699911117553711, 0.030992425978183746, -0.00868174433708191, 0.03830666095018387, 0.02282670885324478, 0.059835098683834076, 0.0061790794134140015, -0.03759818896651268, 0.018073976039886475, 0.0041113123297691345, -0.0008191242814064026, 0.06568913906812668, 0.03784380853176117, 0.05853002518415451, -0.016464941203594208, 0.0688977912068367, -0.030406448990106583, 0.04056369513273239, -0.03608189523220062, 0.02099291980266571, -0.026793651282787323, -0.04707759991288185, 0.013206057250499725, 0.02752549946308136, -0.01469505950808525, -0.06394979357719421, 0.00026404857635498047, -0.00793086364865303, 0.054441072046756744, 0.010584406554698944, 0.009858429431915283, 0.007245190441608429, -0.0031315460801124573, -0.049853451550006866, -0.04528775438666344, 0.006299801170825958, -0.03576317057013512, 0.0683053657412529, 0.007659487426280975, 0.02617582678794861, 0.05680219084024429, 0.06292375177145004, -0.0017823055386543274, 0.007354713976383209, 0.030143313109874725, 0.042923130095005035, 0.006163686513900757, -0.04870482161641121, 0.019968926906585693, 0.020018264651298523, 0.03906472772359848, -0.021485991775989532, 0.06331891566514969, 0.002591527998447418, 0.0329374298453331, -0.05366287752985954, -0.03242418169975281, -0.001066654920578003, -0.02527560666203499, 0.038002319633960724, -0.06493932753801346, 0.022947438061237335, -0.056200943887233734, 0.03625214099884033, 0.009785063564777374, 0.03650584816932678, -0.016042128205299377, 0.041981570422649384, 0.01924707740545273, 0.026745788753032684, -0.05441673845052719, 0.038086146116256714, 0.06240776926279068, 0.011800557374954224, 0.05996481329202652, 0.052489884197711945, 0.03943513333797455, -0.015058055520057678, 0.0695611760020256, 0.048313140869140625, -0.015268351882696152, -0.05018989369273186, -0.0041151344776153564, -0.051834117621183395, -0.025551650673151016, -0.02571142464876175, 0.023037061095237732, 0.024052917957305908, -0.021352317184209824, 0.055099405348300934, -0.05474807322025299, 0.03609172999858856, -0.05616460740566254, -0.008734449744224548, -0.06737781316041946, -0.024352844804525375, -0.03758794069290161, 0.008267462253570557, 0.04201693832874298, -0.02942739427089691, 0.008307568728923798, -0.0005331039428710938, -0.04022233933210373, 0.06473677605390549, -0.012302782386541367, 0.016738049685955048, 0.01621399074792862, -0.02861006185412407, -0.004485927522182465, -0.04063987731933594, 0.044513143599033356, -0.017788756638765335, -0.03646312281489372, 0.028149962425231934, -0.009362921118736267, 0.03303160518407822, -0.04700538143515587, 0.049491800367832184, 0.05032163858413696, -0.028843391686677933, 0.06264195591211319, 0.06957010179758072, 0.05710948258638382, 0.04775653034448624, 0.06581193953752518, 0.048846714198589325, -0.04573134332895279, -0.030005931854248047, -0.034170668572187424, 0.022760361433029175, -0.06766422837972641, -0.05833058804273605, -0.012696247547864914, -0.03709189593791962, -0.035118862986564636, -0.04259202256798744, 0.06703359633684158, -0.029899053275585175, -0.015783369541168213, -0.015938706696033478, 0.015601016581058502, -0.06039060652256012, 0.00978291779756546, -0.007467672228813171, -0.0641353502869606, -0.03227344900369644, 0.009438931941986084, -0.05799771845340729, -0.06361572444438934, 0.05121523141860962, 0.031169675290584564, -0.019385110586881638, 0.05847618728876114, -0.06172432005405426, -0.05988900735974312, 0.04592485725879669, -0.06049394980072975, 0.01816607266664505, 0.05096589773893356, -0.05333112180233002, 0.008611246943473816, -0.028454087674617767, -0.0421716570854187, -0.020129013806581497, -0.04454236850142479, 0.00967976450920105, 0.03306444734334946, -0.030049722641706467, -0.02066505327820778, -0.01056211069226265, -0.02524394541978836, -0.019431594759225845, -0.050661563873291016, -0.06885924190282822, 0.006378389894962311, 0.05139632523059845, 0.062462396919727325, 0.06643538922071457, -0.06092984974384308, -0.01715753972530365, 0.04421725124120712, -0.06423573195934296, 0.03962051123380661, -0.06980806589126587, 0.06296906620264053, -0.0073719993233680725, 0.025117553770542145, 0.034598469734191895, -0.0669737234711647, -0.022352702915668488, -0.05134632810950279, -0.03051416203379631, 0.02987045794725418, -0.03743695840239525, -0.02419023960828781, 0.005727484822273254, 0.05028548091650009, -0.06840448081493378, 0.043921664357185364, -0.022174634039402008, 0.026350557804107666, -0.014217115938663483, 0.02483750879764557, -0.05105269327759743, -0.03046458214521408, -0.03924863040447235, 0.05389265716075897, 0.03536815196275711, 0.017665624618530273, -0.040298521518707275, 0.04602520912885666, -0.003964677453041077, -0.03919057920575142, 0.016621068120002747, 0.029351219534873962, -0.002158120274543762, -0.027158234268426895, 0.06247296184301376, -0.0019555389881134033, 0.004801109433174133, -0.043972425162792206, -0.04547329619526863, -0.007415682077407837, -0.01931154727935791, 0.002310328185558319, -0.026414070278406143, -0.030561894178390503, 0.03078015148639679, 0.040490902960300446, 0.04407849907875061, -0.030412815511226654, -0.044331811368465424, 0.00512811541557312, 0.0036474987864494324, 0.019791267812252045, 0.011051416397094727, 0.051520444452762604, 0.015619322657585144, 0.03489670902490616, -0.04119696468114853, -0.027275454252958298, 0.06885164231061935, -0.03910813480615616, -0.06233638897538185, -0.014337070286273956, 0.060850776731967926, -0.03712683171033859, 0.019989140331745148, -0.009860362857580185, -0.01035580039024353, 0.031549714505672455, -0.06484217941761017, 0.03685320168733597, 0.046431973576545715, -0.06182717904448509, -0.06038910150527954, 0.05930540710687637, -0.015208516269922256, -0.051934435963630676, -0.06167423352599144, -0.047088898718357086, 0.027531132102012634, 0.002544686198234558, -0.029207170009613037, 0.032893359661102295, 0.06038636714220047, 0.04686010628938675, 0.0665186271071434, 0.06816179305315018, 0.061064667999744415, 0.023598462343215942, -0.05201312154531479, -0.03252290189266205, -0.01457163691520691, 0.02666430175304413, 0.05168158560991287, -0.05051276087760925, -0.060154519975185394, 0.008950866758823395, -0.005003027617931366, -0.04275384545326233, 0.03534229099750519, -0.006623551249504089, -0.004480540752410889, 0.04295498877763748, -0.06453119218349457, -0.06519615650177002, 0.013651855289936066, 0.00345398485660553, -0.048873063176870346, 0.0017489418387413025, -0.04774577543139458, 0.05717254430055618, -0.034024421125650406, 0.013205178081989288, 0.05062764137983322, 0.00293847918510437, -0.003275945782661438, 0.03840937465429306, -0.043165162205696106, -0.033897124230861664, 0.06758386641740799, -0.06275168061256409, 0.004576049745082855, 0.008311010897159576, -0.03241230919957161, 0.043157316744327545, -0.04583418369293213, 0.017008453607559204, 0.02211320400238037, -0.003165721893310547, 0.03517930209636688, 0.06819600611925125, 0.018375426530838013, 0.010631352663040161, -0.0026622265577316284, 0.06322386115789413, -0.026863988488912582, 0.03801137953996658, 0.06586792320013046, 0.05260676145553589, 0.002333596348762512, 0.014932096004486084, 0.031735822558403015, 0.039204783737659454, -0.03914336860179901, -0.057544220238924026, 0.06409650295972824, 0.060907356441020966, 0.02836897224187851, 0.06164022535085678, 0.034290485084056854, 0.010347172617912292, 0.016527332365512848, -0.06998836994171143, -0.060889437794685364, 0.023402683436870575, -0.010976485908031464, -0.02766009420156479, -0.05914522707462311, 0.0677528902888298, -0.050883758813142776, -0.013688042759895325, 0.008642077445983887, 0.008740760385990143, 0.06193961948156357, -0.043643563985824585, -4.5239925384521484e-05, -0.04468456283211708, 0.007872112095355988, 0.0044715553522109985, 0.027886077761650085, 0.06205452233552933, -0.06517703086137772, -0.04907778650522232, 0.003614649176597595, -0.05609237030148506, 0.033477045595645905, -0.0689595565199852, 0.05785001069307327, 0.0208066925406456, 0.03086806833744049, 0.03868164122104645, 0.02556312084197998, -0.01615767925977707, 0.0338558703660965, -0.06931323558092117, 0.04111982136964798, -0.06992392241954803, -0.04466281831264496, -0.0417187437415123, -0.003277786076068878, -0.01441047340631485, 0.06375206261873245, 0.05180336534976959, -0.0467216819524765, 0.0510047972202301, -0.023438967764377594, -0.056105226278305054, -0.04962444677948952, -0.0013604313135147095, 0.0375479981303215, -0.020606543868780136, 0.025824926793575287, -0.003997668623924255, 0.03273293375968933, 0.04097432643175125, 0.022921234369277954, 0.02002866566181183, 0.011997193098068237, 0.06640269607305527, 0.06918711215257645, -0.06652966886758804, 0.00778575986623764, -0.017360880970954895, 0.03417918086051941, 0.02049926668405533, -0.05945342034101486, -0.03574468940496445, -0.06123974174261093, 0.016601890325546265, -0.022373639047145844, -0.019424021244049072, -0.03723767027258873, -0.019497964531183243, 0.04823516309261322, -0.047816697508096695, -0.05757623910903931, 0.009302482008934021, -0.04206772521138191, 0.022360213100910187, 0.015972815454006195, 0.04017796367406845, 0.0503893718123436, 0.05282067507505417, -0.028051231056451797, -0.014553356915712357, 0.023118697106838226, 0.04639095067977905, 0.005817286670207977, 0.04931262880563736, 0.04894819110631943, -0.06708700209856033, 0.017099842429161072, 0.04059448093175888, 0.06592438369989395, -0.028848960995674133, 0.04185965657234192, -0.023597482591867447, 0.06726924329996109, -0.037229351699352264, -0.00425296276807785, 0.03883010894060135, -0.023449257016181946, 0.026580192148685455, -0.02438020333647728, -0.06497545540332794, 0.047820381820201874, 0.0490458682179451, 0.010568596422672272, 0.00863616168498993, -0.03458362817764282, 0.02111002802848816, -0.00821661576628685, -0.041170813143253326, 0.045409344136714935, -0.04506254941225052, 0.011502280831336975, -0.03210623562335968, -0.03262421861290932, -0.005580350756645203, 0.036051712930202484, -0.04603738337755203, -0.005032472312450409, 0.03431404381990433, -0.013048909604549408, -0.015794310718774796, 0.06359108537435532, 0.041323065757751465, 0.061423055827617645, -0.039053648710250854, 0.046667471528053284, -0.02794264629483223, 0.011040255427360535, -0.05453312024474144, 0.05246002972126007, 0.030499257147312164, 0.018783152103424072, -0.019452109932899475, -0.031552061438560486, 0.05601993948221207, 0.004905253648757935, 0.018363773822784424, 0.058840177953243256, 0.04301070421934128, -0.015823904424905777, -0.012445982545614243, -0.031982291489839554, 0.011962316930294037, -0.027192160487174988, -0.01637326180934906, 0.014792300760746002, 0.056038402020931244, 0.016176998615264893, 0.05187869071960449, 0.015818998217582703, 0.03653158247470856, -0.06499677151441574, 0.06940344721078873, 0.04948968440294266, 0.059261925518512726, -0.03032112866640091, -0.016326691955327988, -0.013534758239984512, 0.051820263266563416, 0.05750332027673721, 0.03966057300567627, -0.043880730867385864, 0.03158021718263626, 0.02043367177248001, 0.03938315063714981, 0.045430563390254974, -0.06631046533584595, 0.0049422308802604675, 0.04620972275733948, 0.015968017280101776, 0.06372050195932388, 0.0036690160632133484, -0.0066193342208862305, 0.023964084684848785, -0.012646351009607315, 0.06933098286390305, 0.04297512769699097, -0.017779238522052765, 0.019901081919670105, 0.020025238394737244, 0.0647650882601738, -0.0666961669921875, 0.03735971450805664, -0.00023224204778671265, 0.02636820822954178, 0.06472355872392654, -0.018621776252985, -0.06206166371703148, -0.04085683450102806, 0.04710771143436432, -0.009916335344314575, -0.03914903849363327, -0.012989342212677002, -0.06585387885570526, -0.01624906063079834, 0.02980322390794754, 0.05024450272321701, 0.032443568110466, 0.013517484068870544, 0.04875098168849945, 0.008650854229927063, -0.006683140993118286, 0.0293118879199028, -0.004264079034328461, -0.03520858287811279, 0.03512930870056152, -0.0018776655197143555, -0.054998792707920074, -0.013865705579519272, -0.03421133756637573, -0.06219664216041565, 0.06552758067846298, -0.0646013617515564, -0.055785469710826874, -0.01192454993724823, -0.01573113724589348, -0.030444208532571793, -0.023287642747163773, -0.048029180616140366, 0.0527937188744545, -0.00587230920791626, 0.02745172381401062, 0.025055907666683197, 0.05547361820936203, 0.035011790692806244, 0.03696437180042267, 0.05246109515428543, 0.01201409101486206, 0.03199101239442825, -0.057227738201618195, -0.06544147431850433, 0.037003614008426666, -0.006615877151489258, -0.03622346371412277, -0.03981347382068634, 0.04474108666181564, 0.062229521572589874, 0.050145022571086884, 0.03547944128513336, 0.014958910644054413, 0.02869291603565216, -0.04169415682554245, -0.0030212178826332092, 0.011410616338253021, -0.016131766140460968, 0.056794844567775726, -0.05955498293042183, 0.019793376326560974, 0.0006760060787200928, -0.03631652146577835, -0.007205143570899963, -0.004743419587612152, 0.006564483046531677, 0.014418236911296844, 0.05959293991327286, 0.06869306415319443, 0.012929126620292664, -0.055043987929821014, -0.047999586910009384, -0.03698801249265671, -0.012923814356327057, 0.01206989586353302, 0.02607382833957672, -0.0305817648768425, 0.04694201797246933, 0.025230422616004944, 0.046904854476451874, 0.03653118014335632, -0.0348706915974617, 0.05941016227006912, -0.011370789259672165, 0.052321724593639374, 0.034339532256126404, 0.009507149457931519, 0.01170484721660614, -0.059123218059539795, -0.017564382404088974, -0.007583413273096085, 0.029130160808563232, -0.06989097595214844, -0.009527698159217834, 0.06632577627897263, 0.00199282169342041, -0.00693010538816452, -0.053892359137535095, 0.04354509711265564, 0.0327247679233551, 0.06366381794214249, -0.05926722288131714, 0.0523272305727005, 0.055593810975551605, -0.007725004106760025, 0.0468778982758522, -0.028507370501756668, 0.029420718550682068, -0.04552891105413437, 0.020497478544712067, -0.05029667913913727, -0.04916127026081085, -0.0022481977939605713, 0.06846161931753159, 0.05804967135190964, 0.01783483475446701, 0.043939799070358276, -0.008325673639774323, -0.044206369668245316, -0.059564292430877686, -0.01353958249092102, 0.03973653167486191, 0.06855607777833939, -0.006299450993537903, -0.06143492832779884, -0.014723524451255798, 0.05139937251806259, -0.02694450318813324, -0.03247997537255287, -0.05411161482334137, 0.06695636361837387, -0.03546908497810364, 0.03676553815603256, -0.03207108750939369, -0.01889016106724739, 0.06093301624059677, -0.066002257168293, -0.061648089438676834, 0.04426871985197067, 0.045788273215293884, 0.007208295166492462, -0.01890166848897934, -0.005465544760227203, -0.0530259907245636, -0.04668998345732689, 0.026555567979812622, -0.04409441351890564, 0.04443436861038208, -0.047091078013181686, -0.01910630613565445, -0.05005716532468796, 0.0579632893204689, 0.003857150673866272, -0.04259306192398071, 0.06106219440698624, 0.03516903519630432, 0.04311899095773697, -0.01460488885641098, -0.016019422560930252, -0.06843370199203491, 0.05500566214323044, -0.007028691470623016, -0.054411470890045166, 0.06928304582834244, -0.027490779757499695, -0.02192799001932144, -0.06021678447723389, 0.06736031919717789, 0.05342660844326019, -0.0577305406332016, -0.019149959087371826, 0.05747578293085098, -0.03751540184020996, -0.0003897473216056824, -0.006752312183380127, -0.026862196624279022, -0.03592511638998985, -0.05050835385918617, 0.025791361927986145, -0.02718188241124153, 0.05558931082487106, 0.02420324832201004, -0.01893853396177292, 0.005581580102443695, -0.01880393549799919, 0.05558136850595474, 0.014834575355052948, 0.04261849820613861, 0.004148118197917938, -0.007976330816745758, 0.006960950791835785, 0.03225112706422806, 0.05924300104379654, -0.06920665502548218, 0.0035720467567443848, 0.0600186362862587, 0.04561367630958557, -0.020170368254184723, -0.028563715517520905, 0.05302855372428894, -0.04810037463903427, 0.020161151885986328, -0.027452275156974792, 9.469687938690186e-06, -0.0661451444029808, 0.04390767216682434, 0.06403588503599167, -0.01996242254972458, -0.06795956194400787, 0.025280185043811798, 0.014541193842887878, 0.04227690398693085, -0.0026363879442214966, -0.014594852924346924, -0.014852851629257202, 0.027913421392440796, -0.024795185774564743, 0.0415160208940506, -0.048160769045352936, 0.02112439274787903, -0.04454450309276581, -0.0667712613940239, -0.018709339201450348, 0.06765232235193253, -0.060892775654792786, -0.00043942034244537354, 0.050279244780540466, -0.0349145382642746, 0.0513308048248291, -0.011778373271226883, 0.06362833827733994, -0.04239930585026741, -0.003416508436203003, -0.009444162249565125, 0.01529337465763092, -0.040863342583179474, -0.03949415683746338, -0.06426200270652771, 0.05234084278345108, 0.04745941609144211, -0.041588738560676575, -0.02736489847302437, -0.003806881606578827, -0.03938410431146622, 0.016561225056648254, -0.06928039342164993, -0.003002673387527466, 0.045880645513534546, 0.014140576124191284, -0.03387344256043434, 0.061213232576847076, -0.03787721320986748, 0.05139140039682388, -0.04749263823032379, -0.01789044961333275, -0.05644211173057556, -0.0371069461107254, 0.04924605041742325, 0.04194464534521103, 0.01881558448076248, 0.019719794392585754, 0.027565494179725647, -0.06926668435335159, 0.05291566997766495, -0.06851571053266525, -0.017820440232753754, -0.020495843142271042, -0.0571502223610878, 0.029336534440517426, 0.037290193140506744, -0.017430651932954788, -0.04751262813806534, -0.038601621985435486, -0.0070034414529800415, 0.01581389456987381, 0.06510374695062637, 0.03440730273723602, -0.006819196045398712, -0.010955248028039932, 0.013935104012489319, 0.024596013128757477, 0.03921406716108322, 0.03655742108821869, -0.06812111288309097, -0.015314601361751556, -0.05063679814338684, -0.01187106966972351, -0.007819350808858871, 0.05473721772432327, -0.02683105319738388, 0.0023489072918891907, 0.04154043644666672, 0.02979881316423416, -0.03886595368385315, 0.022373832762241364, 0.004703201353549957, -0.061019375920295715, 0.014225989580154419, 0.059008486568927765, 0.06261249631643295, -0.0049143582582473755, -0.03554891422390938, 0.012821763753890991, -0.04596412181854248, -0.052327193319797516, -0.0050262510776519775, -0.060628462582826614, 0.04097878932952881, 0.028703950345516205, 0.06009668856859207, 0.03172078728675842, -0.0449487566947937, 0.01579040288925171, 0.050359100103378296, 0.0034643560647964478, -0.03066602349281311, 0.014433249831199646, 0.04524460434913635, -0.06444423645734787, 0.041898213326931, -0.025196701288223267, 0.04170586168766022, -0.01259145513176918, 0.04417040944099426, -0.023022931069135666, 0.050456538796424866, -0.035937681794166565, 0.0036543160676956177, -0.008136466145515442, -0.06224875524640083, -0.051228828728199005, 0.06733144074678421, -0.037226468324661255, -0.04168524593114853, -0.040495581924915314, -0.0073735713958740234, 0.05870320647954941, -0.06354658305644989, 0.040301017463207245, -0.02348361909389496, 0.0018532946705818176, -0.01425020769238472, -0.010828062891960144, -0.05599560961127281, 0.006563685834407806, 0.06310000270605087, -0.05600351095199585, -0.06711816787719727, 0.06890962272882462, -0.02922792360186577, -0.03741201385855675, 0.012938037514686584, -0.06814290583133698, 0.015269316732883453, -0.05953621119260788, -0.014706995338201523, 0.007808998227119446, 0.048051461577415466, 0.007709071040153503, -0.028279509395360947, 0.04546748101711273, -0.05532854422926903, -0.03402454033493996, 0.06447366625070572, -0.04515569657087326, -0.040064528584480286, -0.028766587376594543, 0.00881299376487732, 0.022157959640026093, 0.006936267018318176, -0.002677641808986664, 0.0498654842376709, 0.04470818489789963, -0.02944377437233925, -0.061480093747377396, 0.059240929782390594, 0.06690787523984909, 0.01887671649456024, 0.030634313821792603, 0.0011108070611953735, 0.057392917573451996, 0.017887532711029053, -0.04206029325723648, -0.03904584050178528, 0.01714121550321579, 0.06642762571573257, 0.06064204126596451, -0.03416105732321739, -0.06277384608983994, -0.031703297048807144, 0.0018579959869384766, 0.0017673000693321228, -0.006655268371105194, -0.011054683476686478, -0.055847883224487305, -0.06456912308931351, 0.02851974219083786, 0.06938643008470535, -0.006717413663864136, 0.028500862419605255, -0.026822548359632492, 0.023699358105659485, -0.06724739819765091, -0.03899369388818741, 0.06764335185289383, 0.04631651192903519, -0.04183531925082207, 0.022749729454517365, -0.02359325811266899, -0.010727420449256897, -0.010279588401317596, 0.034663617610931396, 0.04571158438920975, -0.01290079951286316, 0.06176053732633591, 0.005956858396530151, 0.05931534618139267, 0.024713285267353058, 0.01770121604204178, 0.039322055876255035, 0.06846890598535538, 0.029981352388858795, -0.022648390382528305, -0.013979386538267136, -0.04563352093100548, 0.030357539653778076, -0.04388204589486122, 0.035081423819065094, -0.06966876238584518, 0.04197848588228226, 0.012975871562957764, -0.024498991668224335, 0.0034759342670440674, 0.003371983766555786, -0.0555187426507473, 0.01033075898885727, -0.042447399348020554, 0.045703426003456116, 0.04247751832008362, 0.02235802263021469, 0.013381510972976685, 0.0578431561589241, -0.04198224097490311, 0.042980924248695374, 0.00871683657169342, 0.006907477974891663, 0.021654978394508362, 0.007073923945426941, 0.016086876392364502, 0.0433964878320694, -0.005052819848060608, 0.004115968942642212, 0.062476418912410736, 0.025864511728286743, -0.002043098211288452, -0.02419060841202736, 0.060549475252628326, -0.0542960986495018, 0.003695935010910034, 0.0033558085560798645, 0.056597404181957245, -0.010643694549798965, 0.04666665941476822, -0.056639716029167175, 0.005877889692783356, -0.02506372332572937, -0.04326970875263214, -0.04493597894906998, -0.0602671355009079, 0.031356386840343475, -0.03748884052038193, 0.062663234770298, 0.020009823143482208, -0.04431913048028946, -0.061868295073509216, -0.06210237741470337, -0.04432336986064911, 0.003468453884124756, -0.006150200963020325, -0.0046531930565834045, 0.06284398585557938, -0.05559193342924118, 0.02325262874364853, -0.049368515610694885, -0.03905593976378441, 0.021420791745185852, -0.007593829184770584, 0.04178890585899353, 0.019092321395874023, -0.0655515268445015, -0.014870863407850266, 0.018412940204143524, 0.06404609233140945, -0.003612406551837921, -0.03381695970892906, -0.019349057227373123, -0.006273500621318817, 0.024007149040699005, -0.06320691853761673, -0.025635357946157455, -0.030426587909460068, 0.01945987343788147, -0.03601386025547981, 0.032555751502513885, -0.013049043715000153, 0.025790415704250336, -0.06399883329868317, -0.044458284974098206, -0.0246867835521698, 0.001917511224746704, -0.033261872828006744, -0.04496700316667557, 0.06488025933504105, 0.05735389143228531, 0.020378664135932922, 0.0019612014293670654, -0.02489088475704193, 0.001316361129283905, 0.04995068162679672, -0.0025872886180877686, 0.05373210459947586, 0.007718026638031006, -0.006165795028209686, -0.021673928946256638, 0.03703877329826355, 0.05752716213464737, -0.06981823593378067, 0.04350874572992325, -0.0012759491801261902, -0.012468289583921432, 0.049064673483371735, -0.014924176037311554, 0.06498133391141891, 0.03092276304960251, 0.00852133333683014, 0.031219661235809326, 0.0033910125494003296, -0.05702147260308266, -0.022463280707597733, 0.020786188542842865, 0.0609196200966835, 0.03006083518266678, -0.01013471931219101, -0.04030515253543854, -0.03331727534532547, -0.03759181126952171, 0.014679782092571259, -0.06358769536018372, -0.015826720744371414, -0.04929345101118088, -0.01029212400317192, -0.058182213455438614, 0.058015547692775726, 0.06330529600381851, -0.001624777913093567, 0.05660455673933029, 0.04129142314195633, -0.005582280457019806, 0.027189694344997406, -0.06682490557432175, 0.035895295441150665, -0.04300869628787041, 0.01745227724313736, 0.017836079001426697, -0.013082019984722137, -0.06282782554626465, -0.018999505788087845, 0.0563548281788826, -0.018978647887706757, 0.06218794733285904, -0.047534286975860596, -0.008619219064712524, 0.036025531589984894, 0.06445140391588211, 0.063532255589962, 0.03196951001882553, -0.028388611972332, 0.04485626518726349, -0.03808988630771637, 0.06222184747457504, -0.0353308841586113, -0.06321665644645691, 0.04933929443359375, -0.04373638331890106, 0.0024208128452301025, 0.04039487987756729, -0.04599788784980774, 0.014114253222942352, -0.013758506625890732, -0.04561162739992142, 0.011066660284996033, 0.03672067075967789, 0.02446126937866211, 0.024754270911216736, 0.03693631291389465, -0.030375290662050247, -0.036516085267066956, 0.01515170931816101, -0.03558589518070221, 0.033789269626140594, -0.004684947431087494, 0.032479144632816315, -0.005705155432224274, 0.06578738242387772, 0.016447417438030243, 0.015659406781196594, -0.057315099984407425, -0.06349694728851318, 0.061908237636089325, -0.05132526531815529, -0.0636925995349884, 0.042286597192287445, 0.020961038768291473, 0.04885147511959076, -0.009952425956726074, -0.033277325332164764, -0.04722839593887329, 0.03424966335296631, 0.025189504027366638, -0.0060730427503585815, 0.03272569179534912, 0.019156478345394135, 0.049613721668720245, -0.047718264162540436, -0.03975106030702591, -0.030597377568483353, 0.03075478971004486, 0.021014340221881866, -0.036299191415309906, 0.0013579577207565308, -0.03409075736999512, -0.03851454704999924, -0.03786100447177887, -0.0351339690387249, -0.057744093239307404, -0.05811288580298424, 0.05849889665842056, -0.06496160477399826, -0.005982711911201477, -0.000836499035358429, -0.016635742038488388, 0.03202284872531891, -0.014620255678892136, -0.06663841009140015, 0.03267984837293625, 0.0636177733540535, 0.03630116581916809, -0.04513431340456009, -0.021441776305437088, -0.023745674639940262, 0.05998832732439041, -0.026137955486774445, 0.012516170740127563, -0.010600555688142776, 0.06991956382989883, 0.03194360435009003, -0.06369125843048096, 0.05889678746461868, 0.06345527619123459, 0.06481585651636124, 0.053287945687770844, 0.03835903853178024, -0.05862951651215553, -0.02600937709212303, -0.02044248953461647, -0.011477861553430557, -0.03456789627671242, 0.048832207918167114, -0.03196433186531067, -0.025453682988882065, -0.05863330513238907, -0.04130212217569351, 0.047036997973918915, -0.03554503992199898, -0.031249698251485825, -0.043219681829214096, -0.043976590037345886, 0.005367152392864227, -0.0684547871351242, -0.006165564060211182, -0.013585895299911499, 0.045466236770153046, -0.03371882438659668, -0.06336593627929688, -0.038352224975824356, -0.05402681231498718, -0.024218305945396423, -0.02257421240210533, -0.04560812935233116, 0.03588534891605377, 0.034366607666015625, 0.010984532535076141, 0.01343315839767456, -0.03652248904109001, 0.06583397835493088, -0.0044912248849868774, -0.06438679993152618, 0.05550991743803024, -0.01576569303870201, 0.020220398902893066, -0.004052251577377319, -0.006453201174736023, 0.06312022358179092, -0.02162287011742592, -0.04048997163772583, -0.018635451793670654, -0.003997594118118286, -0.03734777495265007, 0.017926447093486786, -0.029438484460115433, 0.04819856584072113, -0.02576345205307007, 0.006013453006744385, 0.028704248368740082, 0.017333708703517914, 0.04802817106246948, -0.0070133209228515625, 0.021534286439418793, 0.001163393259048462, 0.004689902067184448, -0.025458235293626785, -0.04824969172477722, 0.023592203855514526, -0.005553796887397766, 0.028697557747364044, 0.0009334608912467957, -0.008166953921318054, 0.01723340153694153, 0.06992604583501816, 0.03915673494338989, 0.05126465857028961, 0.03107982873916626, -0.027406085282564163, -0.014019463211297989, 0.039924636483192444, 0.05039165914058685, 0.06518848985433578, -0.049171820282936096, 0.005762703716754913, -0.06841994822025299, -0.013301476836204529, 0.016880027949810028, 0.023761451244354248, -0.023473884910345078, 0.06694858521223068, 0.017899073660373688, -0.012729834765195847, 0.041807450354099274, 0.06206909567117691, -0.06848539412021637, 0.023079149425029755, 0.05715378373861313, 0.04124049097299576, -0.011180609464645386, -0.047134578227996826, 0.059593893587589264, 0.0666404590010643, 0.007717527449131012, -0.01568244770169258, -0.047122444957494736, 0.04715611785650253, 0.058427594602108, -0.008278589695692062, 0.03943398594856262, -0.05542958527803421, 0.007837310433387756, 0.06867366284132004, -0.009965740144252777, 0.01619434356689453, 0.04528036713600159, -0.011956054717302322, -0.014056876301765442, -0.044030822813510895, 0.0428285151720047, 0.02743387222290039, 0.057351551949977875, 0.021897487342357635, 0.0637919083237648, -0.030063971877098083, 0.022785350680351257, -0.04960313066840172, -0.056992609053850174, -0.04462939500808716, -0.06507939845323563, 0.024708010256290436, -0.03355804458260536, 0.05317377299070358, -0.05886194109916687, -0.056261077523231506, -0.03531244024634361, -0.05321091413497925, 0.06584056466817856, -0.06374918669462204, 0.01860497146844864, -0.012832380831241608, 0.05171162635087967, 0.040574878454208374, -0.0038448795676231384, 0.06973207741975784, -0.04554295912384987, 0.06199794262647629, -0.031160563230514526, -0.030481569468975067, 0.05776376277208328, 0.06990190595388412, 0.0022106394171714783, 0.037099435925483704, 0.04540637135505676, 0.06789007037878036, -0.04995571821928024, -0.012404713779687881, 0.0070182159543037415, 0.020758822560310364, -0.040543023496866226, -0.012499812990427017, 0.01806965470314026, -0.0621749609708786, 0.011465281248092651, 0.018165796995162964, -0.0079115629196167, -0.05663508176803589, -0.05112632364034653, 0.014338001608848572, 0.036900594830513, 0.00019405782222747803, 0.028395481407642365, -0.050771862268447876, -0.002345137298107147, -0.06533898413181305, 0.05014019459486008, -0.05902969464659691, -0.05765962228178978, -0.05989529937505722, -0.05291301757097244, 0.02686980366706848, 0.058741919696331024, -0.021753117442131042, 0.04967179894447327, -0.04918569326400757, 0.023862577974796295, -0.04234040528535843, -0.029777277261018753, 0.05768490582704544, 0.043955594301223755, 0.06320161372423172, -0.007119409739971161, 0.016291625797748566, 0.019169114530086517, 0.04565511643886566, -0.06391426920890808, 0.028416365385055542, -0.04392048344016075, -0.06484179943799973, 0.031983911991119385, 0.027627743780612946, -0.05835229158401489, 0.036834076046943665, 0.013812191784381866, -0.0232807956635952, 0.0465419664978981, 0.015631437301635742, -0.05047085881233215, 0.01657404750585556, 0.015056274831295013, 0.008860349655151367, -0.036317452788352966, 0.015698499977588654, -0.034381043165922165, 0.011322811245918274, 0.06600511819124222, -0.050443075597286224, -0.06928186118602753, -0.014462806284427643, -0.019529882818460464, -0.030441567301750183, -0.01012878492474556, -0.014022238552570343, -0.05051952600479126, 0.04199899733066559, -0.045794710516929626, 0.06747182458639145, -0.05917946249246597, -0.018848586827516556, 0.06870103627443314, 0.009729571640491486, -0.05425547435879707, -0.06762644648551941, 0.02889201045036316, 0.008467093110084534, 0.036130622029304504, -0.014831297099590302, -0.010311029851436615, -0.04894976317882538, -0.028012897819280624, 0.06288377195596695, -0.06189747154712677, -0.00932086631655693, -0.02079450711607933, -0.027091659605503082, -0.056178368628025055, 0.0377810075879097, -0.052203960716724396, -0.051952753216028214, 0.005161210894584656, 0.04565909504890442, 0.035559408366680145, 0.01527528464794159, 0.05435316264629364, -0.06300941109657288, 0.0662473812699318, -0.047260675579309464, 0.05934616178274155, -0.03659934177994728, -0.054608121514320374, 0.02526310831308365, -0.005134500563144684, -0.000831112265586853, -0.04094265401363373, 0.06348612159490585, 0.018886566162109375, -0.05893575772643089, -0.00731319934129715, -0.04340485483407974, 0.05256839841604233, 0.047106705605983734, 0.050605691969394684, 0.05841744691133499, 0.05045162886381149, -4.797428846359253e-05, -0.06606241315603256, 0.025504454970359802, 0.06553123146295547, 0.06842147558927536, 0.04899372160434723, 0.03745390474796295, -0.040675535798072815, 0.04649771749973297, 0.05082608759403229, 0.01816672831773758, 0.012858830392360687, -0.017451945692300797, 0.014270752668380737, -0.03864133358001709, -0.008491028100252151, -0.02212899550795555, -0.026645883917808533, -0.03052292764186859, -0.06926023960113525, 0.010272771120071411, 0.050292789936065674, -0.023382902145385742, 0.014829210937023163, 0.04544792324304581, -0.013681665062904358, -0.033742357045412064, 0.02642510086297989, 0.026437878608703613, -0.06767125427722931, 0.0664677545428276, -0.04427197203040123, -0.03617023304104805, 0.0460112988948822, 0.018579795956611633, -0.004229582846164703, -0.03468222916126251, 0.05850500613451004, 0.01434876024723053, 0.0288730189204216, 0.021358013153076172, -0.04969353973865509, 0.038748569786548615, -0.01256198063492775, -0.053350549191236496, 0.010313786566257477, 0.01820329576730728, -0.030273981392383575, -0.04970135539770126, 0.014079414308071136, 0.05844270437955856, 0.027562938630580902, -0.025945227593183517, 0.025722108781337738, -0.017777003347873688, -0.02443452551960945, -0.030659768730401993, 0.013559021055698395, 0.014156095683574677, 0.061397381126880646, 0.003465898334980011, -0.06346680968999863, -0.04204566776752472, 0.025243058800697327, 0.043175630271434784, -0.04590144008398056, -0.0659380629658699, -0.004463888704776764, -0.02574649080634117, -0.013472195714712143, -0.05844999477267265, -0.011046569794416428, 0.05721277743577957, -0.04418138414621353, 0.0013863369822502136, 0.004568666219711304, 0.05345539748668671, 0.0421580895781517, 0.050774410367012024, -0.037995580583810806, 0.0687151774764061, 0.06401533633470535, -0.053766898810863495, 0.015193380415439606, 0.024229519069194794, 0.05916164070367813, 0.04464227706193924, 0.04033011198043823, -0.03499573841691017, -0.041309233754873276, 0.057781122624874115, -0.029387235641479492, 0.04229512810707092, -0.036504264920949936, -0.014679651707410812, -0.005773551762104034, 0.05076175928115845, -0.017911124974489212, 0.02884434163570404, -0.020378686487674713, 0.05840709060430527, 0.05925389379262924, 0.007423602044582367, 0.05676976591348648, 0.06191583722829819, 0.033133745193481445, 0.03723742812871933, -0.008160114288330078, 0.0030135363340377808, 0.056352995336055756, 0.04660675674676895, 0.0048841387033462524, 0.018233105540275574, 0.05185539275407791, -0.0662519559264183, -0.02080295979976654, -0.04511716961860657, 0.01718919724225998, -0.05316820740699768, 0.0450197234749794, -0.003081798553466797, -0.06805527955293655, 0.04333847016096115, 0.015265002846717834, -0.010867021977901459, 0.00792238861322403, 0.028528697788715363, 0.0020717233419418335, 0.016006775200366974, 0.044412873685359955, 0.05162081867456436, -0.04006576165556908, -0.06635159254074097, -0.01480383425951004, -0.030008111149072647, 0.0006413683295249939, -0.04819139465689659, 0.043030284345149994, 0.04274667799472809, -0.042418841272592545, 0.009073257446289062, 0.02392444759607315, -0.06596794724464417, 0.004397839307785034, 0.042060285806655884, 0.016811788082122803, -0.05195165425539017, 0.06488514691591263, 0.057405807077884674, -0.053616009652614594, 0.014650367200374603, -0.04215952754020691, -0.021606232970952988, 0.01870877295732498, 0.04605567455291748, 0.051588527858257294, -0.05178970843553543, -0.026715300977230072, -0.010876081883907318, 0.04102484881877899, -0.03425244614481926, 0.014280281960964203, -0.035361699759960175, -0.011923685669898987, -0.017642643302679062, 0.030829958617687225, -0.0014291182160377502, 0.006824880838394165, 0.034343212842941284, -0.0069509148597717285, -0.055719465017318726, 0.029210321605205536, 0.050876326858997345, 0.023771271109580994, -0.0463859960436821, -0.019278574734926224, 0.0670066699385643, -0.053700681775808334, 0.0467514768242836, -0.02560453489422798, -0.051416415721178055, -0.010953877121210098, -0.054647766053676605, -0.052328646183013916, -0.042845193296670914, -0.04815739020705223, -0.04999864473938942, -0.04027252271771431, -0.06901071965694427, -0.02909974753856659, -0.01645532250404358, -0.04612662270665169, -0.01604168862104416, -0.02420053258538246, 0.01327599585056305, -0.06203611195087433, -0.04635654389858246, -0.01604723557829857, -0.03776649758219719, 0.006048351526260376, 0.05240239202976227, -0.01969648152589798, 0.058357931673526764, -0.05411508306860924, 0.0016881674528121948, -0.005781427025794983, -0.015849512070417404, -0.05543678626418114, -0.057104695588350296, -0.007774271070957184, -0.061986736953258514, -0.004150897264480591, 0.01861432194709778, -0.038226328790187836, 0.06543564051389694, -0.05452083796262741, 0.06385178118944168, -0.026169229298830032, -0.0629916712641716, 0.03440038114786148, 0.022286206483840942, -0.06332854926586151, 0.04930266737937927, -0.029441997408866882, 0.009651847183704376, 0.029064714908599854, -0.03771520406007767, -0.027938898652791977, -0.029669947922229767, 0.03461708128452301, 0.006714552640914917, -0.02891562506556511, 0.04804100841283798, -0.06755135953426361, 0.06486641615629196, -0.019995924085378647, 0.03717219829559326, -0.043802112340927124, -0.018611226230859756, 0.010497704148292542, 0.006111949682235718, -0.027864977717399597, -0.02533382922410965, 0.05547221750020981, -0.0252348855137825, -0.029422692954540253, -0.0008673369884490967, -0.034729938954114914, 0.06839590519666672, -0.0007557719945907593, -0.048691898584365845, -0.02659868821501732, -0.05759425088763237, 0.024440228939056396, -0.05411984771490097, -0.062103770673274994, 0.03824419528245926, 0.02460239827632904, 0.0642584040760994, -0.001708589494228363, -0.05346284061670303, -0.007642529904842377, -0.0617743544280529, 0.05172868072986603, -0.06617645919322968, 0.04523544758558273, 0.018929868936538696, 0.002957873046398163, 0.000961698591709137, -0.01841621845960617, -0.009431373327970505, 0.04318830370903015, 0.04002927988767624, 0.04853273928165436, 0.03139263391494751, -0.021310094743967056, 0.0036887824535369873, -0.012991100549697876, -0.051219068467617035, 0.05068477243185043, 0.04127843677997589, -0.011174384504556656, -0.03961579501628876, -0.06584801524877548, 0.03338286280632019, 0.030830509960651398, 0.00831768661737442, -0.03707844018936157, 0.005169205367565155, -0.05696484073996544, 0.03127434849739075, 0.037402406334877014, -0.06117236986756325, -0.020675353705883026, -0.03875785693526268, -0.013642001897096634, 0.017370522022247314, 0.06778685003519058, -0.044554926455020905, -0.01516781747341156, -0.06684259325265884, -0.008278436958789825, 0.017379581928253174, 0.032139502465724945, -0.04475964233279228, -0.057771049439907074, 0.042871564626693726, -0.010543782263994217, -0.03537334129214287, 0.059820301830768585, -0.01012173667550087, 0.030983977019786835, -0.06947397440671921, -0.01888522133231163, 0.00527963787317276, 0.06563685089349747, -0.02716854214668274, -0.06543190777301788, -0.0324576273560524, -0.05278002470731735, 0.0515294075012207, 0.0593649223446846, 0.02781778573989868, 0.02080690860748291, 0.005057930946350098, -0.054061345756053925, 0.011058889329433441, -0.023053854703903198, 0.03129664063453674, -0.02787773311138153, 0.034779928624629974, -0.0527249276638031, -0.013530883938074112, 0.0002919808030128479, -0.05031844228506088, 0.06431401520967484, 0.03775209188461304, 0.045425720512866974, 0.007600821554660797, -0.02227048948407173, 0.011813394725322723, -0.06610472500324249, 0.05076616257429123, 0.003950648009777069, 0.04843028634786606, -0.06527434289455414, 0.0540979728102684, 0.06348405033349991, -0.061066173017024994, -0.03857405483722687, -0.05587472394108772, 0.0122428759932518, 0.027094751596450806, 0.00755174458026886, 0.03459876775741577, -0.03838958218693733, 0.004535287618637085, 0.05243339389562607, 0.06842785328626633, 0.05886160582304001, -0.06461358815431595, -0.010292276740074158, -0.024574115872383118, 0.021183252334594727, -0.005585826933383942, 0.0021018385887145996, -0.04011840373277664, 0.028657779097557068, -0.049535300582647324, -0.003676801919937134, 0.009363852441310883, 0.05819178372621536, 0.0482763797044754, 0.016024142503738403, 0.01489364355802536, -0.023401200771331787, 0.04811006039381027, -0.05191555619239807, 0.06952039152383804, -0.008497290313243866, 0.05728498846292496, -0.03294777870178223, 0.009992226958274841, 0.05111031234264374, 0.03257626295089722, -0.024204492568969727, 0.06290728598833084, 0.04731602966785431, -0.012565281242132187, 0.03235030174255371, 0.029976993799209595, -0.0045067667961120605, 0.050928451120853424, 0.04527238756418228, 0.01681838184595108, -0.039566487073898315, 0.03763274848461151, -0.02289053052663803, -0.011884290724992752, 0.04633762687444687, -0.0076471492648124695, 0.02502569556236267, 0.005004964768886566, 0.013829320669174194, -0.01797373592853546, -0.0004797130823135376, 0.01506119966506958, 0.010643936693668365, -0.010397225618362427, -0.0428493358194828, 0.0656510666012764, -0.021873999387025833, 0.01634123921394348, 0.0273873433470726, -0.04706427827477455, 0.033491745591163635, -0.04262210428714752, 0.027309730648994446, -0.030023805797100067, -0.02662568911910057, 0.04461930692195892, 0.03476240485906601, 0.043131835758686066, 0.0018667429685592651, -0.020898159593343735, -0.05656836926937103, 0.043871231377124786, 0.043381206691265106, 0.020656317472457886, -0.01515766978263855, -0.06723763048648834, -0.024507585912942886, 0.0012956485152244568, 0.015671782195568085, 0.006308913230895996, -0.023229114711284637, -0.04001850634813309, -0.00808422639966011, -0.05527937784790993, 0.06555461138486862, -0.009920161217451096, 0.04667899012565613, -0.029451236128807068, -0.014423996210098267, 0.03919169306755066, 0.03290142863988876, 0.007544025778770447, -0.00446639209985733, 0.0007799938321113586, 0.04264635592699051, -0.03052842989563942, -0.06250718235969543, -0.037250857800245285, 0.013809926807880402, 0.03771977871656418, -0.02205481380224228, 0.06464733928442001, 0.0384511798620224, -0.014244448393583298, 0.05081235617399216, -0.0515843890607357, -0.023606106638908386, 0.04748671501874924, 0.03295004367828369, 0.06664740294218063, 0.05074039846658707, -0.06950362026691437, 0.06064761430025101, -0.0035002529621124268, 0.0637756809592247, -0.01856471225619316, 0.031025737524032593, 0.05743951350450516, 0.005922131240367889, -0.029267948120832443, -0.06621044129133224, 0.031071938574314117, -0.01607421785593033, 0.0155644491314888, 0.006557062268257141, 0.057409293949604034, -0.0019564181566238403, 1.4156103134155273e-06, -0.04453657567501068, 0.050699785351753235, 0.028298906981945038, 0.05464912950992584, -0.038119781762361526, -0.025949865579605103, 0.05482025444507599, -0.014513742178678513, -0.05427631735801697, -0.00020816922187805176, -0.012763071805238724, -0.028219163417816162, -0.023144055157899857, -0.06189441308379173, -0.03541134297847748, -0.06494604796171188, 0.031031064689159393, -0.014044046401977539, -0.02629702165722847, 0.06312710791826248, -0.02759113907814026, -0.04767533391714096, -0.038068365305662155, 0.06365885585546494, -0.02148423343896866, -0.028848275542259216, -0.015247758477926254, -0.046649135649204254, -0.04482412338256836, -0.041834063827991486, -0.06374029815196991, 0.0018293783068656921, -0.04559192806482315, 0.015558652579784393, -0.06156152859330177, -0.040827427059412, -0.02100113406777382, 0.021367602050304413, -0.06634348630905151, -0.0037329643964767456, 0.01911746710538864, -0.0015236511826515198, 0.05024737864732742, -0.0015178397297859192, 0.04009634256362915, 0.01411522924900055, 0.008563168346881866, -0.006592147052288055, -0.05117303878068924, 0.06861279159784317, 0.021329469978809357, -0.008792024105787277, 0.05557788163423538, 0.025521598756313324, -0.019146472215652466, -0.03600411117076874, -0.015181314200162888, -0.018371056765317917, 0.06957405060529709, 0.06778518110513687, 0.04987040162086487, -0.032730598002672195, 0.06603182107210159, 0.003861531615257263, -0.06279998272657394, 0.00455726683139801, 0.05139189958572388, -0.015126243233680725, 0.05711928755044937, -0.04560142755508423, -0.02332228422164917, -0.032388925552368164, -0.024341318756341934, 0.02753385901451111, 0.053323954343795776, 0.03070366382598877, 0.0686267539858818, 0.0019602179527282715, -0.037733208388090134, 0.06119867414236069, -0.05994744598865509, -0.06602822244167328, -0.047461844980716705, 0.04730095714330673, -0.06419477611780167, -0.06880610436201096, -0.006831169128417969, -0.041087254881858826, 0.04044336825609207, 0.05603037029504776, 0.06282573193311691, 0.0685039535164833, -0.018565796315670013, -0.013178650289773941, -0.04789812117815018, 0.061766572296619415, 0.01788531243801117, -0.04981881380081177, -0.029953423887491226, -0.06500617414712906, -0.0012113526463508606, -0.05178297311067581, -0.04382758587598801, 0.004255659878253937, 0.026936180889606476, -0.00818302109837532, 0.01904875785112381, 0.0013448894023895264, -0.020119808614253998, -0.010034609586000443, -0.04461103677749634, -0.03677523881196976, -0.050297074019908905, 0.0044122114777565, 0.03080468624830246, -0.022617176175117493, -0.029197964817285538, 0.011094644665718079, -0.0015249475836753845, -0.030404437333345413, 0.020413458347320557, 0.04817959666252136, -0.0633104145526886, -0.03074287623167038, -0.01616676151752472, -0.0171741284430027, -0.014525294303894043, 0.03997693955898285, -0.057505518198013306, 0.060737065970897675, 0.010903112590312958, -0.06704379618167877, 0.0236746147274971, -0.06643407791852951, -0.032694023102521896, 0.051059454679489136, 0.05254029482603073, 0.012984216213226318, -0.00666462630033493, 0.006332099437713623, 0.060862503945827484, 0.04042978584766388, 0.03660055249929428, 0.006575226783752441, 0.026662632822990417, -0.03792065009474754, 0.058408431708812714, -0.02026817947626114, -0.06353263556957245, 0.019207224249839783, -0.059587277472019196, -0.012852393090724945, -0.05112961679697037, 0.008393995463848114, 0.023991338908672333, 0.023567259311676025, 0.00402088463306427, -0.005355328321456909, 0.0012882053852081299, -0.047926176339387894, -0.04704216867685318, -0.06331838667392731, -0.004605479538440704, 0.01152985543012619, -0.013877816498279572, 0.029623083770275116, -0.049524515867233276, -0.062455371022224426, 0.02724788337945938, -0.010751757770776749, -0.022083017975091934, 0.0339183509349823, 0.01078265905380249, 0.034029364585876465, 0.048477157950401306, 0.045843884348869324, 0.053978703916072845, 0.007942616939544678, 0.06777375191450119, -0.05204809829592705, 0.04978720098733902, 0.06580058485269547, -0.0696476623415947, 0.042193375527858734, -0.06509608030319214, 0.05967835336923599, 0.013279229402542114, 0.011902019381523132, 0.005782902240753174, 0.029753483831882477, 0.06702906638383865, 0.05076824873685837, -0.005548432469367981, 0.055802009999752045, 0.061730243265628815, -0.009854137897491455, 0.05845623463392258, -0.06724761426448822, 0.04645457863807678, -0.03530106320977211, 0.028600260615348816, 0.006930559873580933, 0.023362331092357635, -0.024108435958623886, -0.01826959103345871, -0.021031860262155533, 0.022100791335105896, 0.042993925511837006, 0.0197494775056839, -0.007352001965045929, -0.0020237937569618225, -0.013721421360969543, -0.04002455249428749, -0.0672377496957779, 0.054790809750556946, -0.02676737681031227, 0.055737532675266266, -0.027993880212306976, -0.0358797051012516, -0.05887563154101372, -0.021335728466510773, -0.0180065855383873, 0.019238919019699097, -0.034120719879865646, 0.031238600611686707, -0.051193561404943466, 0.02181059867143631, -0.0338842049241066, 0.05264917016029358, -0.008471086621284485, 0.03199170529842377, -0.01688191294670105, -0.04434409737586975, 4.617869853973389e-05, 0.06277037411928177, -0.028977446258068085, -0.018957093358039856, -0.06440990418195724, -0.06031453236937523, 0.05931020528078079, -0.04128533974289894, 0.053527675569057465, -0.05581337958574295, 0.01389121264219284, 0.023396477103233337, -0.005903571844100952, -0.004636421799659729, 0.005992040038108826, 0.059345416724681854, -0.012530490756034851, -0.042185910046100616, 0.06801394373178482, -0.058559682220220566, -0.05564721301198006, -0.06749122589826584, -0.034147851169109344, -0.05761668458580971, -0.006461702287197113, 0.049779899418354034, -0.042915381491184235, -0.055361561477184296, -0.001246429979801178, -0.030119433999061584, -0.0028604939579963684, -0.05013439804315567, 0.05003282427787781, -0.051505714654922485, -0.06791312247514725, -0.016719859093427658, 0.022712454199790955, 0.059686921536922455, 0.03356357663869858, -0.0001707524061203003, -0.04280136898159981, 0.028266876935958862, 0.03697637468576431, -0.059353332966566086, 0.04202724248170853, -0.03423365205526352, 0.04265555739402771, -0.0207529254257679, -0.036533843725919724, 0.0010057836771011353, -0.06744503974914551, 0.05963063985109329, -0.06755117326974869, -0.02193748578429222, 0.045666761696338654, -0.039454441517591476, -0.04748775064945221, 0.035649374127388, -0.0674196407198906, -0.026894040405750275, -0.05885559320449829, -0.04049210995435715, 0.047029390931129456, 0.03706597536802292, -0.010370362550020218, -0.01673060655593872, 0.06556008011102676, -0.014708451926708221, -0.002707540988922119, -0.006317444145679474, -0.0015871822834014893, -0.03360317274928093, -0.06073426082730293, 0.009484872221946716, 0.05847323685884476, -0.03794987499713898, -0.029142849147319794, -0.044117264449596405, -0.007795795798301697, -0.013328835368156433, 0.06333743780851364, -0.02689775824546814, -0.005258515477180481, -0.00407487154006958, 0.0652305856347084, -0.0022596046328544617, -0.026368383318185806, 0.038600318133831024, -0.04874567687511444, -0.014436554163694382, -0.025817502290010452, 0.02099575102329254, 0.046944305300712585, 0.024318233132362366, 0.0641334280371666, -0.05738668516278267, 0.048384495079517365, 0.033090077340602875, -0.027456805109977722, 0.06488772481679916, 0.050026990473270416, -0.012451447546482086, -0.0018537342548370361, 0.055794037878513336, -0.034577254205942154, 0.052443183958530426, 0.03175544738769531, -0.06738892942667007, 0.058800630271434784, -0.0005515515804290771, 0.049679286777973175, -0.01670454442501068, 0.016586966812610626, -0.048616111278533936, -0.04376618564128876, -0.0680031105875969, 0.0013129711151123047, 0.0513681098818779, -0.04202357679605484, -0.012463580816984177, -0.05517636612057686, 0.04734963923692703, -0.028973694890737534, -0.03881722688674927, -0.011520534753799438, -0.02475442737340927, 0.06034325808286667, 0.05242181569337845, 0.057866357266902924, 0.0189947709441185, -0.06191731244325638, 0.002411887049674988, 0.0003153979778289795, 0.052825748920440674, 0.026018783450126648, -0.0018197521567344666, -0.009950477629899979, 0.029655076563358307, -0.04724537953734398, -0.050471231341362, 0.025054678320884705, 0.04845190793275833, 0.005313873291015625, -0.06749999523162842, 0.02710898220539093, 0.05373860150575638, 0.04658644646406174, -0.0288534052670002, 0.05822198837995529, -0.06326225399971008, 0.0342072919011116, -0.006738252937793732, -0.03152576833963394, 0.062332071363925934, 0.004190564155578613, 0.03390083461999893, 0.04123133420944214, 0.027128756046295166, -0.0073482319712638855, 0.032676368951797485, -0.02286006137728691, 0.023198850452899933, 0.021709293127059937, -0.061414819210767746, -0.06476021558046341, -0.04280979931354523, -0.040540661662817, -0.022997457534074783, 0.06470345705747604, -0.0006120577454566956, -0.011088106781244278, 0.05544387549161911, 0.06861499696969986, 0.015391342341899872, 0.03806515783071518, 0.013261258602142334, -0.02609729766845703, 0.04049782454967499, -0.06268378347158432, 0.02700907737016678, 0.06038609892129898, 0.06198117882013321, -0.01568378508090973, 0.021172411739826202, -0.024703238159418106, -0.011979930102825165, 0.019479475915431976, 0.049153611063957214, -0.010776244103908539, -0.011104188859462738, 0.06449157744646072, -0.06035228073596954, 0.05965449661016464, 0.02536599338054657, 0.022107243537902832, 0.055528588593006134, -0.05897513031959534, -0.0652419775724411, -0.03296409174799919, -0.028769243508577347, 0.05564924329519272, 0.015807993710041046, -0.04349441081285477, 0.04384402185678482, 0.04562545567750931, 0.06881105154752731, 0.03602368384599686, -0.03890995681285858, -0.024482637643814087, 0.026604898273944855, -0.0037050172686576843, 0.029324635863304138, 0.04429459571838379, -0.035286303609609604, -0.06424597650766373, -0.015566177666187286, 0.06798561662435532, -0.04259942099452019, 0.008196517825126648, -0.00620676577091217, -0.019801799207925797, -0.012179944664239883, -0.005794413387775421, -0.06988400965929031, 0.04896368086338043, -0.048423539847135544, 0.008822329342365265, -0.02031002938747406, 0.060384757816791534, 0.06585633009672165, 0.05854172259569168, 0.04389098286628723, -0.004499070346355438, 0.050005458295345306, -0.059942882508039474, 0.014762364327907562, -0.005366496741771698, 0.0647500529885292, -0.0175173357129097, 0.0603942945599556, 0.021397076547145844, 0.0050772204995155334, -0.046929068863391876, 0.03342688828706741, -0.01809747889637947, 0.06708265095949173, 0.008957259356975555, 0.017476707696914673, -0.05534021183848381, -0.009109735488891602, 0.06081844121217728, 0.058126769959926605, -0.008522417396306992, 0.01842852681875229, -0.06851858645677567, 0.004037745296955109, -0.029873128980398178, 0.00035022199153900146, 0.06831016391515732, -0.06395810097455978, -0.06729426234960556, 0.005926653742790222, 0.018122144043445587, 0.0542406290769577, 0.023444920778274536, 0.03824586421251297, 0.03145613521337509, -0.03696856275200844, -0.06391239911317825, -0.0067621320486068726, -0.038054607808589935, 0.00982309877872467, -0.04147077351808548, 0.03206196427345276, -0.01356741413474083, -0.05021771788597107, -0.009994100779294968, -0.05996611714363098, 0.0060330405831336975, -0.006783761084079742, 0.00972159206867218, 0.04240249842405319, 0.04235833138227463, -0.04264427721500397, -0.028611112385988235, -0.02814330905675888, 0.03458641469478607, -0.007705729454755783, 0.060234613716602325, -0.0648045539855957, 0.06551215797662735, -0.01377030462026596, -0.017971917986869812, 0.054824478924274445, -0.044353634119033813, -0.00809020921587944, -0.019232600927352905, 0.029065243899822235, -0.03533511981368065, -0.034790974110364914, 0.0650176927447319, -0.014513812959194183, -0.035807788372039795, -0.04963464289903641, 0.0023256316781044006, 0.0033744946122169495, 0.04039973020553589, 0.061322130262851715, -0.025483589619398117, 0.020162761211395264, 0.005853757262229919, 0.020544379949569702, -0.04308939352631569, 0.032019518315792084, 0.02844788134098053, 0.01452135294675827, 0.02720622718334198, 0.016579054296016693, -0.06545481830835342, 0.03709373623132706, -0.03317764401435852, -0.05670640617609024, -0.00860583409667015, 0.001486271619796753, 0.02846958488225937, -0.020695511251688004, 0.05216343700885773, -0.06333114206790924, 0.06714393943548203, 0.009312637150287628, 0.03204115480184555, -0.004720680415630341, -0.05000102519989014, 0.002559579908847809, -0.0002498328685760498, -0.04345165938138962, -0.045449502766132355, -0.04592186212539673, 0.019062422215938568, -0.062358319759368896, 0.06804392486810684, -0.036046821624040604, -0.03948422521352768, -0.06872054934501648, -0.042886845767498016, 0.02011200785636902, -0.03742673620581627, 0.03181810677051544, 0.008004382252693176, -0.04250533878803253, -0.05653282627463341, 0.046790480613708496, 0.05908655375242233, 0.02976960688829422, -0.020096536725759506, 0.00702735036611557, -0.028840892016887665, -0.02649042382836342, -0.006831899285316467, -0.01112806424498558, 0.04732499271631241, -0.06269758939743042, -0.05258123576641083, -0.05838871747255325, -0.041851721704006195, -0.05941291153430939, -0.021044742316007614, -0.04721973091363907, -0.021734971553087234, -0.03095584735274315, -0.057845521718263626, 0.002256922423839569, -0.022288400679826736, -0.05821802839636803, 0.0041368454694747925, -0.013643927872180939, 0.031411878764629364, -0.026029720902442932, -0.028455067425966263, -0.009205259382724762, 0.0522896870970726, 0.02320493757724762, 0.028613470494747162, -0.022764436900615692, -0.04355062544345856, -0.05873936787247658, 0.06301809102296829, 0.06832187622785568, 0.05450087785720825, -6.28158450126648e-05, 0.06128775328397751, 0.05334653705358505, 0.016851112246513367, -0.0644177570939064, 0.028470918536186218, 0.06383740156888962, -0.008011844009160995, -0.01240372285246849, -0.016446318477392197, 0.06945761293172836, -0.0007954388856887817, 0.054478488862514496, -0.049100279808044434, -0.0675392597913742, -0.02782440185546875, 0.0035941600799560547, 0.03382274508476257, 0.03827383369207382, 0.05160454660654068, 0.05485016107559204, 0.06345590204000473, 0.06522425264120102, 0.026696301996707916, -0.05485035479068756, 0.006752192974090576, -0.023899797350168228, -0.006380103528499603, -0.04723188281059265, 0.012430310249328613, -0.05000406503677368, 0.01590825617313385, 0.036768168210983276, 0.03776562958955765, -0.06823375821113586, -0.061751432716846466, 0.02252577245235443, 0.056909941136837006, -0.04133131727576256, 0.06158874183893204, -0.0669989287853241, 0.03647513687610626, 0.0669502392411232, 0.05434800684452057, -0.018981292843818665, -0.024211976677179337, -0.06261621415615082, -0.013101167976856232, 0.006689473986625671, 0.01259911060333252, 0.005225710570812225, -0.02909175306558609, -0.06568694114685059, 0.0413278266787529, 0.05474808067083359, 0.052802249789237976, 0.04589826613664627, 0.06726010888814926, 0.023105621337890625, 0.02546970546245575, 0.008731842041015625, -0.04181564599275589, 0.061620377004146576, -0.0017296597361564636, 0.0384063720703125, -0.00302693247795105, -0.06867597997188568, -0.04657157510519028, 0.03128967434167862, -0.008233733475208282, -0.05025897175073624, 0.028688184916973114, -0.036920759826898575, 0.024007797241210938, 0.057259492576122284, -0.03455838933587074, 0.022728674113750458, -0.005494028329849243, -0.04749210923910141, -0.00405198335647583, 0.06768893450498581, -0.05483131855726242, -0.0539889931678772, -0.000455707311630249, 0.009617231786251068, 0.0390755757689476, 0.06519343703985214, -0.02754843607544899, 0.013930782675743103, 0.05282219499349594, -0.06271311640739441, -0.032855574041604996, 0.02826421707868576, 0.03440038859844208, 0.043764278292655945, -0.041414499282836914, 0.028342127799987793, 0.0030927062034606934, -0.02440262958407402, -0.05591079592704773, -0.024658724665641785, -0.06731297820806503, 0.054191090166568756, 0.023742124438285828, 0.06510896235704422, 0.04421994090080261, 0.051186539232730865, -0.028490133583545685, 0.06180689483880997, 0.031858816742897034, 0.014200538396835327, -0.010537374764680862, -0.014300260692834854, -0.03922473266720772, 0.0579848513007164, -0.0037813708186149597, -0.032815273851156235, 0.04312555491924286, 0.043209269642829895, 0.019631922245025635, 0.03375023603439331, -0.046148814260959625, 0.06647602468729019, -0.039118118584156036, -0.012086961418390274, 0.006606742739677429, -0.041248004883527756, -0.04283759370446205, -0.0011906102299690247, -0.02739834040403366, -0.0625651553273201, -0.05854397267103195, 0.04546414315700531, -0.04312177374958992, -0.06502743810415268, -0.05228124558925629, 0.029277414083480835, -0.03636131435632706, -0.046554598957300186, 0.0646943524479866, -0.002844005823135376, -0.0480317696928978, 0.03566014766693115, -0.05167870223522186, 0.04505534470081329, 0.006757259368896484, 0.05546656996011734, -0.06926190108060837, 0.002922661602497101, -0.06672253459692001, 0.06528269499540329, 0.005801171064376831, 0.040884800255298615, -0.0067252591252326965, 0.032477229833602905, 0.021218977868556976, -0.05852170288562775, -0.023217670619487762, 0.02510547637939453, -0.008373890072107315, 0.025658749043941498, 0.04727764427661896, 0.042340271174907684, -0.05117252469062805, 0.06202401965856552, -0.050280265510082245, 0.05748898535966873, 0.014537230134010315, -0.017175886780023575, -0.024472378194332123, 0.06617305427789688, -0.06356405466794968, 0.05992012470960617, -0.031199980527162552, 0.02997298538684845, 0.024417445063591003, -0.030210178345441818, 0.04066735506057739, -0.03502360358834267, -0.04596558213233948, 0.00906652957201004, 0.02171771228313446, -0.017899252474308014, 0.036098554730415344, -0.05624017491936684, -0.05997474491596222, -0.011524021625518799, -0.005236044526100159, -0.024515300989151, 0.029538512229919434, 0.041462332010269165, 0.014136157929897308, 0.012019194662570953, 0.03299170732498169, -0.014798935502767563, 0.034179821610450745, 0.0034097135066986084, 0.058580927550792694, -0.004121407866477966, -0.062024228274822235, -0.06879523396492004, -0.016677383333444595, 0.03739479184150696, -0.06920228153467178, -0.04544616490602493, -0.02968284860253334, 0.06905599683523178, 0.025379061698913574, 0.004357337951660156, 0.025873981416225433, 0.016563698649406433, 0.05389971286058426, -0.06713653355836868, -0.03876113146543503, 0.0391385480761528, -0.0487462654709816, -0.020377494394779205, 0.009031325578689575, -0.05653037503361702, 0.021157212555408478, -0.06500592827796936, 0.0414455309510231, 