{"block1_conv_2_weights": [-0.006138958036899567, -0.03887500613927841, -0.008815526962280273, -0.04607265815138817, 0.009827546775341034, 0.018908239901065826, -0.035780418664216995, 0.03896836191415787, 0.026110127568244934, 0.022488996386528015, -0.007294908165931702, 0.0034719184041023254, -0.0011797547340393066, -0.033462945371866226, -0.012014903128147125, 0.01582416146993637, 0.06503715366125107, -0.03377735614776611, 0.06352391093969345, 0.0021194741129875183, 0.0691392794251442, -0.0026569515466690063, -0.05708961933851242, -0.02579258382320404, -0.005923904478549957, -0.017622537910938263, -0.05778788775205612, -0.005973495543003082, -0.022421184927225113, -0.037973225116729736, 0.02097272127866745, 0.010779574513435364, 0.007663719356060028, 0.04352668672800064, -0.009544912725687027, 0.05664064735174179, -0.06678936630487442, 0.05959009379148483, 0.05918494611978531, -0.04518554359674454, -0.06592438369989395, -0.03145182505249977, 0.04366634041070938, 0.03358051925897598, -0.03449122607707977, 0.029406212270259857, -0.058455802500247955, 0.004563257098197937, -0.043525002896785736, -0.005269482731819153, -0.003163836896419525, -0.04485923796892166, 0.022035926580429077, 0.06807123869657516, -0.010296501219272614, 0.02341650426387787, 0.06376556307077408, 0.009848281741142273, -0.03217959776520729, -0.050678350031375885, 0.06840350478887558, -0.003540053963661194, -0.05594584718346596, 0.03326435387134552, -0.03968295082449913, 0.016370758414268494, 0.05632879585027695, -0.040546439588069916, -0.06462044268846512, -0.04741666838526726, 0.017291419208049774, 0.06410453468561172, 0.039664022624492645, 0.03474318981170654, -0.004306606948375702, -0.06728862226009369, 0.011814482510089874, 0.027966171503067017, 0.005684077739715576, 0.04110924154520035, 0.0013336241245269775, -0.010143563151359558, 0.0417480543255806, -0.013121496886014938, 0.06176706403493881, -0.04630843922495842, -0.012079387903213501, -0.013087213039398193, 0.021508321166038513, -0.006352908909320831, 0.02696872502565384, 0.026753008365631104, 0.005616739392280579, 0.006328374147415161, -0.017448417842388153, -0.017419390380382538, -0.034592654556035995, -0.04319750517606735, -0.02580571174621582, -0.02363556995987892, 0.00884624570608139, 0.06798741966485977, 0.027533091604709625, 0.0439225509762764, 0.06085512787103653, 0.01844725012779236, -0.02771972492337227, 0.013860829174518585, -0.027168218046426773, 0.0685131773352623, 0.025153011083602905, -0.043464094400405884, -0.014598779380321503, 0.06671742349863052, -0.021174106746912003, 0.010167546570301056, -0.030419237911701202, 0.05689925700426102, 0.017255820333957672, -0.05708327144384384, -0.0014808028936386108, 0.036982424557209015, 0.02313942462205887, 0.04138043522834778, 0.009790986776351929, 0.017787791788578033, -0.008116845041513443, 0.01340503990650177, 0.009580753743648529, -0.01589154452085495, 0.027668364346027374, -0.019858695566654205, -0.008595786988735199, 0.06934193521738052, -0.0477442592382431, -0.012349698692560196, 0.04684758931398392, -0.028210658580064774, 0.057203374803066254, -0.058292780071496964, -0.06252924352884293, -0.03765784204006195, 0.019656941294670105, 0.0687192752957344, 1.169741153717041e-06, 0.043284542858600616, 0.0061891451478004456, -0.039060257375240326, 0.06588124483823776, 0.0644439235329628, 0.021477527916431427, 0.008787810802459717, 0.05047474801540375, -0.0594719834625721, -0.002298027276992798, 0.043170712888240814, 0.010191135108470917, -0.04043472185730934, -0.014433998614549637, -0.020765680819749832, 0.017490319907665253, -0.05233456939458847, 0.04622633010149002, -0.017301272600889206, 0.010872803628444672, -0.06919708847999573, -0.06969001144170761, -0.02218620851635933, -0.05788640305399895, -0.038361627608537674, 0.059735558927059174, 0.030813664197921753, -0.013653852045536041, -0.01888227090239525, -0.014227792620658875, -0.048768166452646255, -0.02364543080329895, 0.023891866207122803, -0.018775347620248795, -0.05001979321241379, -0.018150851130485535, 0.04109979420900345, 0.018813177943229675, -0.00846981629729271, 0.025607936084270477, 0.02241690456867218, 0.04214783012866974, 0.026171669363975525, 0.011755034327507019, -0.03493255004286766, 0.03236217796802521, -0.00606856495141983, -0.05106945335865021, 0.062124721705913544, -0.0561007522046566, -0.05195032060146332, 0.01879836618900299, 0.021435163915157318, -0.022678930312395096, 0.004643142223358154, -0.012244559824466705, -0.03073783963918686, -0.056535884737968445, 0.025036968290805817, 0.009227678179740906, -0.055673182010650635, 0.02159726619720459, 0.011200584471225739, -0.039582207798957825, -0.008855383843183517, 0.043979376554489136, -0.066191665828228, 0.0004217103123664856, 0.05639677494764328, 0.040199391543865204, -0.00434836745262146, 0.022776082158088684, -0.04124255105853081, -0.007573939859867096, 0.02648526430130005, 0.0456579327583313, 0.0034165754914283752, 0.018572956323623657, 0.00035463273525238037, -0.06336323171854019, -0.0003088265657424927, 0.05267809331417084, 0.010099433362483978, -0.01845729351043701, -0.03372633457183838, 0.01055791974067688, 0.0065039098262786865, -0.02646280825138092, 0.04433242976665497, -0.04268166422843933, 0.030426494777202606, 0.03435251861810684, -0.00693010538816452, -0.06165895611047745, -0.004024863243103027, 0.008410640060901642, 0.047167204320430756, -0.031287942081689835, -0.03135313466191292, 0.05893910676240921, -0.044736772775650024, 0.02197612076997757, 0.029315218329429626, 0.06355879455804825, 0.061432547867298126, -0.061074309051036835, -0.06551885604858398, -0.03342403098940849, -0.039855509996414185, 0.006788194179534912, 0.022677578032016754, -0.06736943125724792, 0.0563637837767601, -0.06156843528151512, 0.03509606420993805, 0.06837233155965805, 0.011459052562713623, -0.05454748123884201, -0.04234287515282631, -0.06743963807821274, -0.0075411684811115265, -0.02889401838183403, 0.05836058408021927, 0.0103764608502388, 0.004682794213294983, -0.0023702234029769897, -0.053272128105163574, 0.05453280359506607, -0.020485449582338333, -0.058506712317466736, 0.034528397023677826, 0.04203616827726364, 0.04325009137392044, 0.008097708225250244, 0.03474204242229462, 0.012075409293174744, 0.036480993032455444, -0.019295331090688705, -0.02572016417980194, 0.003037460148334503, -0.04469911754131317, 0.01734825223684311, -0.00451495498418808, 0.055370159447193146, -0.05940110608935356, -0.011651318520307541, 0.0485411137342453, -0.06977009773254395, 0.03087834268808365, -0.0042716264724731445, 0.015218362212181091, -0.05439646542072296, 0.06202749162912369, 0.05776774138212204, 0.04169568419456482, 0.0345115065574646, 0.05981504172086716, 0.03792332857847214, 0.042641498148441315, 0.04819197952747345, 0.0537150576710701, 0.04730851948261261, -0.05830886587500572, -0.0057269856333732605, -0.021937284618616104, 0.0032068639993667603, 0.03944297879934311, -0.06256198137998581, -0.030508697032928467, 0.01935342699289322, -0.06538853049278259, -0.06455227732658386, 0.04804682731628418, 0.06155114620923996, 0.016345947980880737, -0.024620261043310165, 0.025454841554164886, 0.06577327102422714, -0.02584003284573555, 0.06425289064645767, -0.034539174288511276, 0.024465322494506836, 0.026862800121307373, -0.06521601974964142, 0.04049910604953766, 0.0564718171954155, -0.04037206619977951, 0.01595136523246765, -0.0120321623980999, 0.041032567620277405, -0.04727819561958313, 0.06905727833509445, 0.03871828317642212, 0.06273265928030014, -0.03539518639445305, 0.028285883367061615, 0.04840511828660965, 0.02989920973777771, -0.03230701759457588, 0.05195008963346481, -0.04180698096752167, -0.0192723385989666, -0.01769598200917244, -0.03346391022205353, 0.01926543563604355, -0.03877544775605202, 0.02613338828086853, 0.06011692434549332, -0.04445764422416687, 0.027743183076381683, 0.02797809988260269, 0.026730366051197052, 0.042349569499492645, 0.011160992085933685, 0.03791957348585129, -0.003595679998397827, 0.009251482784748077, 0.03308404982089996, 0.06122893840074539, -0.015649307519197464, -0.01766681671142578, 0.04988034814596176, -0.023127153515815735, 0.007816635072231293, -0.044684551656246185, -0.0074891746044158936, -0.006601989269256592, -0.009332098066806793, 0.03375663608312607, -0.033720988780260086, 0.003408379852771759, -0.04847651720046997, -0.025243427604436874, -0.0029010996222496033, -0.006237305700778961, -0.04468629136681557, -0.04886418581008911, 0.01772860437631607, 0.0014812648296356201, 0.016468971967697144, -0.007007002830505371, 0.023347340524196625, 0.015096291899681091, -0.055713728070259094, -0.011988397687673569, 0.02188614010810852, -0.029451850801706314, 0.03502020239830017, -0.03890256583690643, -0.02971145138144493, 0.057462774217128754, -0.04945799708366394, 0.06299134343862534, 0.0007331445813179016, -0.04920092970132828, -0.022174090147018433, -0.004502050578594208, -0.018712066113948822, -0.009584710001945496, 0.01425439864397049, -0.0141412653028965, -0.019380934536457062, 0.015347316861152649, -0.030311699956655502, -0.061072226613759995, 0.029076121747493744, 0.04813019186258316, -0.0548529252409935, -0.02574373036623001, 0.03743669390678406, -0.019772708415985107, -0.01920049637556076, 0.025982342660427094, 0.0566534623503685, 0.048072539269924164, 0.002166159451007843, 0.023388274013996124, 0.06740561872720718, -0.042633507400751114, -0.03482568636536598, -0.017181552946567535, -0.03421403467655182, 0.05346549302339554, 0.031369879841804504, 0.03250619024038315, 0.037065133452415466, 0.015933267772197723, 0.016103364527225494, -0.0028413981199264526, 0.037610650062561035, 0.006612919270992279, 0.030705377459526062, -0.02795252948999405, -0.011915963143110275, 0.02584804594516754, -0.026760626584291458, -0.04947783797979355, -0.0603833831846714, 0.05678490549325943, -0.007500793784856796, 0.048398636281490326, 0.06206455081701279, 0.02314194291830063, -0.04904551804065704, -0.01966889575123787, 0.021439604461193085, -0.019080493599176407, 0.021390646696090698, -0.004716493189334869, -0.025591757148504257, -0.025827810168266296, 0.017364196479320526, -0.05554835870862007, -0.05327133461833, -0.03282346948981285, 0.06391499191522598, 0.027216017246246338, 0.02282865345478058, 0.028105325996875763, -0.025858353823423386, 0.0049845874309539795, 0.04520384967327118, -0.06059978902339935, 0.028915882110595703, -0.01708083599805832, -0.06676354259252548, -0.02914901077747345, 0.04357188194990158, 0.0019649043679237366, 0.0022532492876052856, 0.023538872599601746, -0.06499385088682175, -0.013790637254714966, -0.050574831664562225, -0.034484848380088806, -0.03694021329283714, 0.05857362598180771, -0.02010776475071907, 0.03913204371929169, 0.04426347464323044, 0.05186763405799866, -0.0609690360724926, -0.0021096467971801758, -0.06129038333892822, 0.01894986629486084, 0.040265366435050964, -0.020746633410453796, -0.004246532917022705, 0.02934800088405609, -0.001232251524925232, 0.03286290913820267, 0.007300063967704773, -0.017866142094135284, 0.06410793215036392, -0.020583026111125946, -0.011373989284038544, -0.010867632925510406, -0.013272132724523544, 0.027462460100650787, 0.02087663859128952, -0.009453371167182922, 0.020827889442443848, 0.04062414914369583, -0.01761101558804512, 0.005060203373432159, -3.697723150253296e-05, -0.004075035452842712, 0.01569339632987976, 0.01582888513803482, 0.023889295756816864, -0.024493388831615448, -0.040757253766059875, -0.0035423487424850464, -0.05065438896417618, -0.05010318011045456, 0.06844054907560349, -0.059729017317295074, -0.05179600045084953, -0.028149783611297607, 0.012502774596214294, -0.0009716525673866272, -0.015835028141736984, 0.04931934177875519, 0.009400181472301483, -0.03161574527621269, 0.049119070172309875, 0.05436252802610397, 0.03709438443183899, -0.010541774332523346, -0.03849237039685249, -0.041530366986989975, -0.031083151698112488, 0.04774576425552368, 0.03454447537660599, -0.0014992281794548035, -0.04784872382879257, -0.03625459596514702, -0.04494365304708481, -0.05835632607340813, 0.01925799250602722, 0.06259036809206009, -0.013324469327926636, 0.016257472336292267, 0.019571326673030853, -0.04203284531831741, -0.014147728681564331, -0.05298321694135666, 0.06508814543485641, -0.01625363528728485, 0.023983314633369446, 0.045024655759334564, -0.013144910335540771, -0.03586280718445778, -0.030259687453508377, -0.035108231008052826, 0.053936973214149475, 0.0631747618317604, -0.02604074403643608, -0.02657070755958557, -0.012181144207715988, 0.000553719699382782, -0.0698002353310585, 0.03313443064689636, -0.016665756702423096, -0.054066553711891174, 0.014510229229927063, -0.03830249235033989, -0.04365584999322891, 0.031173475086688995, -0.017536606639623642, -0.008359119296073914, 0.0659184381365776, -0.06346199661493301, -0.000520557165145874, 0.06016329675912857, 0.02059634029865265, 0.024320006370544434, -0.020591627806425095, 0.03908958286046982, -0.05404219031333923, 0.0324428454041481, 0.03565067797899246, 0.05260423570871353, -0.016223978251218796, -0.04907401278614998, 0.012628190219402313, -0.004913158714771271, -0.061083897948265076, -0.06916004419326782, 0.008654624223709106, 0.06679912656545639, -0.028006721287965775, 0.030879177153110504, 0.06304388493299484, 0.015156127512454987, -0.011304959654808044, 0.009905114769935608, -0.06609290838241577, 0.04267053306102753, -0.054095759987831116, 0.0016210749745368958, -0.02455851435661316, -0.0279693566262722, 0.03813302516937256, -0.00043380260467529297, 0.025214701890945435, -0.04396643489599228, 0.032407358288764954, 0.06767720729112625, -0.06277339905500412, 0.02256935089826584, -0.051453135907649994, 0.05711667984724045, 0.016949832439422607, 0.050011031329631805, -0.015341155230998993, 0.012447230517864227, -0.06569421291351318, -0.039939671754837036, 0.04085192829370499, -0.02663247659802437, 0.02590341866016388, 0.03262029588222504, -0.05045017600059509, -0.029738154262304306, -0.06742400676012039, 0.007600352168083191, -0.009708274155855179, 0.015906237065792084, -0.05341388285160065, -0.005617737770080566, 0.05428308993577957, -0.037608809769153595, -0.0009978264570236206, 0.0393938273191452, 0.06728547066450119, 0.03615891933441162, 0.013126984238624573, 0.02627437561750412, -0.06400076299905777, -0.046265602111816406, 0.018980197608470917, 0.05721084028482437, -0.059240229427814484, 0.04470018297433853, 0.013661518692970276, -0.015045903623104095, 0.013361543416976929, -0.03480762243270874, -0.06966305524110794, 0.06813427060842514, -0.06397950649261475, -0.029363088309764862, 0.04529505968093872, 0.032595545053482056, -0.03992749750614166, -0.019818689674139023, -0.04580209404230118, -0.013911571353673935, 0.03325884789228439, -0.06507644057273865, -0.06797019392251968, -0.011708248406648636, 0.02709384262561798, 0.06378037482500076, -0.0319262258708477, -0.005867987871170044, -0.030830450356006622, -0.05617455020546913, 0.06942034512758255, 0.04755919426679611, 0.05368608236312866, -0.043417006731033325, -0.0644189789891243, 0.032937534153461456, -0.039047710597515106, 0.00032483041286468506, 0.0356464609503746, 0.017222605645656586, -0.051282450556755066, 0.027394890785217285, -0.03391977772116661, -0.04264052212238312, -0.055251866579055786, -0.05631767958402634, 0.02364380657672882, -0.03313387185335159, 0.04051215946674347, -0.03199129179120064, -0.06550844013690948, -0.011185504496097565, 0.03718726336956024, -0.05847243592143059, -0.038768261671066284, 0.0645102933049202, -0.040166180580854416, -0.06591802090406418, 0.0027723461389541626, 0.011308476328849792, -0.044024161994457245, 0.011236429214477539, -0.003083638846874237, -0.015010640025138855, 0.0193275585770607, -0.036454856395721436, -0.0021702200174331665, -0.023536480963230133, 0.04601538926362991, -0.05057045444846153, -0.028565362095832825, -0.02855038270354271, 0.06219650059938431, -0.04602659493684769, 0.030498884618282318, 0.025046996772289276, -0.018953807651996613, 0.05933897942304611, 0.016242578625679016, 0.02316831797361374, 0.028162993490695953, -0.01793171465396881, 0.03744659572839737, 0.040519699454307556, -0.010632656514644623, -0.04867500811815262, -0.02797619253396988, -0.01256902888417244, -0.03120359033346176, 0.02354665845632553, -0.031220510601997375, 0.01734745502471924, -0.06049155071377754, 0.030011817812919617, -0.03672775253653526, -0.0069566890597343445, 0.03395158797502518, 0.02164115011692047, -0.025771338492631912, -0.024203095585107803, -0.04078463464975357, -0.05483132228255272, -0.048975832760334015, 0.01242942363023758, -0.013133466243743896, -0.04704028740525246, 0.01952851563692093, 0.03730658441781998, -0.007857557386159897, 0.017199188470840454, -0.00793086364865303, -0.05352271348237991, 0.010920941829681396, 0.03692777454853058, 0.0163506418466568, 0.01704656332731247, 0.06408200412988663, -0.06112554669380188, -0.007700551301240921, 0.03684636205434799, -0.05124760419130325, 0.04594697058200836, -0.051739901304244995, 0.00038332492113113403, 0.023748278617858887, -0.021433725953102112, -0.05037785694003105, 0.028494082391262054, -0.04618401825428009, 0.04123670607805252, 0.051816657185554504, -0.02530694752931595, 0.04942602664232254, -0.04214734584093094, 0.05213494598865509, -0.05691554769873619, -0.008910484611988068, 0.013632029294967651, 0.05567283183336258, -0.022672433406114578, -0.042533714324235916, 0.040614157915115356, -0.06290474534034729, -0.0611957311630249, 0.06315510720014572, -0.023149345070123672, -0.05297546833753586, 0.06931934505701065, 0.06004831939935684, -0.058201827108860016, -0.007952060550451279, -0.063249371945858, 0.057377420365810394, -0.06999831646680832, 0.016535848379135132, -0.0345810241997242, -0.05443289503455162, -0.035621725022792816, 0.004706881940364838, -0.013255272060632706, -0.058599114418029785, -0.020772293210029602, 0.06946001201868057, 0.06211505085229874, -2.9690563678741455e-05, -0.006142944097518921, 0.03773932904005051, 0.01998148113489151, 0.048112787306308746, -0.06591774523258209, -0.04923691600561142, 0.025766469538211823, 0.051708802580833435, 0.03185315430164337, 0.04592485725879669, -0.06839294731616974, -0.04763790965080261, 0.0667593851685524, 0.019257038831710815, 0.02929539978504181, 0.029023975133895874, 0.006299801170825958, 0.06490027159452438, 0.02228875458240509, -0.04515473172068596, -0.015347573906183243, 0.0591796413064003, 0.06360731273889542, -0.03596380352973938, -0.05956842005252838, -0.009022235870361328, -0.02949247509241104, -0.005362324416637421, -0.04515554755926132, 0.027683094143867493, 0.008350774645805359, -0.06343451887369156, 0.0373632088303566, 0.053751103579998016, -0.05161925405263901, 0.06826756149530411, -0.014396965503692627, 0.014288969337940216, -0.0020777657628059387, -0.060196809470653534, 0.024854309856891632, -0.019392304122447968, 0.06914625316858292, 0.03285348415374756, -0.0647599846124649, 0.04550129175186157, 0.05974375456571579, -0.005159161984920502, -0.033053621649742126, -0.03908064588904381, -0.06319761276245117, 0.02190374583005905, -0.05343015491962433, 0.027362369000911713, -0.05755018815398216, 0.026051916182041168, -0.04110568016767502, 0.009643934667110443, -0.010632190853357315, -0.01289178803563118, -0.04342316463589668, 0.06983264535665512, 0.03226524591445923, 0.06939630955457687, 0.03227217495441437, 0.005358435213565826, 0.0457342192530632, -0.058846745640039444, -0.002305924892425537, -0.007560256868600845, -0.00508040189743042, -0.03236403688788414, 0.005445584654808044, -0.004480540752410889, -0.012718558311462402, -0.022305600345134735, 0.010644949972629547, -0.03774324432015419, 0.030066348612308502, -0.06331386417150497, -0.020129013806581497, 0.05431754142045975, -0.06299185752868652, 0.03877643495798111, -0.0296381413936615, 0.0678136870265007, -0.061681222170591354, 0.011445194482803345, -0.005105137825012207, 0.055849216878414154, 0.05952801555395126, -0.03083810582756996, -0.0472351536154747, -0.020405497401952744, -0.057335689663887024, -0.00840175524353981, 0.04995904862880707, 0.06762292236089706, 0.04495479166507721, -0.020124956965446472, 0.056396447122097015, -0.06032700836658478, -0.03641754388809204, -0.0032965615391731262, 0.05675604194402695, 0.03414681553840637, -0.06709738075733185, -0.023136351257562637, 0.06692814081907272, 0.006364904344081879, -0.04514101520180702, -0.06711987406015396, 0.032552897930145264, 0.009621597826480865, 0.010136634111404419, 0.006031692028045654, -0.03542298078536987, 0.012552283704280853, -0.016893338412046432, 0.00605098158121109, -0.04874986782670021, -0.057281315326690674, 0.034518979489803314, 0.027545534074306488, 0.030073635280132294, 0.02522440254688263, -0.04544363170862198, 0.02990715205669403, 0.03282862901687622, 0.01432761549949646, -0.011202547699213028, 0.0229656845331192, -7.106363773345947e-05, -0.062679223716259, -0.020846158266067505, 0.04437727481126785, -0.0056777819991111755, 0.015972815454006195, 0.03798122704029083, 0.03945568948984146, -0.03983994573354721, 0.023371055722236633, 0.06608637422323227, 0.04534508287906647, -0.04774577543139458, 0.044308438897132874, 0.03062865138053894, 0.0591687336564064, -0.008784722536802292, -0.06850261241197586, -0.04235786944627762, 0.052276112139225006, -0.04759019613265991, 0.05185715854167938, -0.02565465122461319, -0.062571682035923, -0.05203012377023697, 0.04216190427541733, -0.023030050098896027, 0.017680205404758453, 0.04647856950759888, -0.024428371340036392, 0.04799451678991318, -0.006117366254329681, 0.01931321620941162, 0.007333740592002869, -0.010198693722486496, -0.025288522243499756, 0.06835595518350601, -0.04636558145284653, -0.025185607373714447, 0.06060665100812912, -0.03953017294406891, -0.013070359826087952, -0.032399389892816544, -0.01767875999212265, 0.044462092220783234, -0.06229720264673233, 0.009985484182834625, 0.00129670649766922, -0.054386310279369354, 0.05859724432229996, 0.005266644060611725, 0.006756410002708435, 0.06899067014455795, 0.007928483188152313, -0.06838095188140869, 0.06879361718893051, 0.04416891932487488, -0.029693320393562317, -0.044272881001234055, -0.03546958416700363, 0.037424251437187195, 0.023187853395938873, 0.027268387377262115, -0.06204363331198692, 0.03209640085697174, 0.06644492596387863, 0.05961162596940994, -0.06665337830781937, 0.05751555413007736, 0.02254830300807953, -0.03570094332098961, -0.03748983144760132, -0.06856000423431396, 0.033929236233234406, 0.0699041560292244, 0.03258945792913437, 0.005817286670207977, 0.04161748290061951, 0.046357154846191406, 0.04731881618499756, 0.06331755965948105, -0.0608016736805439, -0.03841278329491615, 0.041204437613487244, 0.015475288033485413, 0.06702073663473129, -0.06447632610797882, -0.013521615415811539, -0.0505765825510025, -0.06513050198554993, -0.027901992201805115, -0.05292642116546631, -0.020768627524375916, -0.00456354022026062, -0.048838719725608826, 0.012198328971862793, 0.004838109016418457, 0.0008995532989501953, 0.0415010079741478, -0.06482801586389542, 0.04096699506044388, -0.03314680606126785, 0.03787672519683838, 0.00024816393852233887, 0.01744149625301361, -0.010958578437566757, 0.06476356834173203, 0.061061255633831024, 0.019068002700805664, 9.755045175552368e-05, 0.0424923300743103, -0.00679122656583786, 0.029712572693824768, 0.02612084150314331, 0.014635443687438965, 0.01757369190454483, 0.05963922291994095, -0.03142934665083885, -0.06127099320292473, 0.026597291231155396, -0.019959047436714172, 0.032947830855846405, -0.040261007845401764, -0.04471437633037567, 0.01693210005760193, 0.04495204985141754, -0.013546057045459747, 0.03262563794851303, -0.05143119394779205, -0.02239982783794403, 0.03794505447149277, -0.03957655280828476, -0.06253809481859207, 0.06794819980859756, 0.0442599281668663, -0.051168520003557205, -0.020102962851524353, -0.01517404243350029, 0.04340547323226929, -0.009039688855409622, 0.024746738374233246, -0.02412368357181549, 0.03410074859857559, 0.049019716680049896, 0.002888910472393036, -0.017896194010972977, -0.05833444744348526, 0.05687882751226425, -0.009115580469369888, -0.04376979172229767, 0.06816520541906357, -0.06460007280111313, -0.06018802151083946, -0.03265158459544182, -0.012434441596269608, 0.006662063300609589, -0.026631072163581848, -0.046897776424884796, 0.022265076637268066, 0.0456571951508522, -0.0178472101688385, 0.06287433952093124, -0.014247927814722061, -0.06014643609523773, -0.004250288009643555, -0.00892626866698265, 0.040462374687194824, -0.013954021036624908, 0.06811854988336563, -0.00681682676076889, -0.027407187968492508, -0.0048288628458976746, 0.031620606780052185, 0.003254443407058716, -0.033027805387973785, -0.002816326916217804, 0.04713079333305359, -0.03577340021729469, -0.06065785139799118, -0.050681956112384796, -0.04511924833059311, -0.059816788882017136, 0.058135129511356354, -0.006700776517391205, -0.01924906298518181, -0.005348578095436096, -0.006671898066997528, -0.0545925572514534, -0.02344255894422531, -0.018993966281414032, -0.024355251342058182, -0.059033673256635666, 0.0395488366484642, -0.023832768201828003, -0.022631410509347916, -0.018013443797826767, -0.05649445950984955, 0.026595324277877808, 0.036277368664741516, -0.04218987375497818, 0.03645922243595123, 0.011795029044151306, 0.06483184546232224, 0.009518757462501526, 0.042687542736530304, -0.06048297882080078, -0.06861567497253418, 0.04610266536474228, -0.022172264754772186, 0.011099770665168762, 0.06402238458395004, -0.027731455862522125, 0.06229835003614426, 0.027333319187164307, 0.03541506081819534, -0.02217215672135353, -0.06223822757601738, -0.03232415392994881, -0.05101601779460907, 0.0058705732226371765, -0.031094878911972046, -0.04483656585216522, -0.01764855533838272, 0.061082400381565094, -0.03156222403049469, 0.06543155759572983, -0.00821661576628685, 0.01775948703289032, 0.041519246995449066, -0.048105157911777496, 0.06490679830312729, -0.010410893708467484, -0.006230764091014862, 0.031735822558403015, -0.05847815051674843, 0.05576764792203903, 0.046499766409397125, 0.04481181502342224, 0.00038508325815200806, 0.023197107017040253, -0.05105269327759743, 0.0022082850337028503, -0.0009287893772125244, -0.05193103849887848, 0.02332695573568344, -0.04655163735151291, -0.018798749893903732, -0.051834117621183395, 0.04751553386449814, 0.00807894766330719, -0.029300332069396973, 0.04489820450544357, 0.039011187851428986, -0.05193110555410385, -0.06013604998588562, 0.050625987350940704, 0.02580782026052475, -0.012703735381364822, -0.06290211528539658, 0.0102800652384758, -0.009594012051820755, -0.006150372326374054, 0.01633954793214798, -0.026703935116529465, -0.05981389060616493, 0.037308014929294586, 0.013034068048000336, -0.014484170824289322, 0.042834728956222534, -0.052299804985523224, 0.04258366674184799, 0.06561330705881119, 0.009364418685436249, 0.04068148136138916, 0.028565242886543274, 0.04845628887414932, 0.01958184689283371, 0.05142740160226822, 0.06963393837213516, -0.004233025014400482, -0.06845766305923462, -0.02379652112722397, 0.007303498685359955, -0.022011060267686844, -0.05928488075733185, 0.033672600984573364, -0.051007628440856934, -0.04927384853363037, -0.06562113761901855, 0.00019284337759017944, -0.02391110360622406, -0.04210107773542404, 0.011513754725456238, -0.05088231712579727, 0.040049999952316284, -0.0475335419178009, 0.01686028391122818, 0.036051712930202484, -0.01584569737315178, -0.03981762379407883, 0.05427176505327225, 0.013634592294692993, 0.05407752841711044, 0.06275985389947891, 0.034290485084056854, 0.028251968324184418, -0.0636705830693245, 0.044036753475666046, -0.00790998712182045, 0.04805968701839447, -0.026029635220766068, -0.003964677453041077, 0.006716541945934296, -0.049358904361724854, -0.002372272312641144, 0.02867089956998825, 0.053056612610816956, -0.00798482820391655, 0.03609172999858856, 0.003456801176071167, -0.052808210253715515, -0.0470561720430851, 0.06598644703626633, 0.03819919377565384, 0.053142473101615906, 0.0003315582871437073, 0.045968472957611084, 0.0015263929963111877, 0.0017326399683952332, 0.010798841714859009, 0.02172045409679413, 0.003984779119491577, 0.020253993570804596, -0.051128096878528595, -0.05645935609936714, -0.032916825264692307, -0.0554659366607666, -0.06130686402320862, -0.05125972256064415, 0.04590451717376709, 0.008504681289196014, 0.004852287471294403, 0.0077078938484191895, 0.043147727847099304, 0.03547205775976181, 0.02306940406560898, -0.05838245525956154, -0.06275233626365662, -0.014245804399251938, -0.018987026065587997, -0.06836165487766266, 0.024188362061977386, 0.01673971116542816, -0.03236866369843483, -0.05753276124596596, 0.008042976260185242, 0.030171334743499756, 0.03280206769704819, -0.042580410838127136, 0.0018995702266693115, 0.005992472171783447, 0.04890097677707672, 0.0619591549038887, -0.001395486295223236, -0.065968357026577, -0.050446949899196625, -0.051096126437187195, -0.0358242504298687, 0.061423055827617645, -0.026422947645187378, 0.000402696430683136, -0.0037715956568717957, -0.06697145104408264, 0.005427166819572449, 0.029374338686466217, -0.05914522707462311, 0.028680361807346344, -0.045045383274555206, -0.0015721619129180908, 0.04588022828102112, 0.06593788415193558, 0.05829707533121109, 0.004801109433174133, -0.03756239265203476, -0.004237070679664612, 0.033145204186439514, 0.06994795054197311, 0.04480519890785217, -0.005154170095920563, -0.02942739427089691, -0.048731107264757156, 0.0033955201506614685, -0.06256867945194244, -0.059256087988615036, -0.006738737225532532, 0.04551945626735687, -0.03619296848773956, 0.00978841632604599, 0.018498100340366364, -0.06286610662937164, 0.05841634422540665, -0.04387470334768295, -0.022020410746335983, 0.006503313779830933, 0.004648536443710327, -0.004171691834926605, -0.03841590881347656, -0.03946433216333389, 0.03988638520240784, 0.017703942954540253, 0.007535703480243683, -0.02319638803601265, -0.06855185329914093, -0.03581782057881355, 0.030194424092769623, 0.03664956986904144, 0.05027463287115097, -0.03619213029742241, 0.0014897435903549194, -0.0631340965628624, -0.04737198352813721, -0.017926301807165146, 0.012920178472995758, 0.060159407556056976, 0.006211571395397186, -0.014234595000743866, -0.012550417333841324, 0.05500093847513199, 0.0278405100107193, 0.03260808438062668, -0.02411617711186409, 0.026115335524082184, 0.0011326223611831665, 0.06041077524423599, 0.025876015424728394, 0.026077784597873688, 0.06748407334089279, 0.0313999205827713, -0.039320770651102066, 0.018783152103424072, 0.012388020753860474, -0.05022429674863815, 0.06380357593297958, -0.06619200855493546, -0.04934956878423691, -0.017173457890748978, -4.5239925384521484e-05, -0.025452271103858948, -0.01164381206035614, 0.01916392892599106, 0.05446673929691315, 0.018129602074623108, -0.05402648448944092, 0.03078015148639679, 0.04531722515821457, 0.01966790109872818, -0.05758166313171387, -0.05298934131860733, 0.014296844601631165, -0.06813547015190125, -0.02861006185412407, -0.031412411481142044, -0.020391996949911118, -0.0402519628405571, -0.04391837492585182, -0.0349421426653862, -0.042192570865154266, 0.007354713976383209, 0.04259347915649414, -0.05892113968729973, -0.061399348080158234, -0.039575252681970596, -0.023538053035736084, 0.038797423243522644, 0.05509281903505325, 0.045578062534332275, -0.05594855174422264, 0.05093713849782944, -0.062168046832084656, 0.06145896762609482, 0.042523518204689026, -0.060574546456336975, -0.016331106424331665, -0.0253988616168499, -0.0286530964076519, -0.012789919972419739, 0.06550275534391403, 0.00017609447240829468, -0.013791199773550034, -0.03254694864153862, 0.003269001841545105, 0.04596453905105591, -0.030591335147619247, -0.013818491250276566, 0.019078567624092102, -0.06592930853366852, -0.02413119375705719, -0.06360738724470139, 0.02641143649816513, -0.04234180971980095, 0.039684392511844635, -0.02612108737230301, 0.04610829800367355, 0.046368733048439026, 0.06550488620996475, -0.036318305879831314, -0.06580876559019089, -0.03754333034157753, -0.012242961674928665, -0.03712834417819977, -0.015823904424905777, -0.013689424842596054, 0.011898010969161987, 0.06936309486627579, -0.019733663648366928, 0.00852474570274353, 0.0293649360537529, 0.003614649176597595, 0.05650194734334946, 0.064132921397686, 0.06575680524110794, -0.023653868585824966, -0.012861024588346481, 0.029757246375083923, 0.011051416397094727, -0.012731671333312988, -0.018855087459087372, 0.053697824478149414, -0.04212441295385361, 0.0016865730285644531, 0.05492045730352402, -0.019431594759225845, 0.010153904557228088, 0.06435834616422653, -0.0552978515625, -0.06501315534114838, 0.025950901210308075, -0.010140720754861832, -0.021485991775989532, -0.04140983894467354, 0.06920268386602402, 0.05133632570505142, 0.05893275886774063, -0.050700243562459946, -0.04444596916437149, 0.04688763618469238, -0.033091962337493896, 0.024365834891796112, 0.013738729059696198, -0.06779614090919495, 0.02302849292755127, 0.059605516493320465, -0.03956387937068939, 0.04220520704984665, 0.04342205822467804, 0.037418216466903687, -0.006385356187820435, -0.03073931485414505, 0.042645350098609924, 0.006536982953548431, -0.05203325301408768, 0.0006418898701667786, 0.04888670891523361, -0.03538653999567032, 0.029253758490085602, -0.055388011038303375, -0.053308263421058655, 0.058859772980213165, 0.03830584138631821, 0.06360182911157608, 0.05622430890798569, -0.04343051835894585, -0.037624817341566086, 0.045259006321430206, 0.049045905470848083, 0.03707104176282883, 0.007963620126247406, 0.048930808901786804, 0.02792840451002121, -0.003754153847694397, -0.06559856981039047, 0.016176998615264893, -0.05920035392045975, 0.036125823855400085, 0.019840337336063385, 0.03512682020664215, 0.030667640268802643, -0.005809962749481201, 0.02556312084197998, 0.06102634221315384, 0.06630704551935196, 0.04113084077835083, 0.035380832850933075, 0.02551238238811493, -0.05485265702009201, -0.043165162205696106, 0.03474261611700058, -0.06809075176715851, -0.054071877151727676, 0.060844697058200836, 0.03792038559913635, -0.003406800329685211, -0.01715753972530365, 0.02954937517642975, -0.04439332336187363, -0.006964229047298431, 0.04191559553146362, 0.0033918842673301697, -0.06603044271469116, 0.038002319633960724, -0.011472426354885101, -0.014721948653459549, -0.023964855819940567, 0.03901630640029907, -0.05827028676867485, -0.06480826437473297, 0.04261232912540436, 0.016075462102890015, 0.01609291136264801, 0.0502445250749588, 0.029783032834529877, -0.03763027489185333, -0.011067312210798264, -0.04511373117566109, 0.03201773762702942, -0.00872470811009407, -0.005545660853385925, 0.03942719101905823, 0.05521024018526077, 0.05761518329381943, -0.06855187565088272, -0.004986010491847992, 0.05659148842096329, 0.0008476525545120239, 0.05297943949699402, -0.05893222987651825, 0.041413865983486176, 0.048190824687480927, -0.022960733622312546, 0.01741250604391098, 0.015803039073944092, 0.05833301693201065, -0.0012540817260742188, -0.02089325711131096, -0.06472498178482056, 0.008293889462947845, -0.004007026553153992, 0.05364812910556793, 0.02326737344264984, 0.025179222226142883, -0.06688818335533142, -0.05628879740834236, -0.03032112866640091, 0.008456721901893616, -0.06019050255417824, 0.03779646009206772, 0.05080234259366989, -0.058597128838300705, 0.02121330052614212, 0.04185965657234192, -0.06827344745397568, -4.2632222175598145e-05, -0.06771789491176605, -0.01900918036699295, 0.0021901652216911316, -0.03485165908932686, -0.04583418369293213, -0.041957516223192215, 0.013922147452831268, -0.019783534109592438, 0.06095101684331894, 0.05657505244016647, 0.031963326036930084, 0.034598469734191895, -0.026528380811214447, -0.0672251507639885, 0.0456153079867363, -0.02173815667629242, 0.020519420504570007, 0.0485943928360939, 0.041981570422649384, 0.04880388826131821, 0.01405169814825058, -0.010734844952821732, -0.027171876281499863, 0.013567723333835602, 0.041643403470516205, 0.020412780344486237, -0.002200201153755188, 0.040006354451179504, -0.05247099697589874, 9.305775165557861e-05, -0.039377741515636444, 0.038781024515628815, 0.01349378377199173, -0.051564522087574005, 0.021818362176418304, -0.06994070112705231, 0.0008063018321990967, 0.037968650460243225, 0.05851241201162338, 0.06126158684492111, 0.016757547855377197, -0.033185794949531555, 0.06179868429899216, -0.029442746192216873, -0.05634654685854912, 0.006382174789905548, 0.023745723068714142, 0.05554863065481186, 0.020280689001083374, 0.023266039788722992, -0.051461122930049896, -0.012751203030347824, -0.01186930388212204, -0.06328986585140228, -0.031220383942127228, 0.017934411764144897, 0.059075258672237396, -0.06054328382015228, 0.0634056106209755, 0.0032790526747703552, 0.018581531941890717, 0.02999594807624817, -0.047399457544088364, -0.031100574880838394, -0.002101115882396698, 0.06838970631361008, -0.0026985779404640198, 0.06829007714986801, -0.02438020333647728, -0.06381659209728241, 0.06045415252447128, 0.06599176675081253, 0.020496822893619537, -0.007150955498218536, -0.0465967133641243, -0.0026622265577316284, 0.03709612786769867, -0.033883556723594666, -0.03246121481060982, 0.04255588352680206, -0.03777946159243584, 0.029136255383491516, 0.005727484822273254, 0.021385855972766876, 0.03648669272661209, 0.04038231819868088, -0.01698118820786476, 0.012664079666137695, -0.027924228459596634, 0.052489884197711945, -0.04320589080452919, -0.05657615512609482, 0.02204899489879608, 0.01503794640302658, -0.01365894079208374, -0.05792420357465744, 0.02467406541109085, -0.04731825366616249, -0.029007162898778915, -0.014455601572990417, -0.05451004207134247, -0.004793189465999603, -0.004380472004413605, 0.004855319857597351, -0.0367894284427166, -0.04997485876083374, 0.045235775411129, -0.06971674412488937, -0.008896198123693466, 0.0060899704694747925, 0.01518338918685913, 0.03433974087238312, 0.0640084370970726, -0.0286395363509655, 0.05035455524921417, 0.0012898296117782593, -0.014035914093255997, 0.054422229528427124, 0.06583531945943832, 0.049608081579208374, 0.060465358197689056, -0.036453839391469955, 0.025129415094852448, 0.0032535716891288757, -0.038194671273231506, -0.010399002581834793, -0.028861403465270996, 0.022840067744255066, -0.02001827210187912, -0.04885156452655792, 0.009197942912578583, 0.01384841650724411, 0.011607915163040161, 0.03938315063714981, 0.045430563390254974, -0.06631046533584595, 0.0049422308802604675, 0.04620972275733948, 0.015968017280101776, 0.06372050195932388, -0.0013604313135147095, 0.0375479981303215, -0.020606543868780136, 0.025824926793575287, -0.003997668623924255, 0.03273293375968933, 0.04097432643175125, -0.047088898718357086, 0.027531132102012634, 0.002544686198234558, -0.029207170009613037, 0.032893359661102295, 0.06038636714220047, 0.04686010628938675, 0.015601016581058502, -0.06039060652256012, 0.00978291779756546, -0.007467672228813171, -0.0641353502869606, -0.03227344900369644, 0.009438931941986084, 0.007718026638031006, -0.006165795028209686, -0.021673928946256638, 0.03703877329826355, 0.05752716213464737, -0.06981823593378067, 0.04350874572992325, 0.023699358105659485, -0.06724739819765091, -0.03899369388818741, 0.06764335185289383, 0.04631651192903519, -0.04183531925082207, 0.022749729454517365, 0.03921406716108322, 0.03655742108821869, -0.06812111288309097, -0.015314601361751556, -0.05063679814338684, -0.01187106966972351, -0.007819350808858871, -0.007028691470623016, -0.054411470890045166, 0.06928304582834244, -0.027490779757499695, -0.02192799001932144, -0.06021678447723389, 0.06736031919717789, -0.002687789499759674, 0.06712392717599869, 0.018476225435733795, -0.043854184448719025, -0.04622630029916763, -0.04719313234090805, 0.014818176627159119, 0.032061927020549774, -0.02607061341404915, 0.06778988987207413, 0.02394714206457138, -0.014640800654888153, 0.029232002794742584, -0.057258863002061844, -0.025002915412187576, -0.0066193342208862305, 0.023964084684848785, -0.012646351009607315, 0.06933098286390305, 0.04297512769699097, -0.017779238522052765, 0.019901081919670105, 0.02002866566181183, 0.011997193098068237, 0.06640269607305527, 0.06918711215257645, -0.06652966886758804, 0.00778575986623764, -0.017360880970954895, 0.06816179305315018, 0.061064667999744415, 0.023598462343215942, -0.05201312154531479, -0.03252290189266205, -0.01457163691520691, 0.02666430175304413, -0.023745674639940262, 0.05998832732439041, -0.026137955486774445, 0.012516170740127563, -0.010600555688142776, 0.06991956382989883, 0.03194360435009003, -0.012468289583921432, 0.049064673483371735, -0.014924176037311554, 0.06498133391141891, 0.03092276304960251, 0.00852133333683014, 0.031219661235809326, -0.010727420449256897, -0.010279588401317596, 0.034663617610931396, 0.04571158438920975, -0.01290079951286316, 0.06176053732633591, 0.005956858396530151, -0.02683105319738388, 0.0023489072918891907, 0.04154043644666672, 0.02979881316423416, -0.03886595368385315, 0.022373832762241364, 0.004703201353549957, 0.044041723012924194, 0.047735705971717834, 0.05415220558643341, -0.06979606300592422, -0.04620802402496338, 0.01713162660598755, -0.011863090097904205, -0.04608476907014847, 0.0015390217304229736, 0.010605551302433014, 0.062448449432849884, -0.04737374186515808, 0.00873509794473648, 0.06344827264547348, 0.05092640221118927, -0.02333882451057434, 0.03264012187719345, 0.00015366077423095703, 0.0477287620306015, 0.038158223032951355, -0.004744298756122589, 0.04764890670776367, 0.0647650882601738, -0.0666961669921875, 0.03735971450805664, -0.00023224204778671265, 0.02636820822954178, 0.06472355872392654, -0.018621776252985, 0.02049926668405533, -0.05945342034101486, -0.03574468940496445, -0.06123974174261093, 0.016601890325546265, -0.022373639047145844, -0.019424021244049072, 0.0637919083237648, -0.030063971877098083, 0.022785350680351257, -0.04960313066840172, -0.056992609053850174, -0.04462939500808716, -0.06507939845323563, 0.05889678746461868, 0.06345527619123459, 0.06481585651636124, 0.053287945687770844, 0.03835903853178024, -0.05862951651215553, -0.02600937709212303, -0.05702147260308266, -0.022463280707597733, 0.020786188542842865, 0.0609196200966835, 0.03006083518266678, -0.01013471931219101, -0.04030515253543854, 0.024713285267353058, 0.01770121604204178, 0.039322055876255035, 0.06846890598535538, 0.029981352388858795, -0.022648390382528305, -0.013979386538267136, 0.05808886140584946, 0.055047206580638885, -0.02120618149638176, -0.024420659989118576, 0.06370595842599869, -0.060110218822956085, 0.0022392943501472473, 0.008573547005653381, -0.06700028479099274, -0.04302186518907547, 0.04219234734773636, 0.0014937594532966614, -0.013316452503204346, 0.03833641856908798, 0.04207409918308258, 0.005921564996242523, 0.0478062704205513, 0.015494123101234436, -0.026010096073150635, 0.06384173780679703, 0.024786479771137238, 0.02018009126186371, 0.02889801561832428, -0.013063386082649231, -0.05983825773000717, -0.037074729800224304, -0.045242153108119965, -0.01730116829276085, 0.019426733255386353, -0.04085683450102806, 0.04710771143436432, -0.009916335344314575, -0.03914903849363327, -0.012989342212677002, -0.06585387885570526, -0.01624906063079834, 0.035559408366680145, 0.01527528464794159, 0.05435316264629364, -0.06300941109657288, 0.0662473812699318, -0.047260675579309464, 0.05934616178274155, -0.03355804458260536, 0.05317377299070358, -0.05886194109916687, -0.056261077523231506, -0.03531244024634361, -0.05321091413497925, 0.06584056466817856, -0.011477861553430557, -0.03456789627671242, 0.048832207918167114, -0.03196433186531067, -0.025453682988882065, -0.05863330513238907, -0.04130212217569351, -0.03759181126952171, 0.014679782092571259, -0.06358769536018372, -0.015826720744371414, -0.04929345101118088, -0.01029212400317192, -0.058182213455438614, 0.03295561671257019, 0.05299696326255798, 0.05012178421020508, -0.06056580692529678, -0.05863632634282112, -0.03686140105128288, 0.0019001215696334839, -0.0296744704246521, -0.0444229319691658, 0.05466955900192261, 0.059041477739810944, 0.008007459342479706, 0.046324364840984344, 0.020789265632629395, -0.030113164335489273, -0.02366560325026512, -0.036121901124715805, -0.04903234913945198, 0.04328148066997528, -0.014573689550161362, 0.042762741446495056, 0.058376915752887726, -0.021467342972755432, -0.008368704468011856, 0.06073901802301407, -0.06159136816859245, -0.06564169377088547, 0.06915435940027237, -0.029952462762594223, -0.021710887551307678, 0.0060948580503463745, -0.05092760920524597, -0.02834058180451393, 0.004667632281780243, 0.06642606109380722, -8.890032768249512e-05, 0.033133745193481445, 0.03723742812871933, -0.008160114288330078, 0.0030135363340377808, 0.056352995336055756, 0.04660675674676895, 0.0048841387033462524, -0.054608121514320374, 0.02526310831308365, -0.005134500563144684, -0.000831112265586853, -0.04094265401363373, 0.06348612159490585, 0.018886566162109375, 0.01860497146844864, -0.012832380831241608, 0.05171162635087967, 0.040574878454208374, -0.0038448795676231384, 0.06973207741975784, -0.04554295912384987, -0.03554503992199898, -0.031249698251485825, -0.043219681829214096, -0.043976590037345886, 0.005367152392864227, -0.0684547871351242, -0.006165564060211182, -0.004485927522182465, -0.04063987731933594, 0.044513143599033356, -0.017788756638765335, -0.03646312281489372, 0.028149962425231934, -0.009362921118736267, -0.052504606544971466, -0.0017833635210990906, 0.06591131538152695, -0.0028857216238975525, -0.026874788105487823, -0.03940587490797043, -0.049086280167102814, -0.021490126848220825, 0.03172900527715683, -0.05171620845794678, -0.03417192026972771, 0.020910650491714478, -0.0021379441022872925, -0.036332350224256516, -0.016695212572813034, 0.014009915292263031, -0.050927191972732544, 0.004017181694507599, -0.036541908979415894, -0.02470250427722931, -0.06627258658409119, -0.06594117730855942, -0.05083161219954491, -0.05429583415389061, -0.06384611874818802, 0.002689562737941742, 0.04563865065574646, 0.056973136961460114, 0.05024450272321701, 0.032443568110466, 0.013517484068870544, 0.04875098168849945, 0.008650854229927063, -0.006683140993118286, 0.0293118879199028, -0.004264079034328461, 0.05185539275407791, -0.0662519559264183, -0.02080295979976654, -0.04511716961860657, 0.01718919724225998, -0.05316820740699768, 0.0450197234749794, -0.00731319934129715, -0.04340485483407974, 0.05256839841604233, 0.047106705605983734, 0.050605691969394684, 0.05841744691133499, 0.05045162886381149, -0.031160563230514526, -0.030481569468975067, 0.05776376277208328, 0.06990190595388412, 0.0022106394171714783, 0.037099435925483704, 0.04540637135505676, 0.051520444452762604, 0.015619322657585144, 0.03489670902490616, -0.04119696468114853, -0.027275454252958298, 0.06885164231061935, -0.03910813480615616, -0.04700538143515587, 0.049491800367832184, 0.05032163858413696, -0.028843391686677933, 0.06264195591211319, 0.06957010179758072, 0.05710948258638382, -0.059744104743003845, 0.0496453195810318, 0.03084322065114975, -0.06648577004671097, -0.0699911117553711, 0.030992425978183746, -0.00868174433708191, -0.039444033056497574, 0.06884514540433884, -0.045217640697956085, -0.05744152516126633, 0.05111478269100189, 0.05635193735361099, 0.034900687634944916, 0.06413478404283524, -0.039160288870334625, -0.057484038174152374, 0.03109322488307953, 0.06210831552743912, -0.037218812853097916, -0.044197358191013336, -0.061648089438676834, 0.04426871985197067, 0.045788273215293884, 0.007208295166492462, -0.01890166848897934, -0.005465544760227203, -0.0530259907245636, -0.03520858287811279, 0.03512930870056152, -0.0018776655197143555, -0.054998792707920074, -0.013865705579519272, -0.03421133756637573, -0.06219664216041565, 0.06552758067846298, -0.06805527955293655, 0.04333847016096115, 0.015265002846717834, -0.010867021977901459, 0.00792238861322403, 0.028528697788715363, 0.0020717233419418335, -0.06606241315603256, 0.025504454970359802, 0.06553123146295547, 0.06842147558927536, 0.04899372160434723, 0.03745390474796295, -0.040675535798072815, -0.01615767925977707, 0.0338558703660965, -0.06931323558092117, 0.04111982136964798, -0.06992392241954803, -0.04466281831264496, -0.0417187437415123, -0.014337070286273956, 0.060850776731967926, -0.03712683171033859, 0.019989140331745148, -0.009860362857580185, -0.01035580039024353, 0.031549714505672455, 0.06581193953752518, 0.048846714198589325, -0.04573134332895279, -0.030005931854248047, -0.034170668572187424, 0.022760361433029175, -0.06766422837972641, 0.02282670885324478, 0.059835098683834076, 0.0061790794134140015, -0.03759818896651268, 0.018073976039886475, 0.0041113123297691345, -0.0008191242814064026, -0.02487337216734886, 0.05717233568429947, 0.046885885298252106, -0.04279996082186699, -0.005946598947048187, 0.0009380877017974854, 0.05173436552286148, -0.017820440232753754, -0.020495843142271042, -0.0571502223610878, 0.029336534440517426, 0.037290193140506744, -0.017430651932954788, -0.04751262813806534, 0.026555567979812622, -0.04409441351890564, 0.04443436861038208, -0.047091078013181686, -0.01910630613565445, -0.05005716532468796, 0.0579632893204689, -0.0646013617515564, -0.055785469710826874, -0.01192454993724823, -0.01573113724589348, -0.030444208532571793, -0.023287642747163773, -0.048029180616140366, 0.0527937188744545, 0.044412873685359955, 0.05162081867456436, -0.04006576165556908, -0.06635159254074097, -0.01480383425951004, -0.030008111149072647, 0.0006413683295249939, -0.016326691955327988, -0.013534758239984512, 0.051820263266563416, 0.05750332027673721, 0.03966057300567627, -0.043880730867385864, 0.03158021718263626, -0.01441047340631485, 0.06375206261873245, 0.05180336534976959, -0.0467216819524765, 0.0510047972202301, -0.023438967764377594, -0.056105226278305054, 0.03685320168733597, 0.046431973576545715, -0.06182717904448509, -0.06038910150527954, 0.05930540710687637, -0.015208516269922256, -0.051934435963630676, -0.012696247547864914, -0.03709189593791962, -0.035118862986564636, -0.04259202256798744, 0.06703359633684158, -0.029899053275585175, -0.015783369541168213, 0.03784380853176117, 0.05853002518415451, -0.016464941203594208, 0.0688977912068367, -0.030406448990106583, 0.04056369513273239, -0.03608189523220062, -0.011054683476686478, -0.055847883224487305, -0.06456912308931351, 0.02851974219083786, 0.06938643008470535, -0.006717413663864136, 0.028500862419605255, -0.0070034414529800415, 0.01581389456987381, 0.06510374695062637, 0.03440730273723602, -0.006819196045398712, -0.010955248028039932, 0.013935104012489319, -0.04259306192398071, 0.06106219440698624, 0.03516903519630432, 0.04311899095773697, -0.01460488885641098, -0.016019422560930252, -0.06843370199203491, -0.00587230920791626, 0.02745172381401062, 0.025055907666683197, 0.05547361820936203, 0.035011790692806244, 0.03696437180042267, 0.05246109515428543, 0.01201409101486206, 0.03199101239442825, -0.057227738201618195, -0.06544147431850433, 0.037003614008426666, -0.006615877151489258, -0.03622346371412277, -0.03981347382068634, 0.04474108666181564, 0.016811788082122803, -0.05195165425539017, 0.06488514691591263, 0.057405807077884674, -0.053616009652614594, 0.014650367200374603, -0.04215952754020691, -0.013681665062904358, -0.033742357045412064, 0.02642510086297989, 0.026437878608703613, -0.06767125427722931, 0.0664677545428276, -0.04427197203040123, -0.05291301757097244, 0.02686980366706848, 0.058741919696331024, -0.021753117442131042, 0.04967179894447327, -0.04918569326400757, 0.023862577974796295, 0.028704248368740082, 0.017333708703517914, 0.04802817106246948, -0.0070133209228515625, 0.021534286439418793, 0.001163393259048462, 0.004689902067184448, 0.024754270911216736, 0.03693631291389465, -0.030375290662050247, -0.036516085267066956, 0.01515170931816101, -0.03558589518070221, 0.033789269626140594, -0.04431913048028946, -0.061868295073509216, -0.06210237741470337, -0.04432336986064911, 0.003468453884124756, -0.006150200963020325, -0.0046531930565834045, 0.015269316732883453, -0.05953621119260788, -0.014706995338201523, 0.007808998227119446, 0.048051461577415466, 0.007709071040153503, -0.028279509395360947, -0.009444162249565125, 0.01529337465763092, -0.040863342583179474, -0.03949415683746338, -0.06426200270652771, 0.05234084278345108, 0.04745941609144211, -0.0577305406332016, -0.019149959087371826, 0.05747578293085098, -0.03751540184020996, -0.0003897473216056824, -0.006752312183380127, -0.026862196624279022, 0.062229521572589874, 0.050145022571086884, 0.03547944128513336, 0.014958910644054413, 0.02869291603565216, -0.04169415682554245, -0.0030212178826332092, 0.011410616338253021, 0.01870877295732498, 0.04605567455291748, 0.051588527858257294, -0.05178970843553543, -0.026715300977230072, -0.010876081883907318, 0.04102484881877899, 0.0460112988948822, 0.018579795956611633, -0.004229582846164703, -0.03468222916126251, 0.05850500613451004, 0.01434876024723053, 0.0288730189204216, -0.029777277261018753, 0.05768490582704544, 0.043955594301223755, 0.06320161372423172, -0.007119409739971161, 0.016291625797748566, 0.019169114530086517, -0.04824969172477722, 0.023592203855514526, -0.005553796887397766, 0.028697557747364044, 0.0009334608912467957, -0.008166953921318054, 0.01723340153694153, 0.032479144632816315, -0.005705155432224274, 0.06578738242387772, 0.016447417438030243, 0.015659406781196594, -0.057315099984407425, -0.06349694728851318, -0.05559193342924118, 0.02325262874364853, -0.049368515610694885, -0.03905593976378441, 0.021420791745185852, -0.007593829184770584, 0.04178890585899353, -0.05532854422926903, -0.03402454033493996, 0.06447366625070572, -0.04515569657087326, -0.040064528584480286, -0.028766587376594543, 0.00881299376487732, 0.014225989580154419, 0.059008486568927765, 0.06261249631643295, -0.0049143582582473755, -0.03554891422390938, 0.012821763753890991, -0.04596412181854248, -0.05050835385918617, 0.025791361927986145, -0.02718188241124153, 0.05558931082487106, 0.02420324832201004, -0.01893853396177292, 0.005581580102443695, -0.016131766140460968, 0.056794844567775726, -0.05955498293042183, 0.019793376326560974, 0.0006760060787200928, -0.03631652146577835, -0.007205143570899963, -0.004743419587612152, 0.014280281960964203, -0.035361699759960175, -0.011923685669898987, -0.017642643302679062, 0.030829958617687225, -0.0014291182160377502, 0.006824880838394165, -0.04969353973865509, 0.038748569786548615, -0.01256198063492775, -0.053350549191236496, 0.010313786566257477, 0.01820329576730728, -0.030273981392383575, -0.06391426920890808, 0.028416365385055542, -0.04392048344016075, -0.06484179943799973, 0.031983911991119385, 0.027627743780612946, -0.05835229158401489, 0.03915673494338989, 0.05126465857028961, 0.03107982873916626, -0.027406085282564163, -0.014019463211297989, 0.039924636483192444, 0.05039165914058685, -0.05132526531815529, -0.0636925995349884, 0.042286597192287445, 0.020961038768291473, 0.04885147511959076, -0.009952425956726074, -0.033277325332164764, -0.0655515268445015, -0.014870863407850266, 0.018412940204143524, 0.06404609233140945, -0.003612406551837921, -0.03381695970892906, -0.019349057227373123, 0.030357539653778076, -0.04388204589486122, 0.035081423819065094, -0.06966876238584518, 0.04197848588228226, 0.012975871562957764, -0.024498991668224335, -0.0050262510776519775, -0.060628462582826614, 0.04097878932952881, 0.028703950345516205, 0.06009668856859207, 0.03172078728675842, -0.0449487566947937, 0.05558136850595474, 0.014834575355052948, 0.04261849820613861, 0.004148118197917938, -0.007976330816745758, 0.006960950791835785, 0.03225112706422806, 0.006564483046531677, 0.014418236911296844, 0.05959293991327286, 0.06869306415319443, 0.012929126620292664, -0.055043987929821014, -0.047999586910009384, -0.03698801249265671, -0.0069509148597717285, -0.055719465017318726, 0.029210321605205536, 0.050876326858997345, 0.023771271109580994, -0.0463859960436821, -0.019278574734926224, 0.014079414308071136, 0.05844270437955856, 0.027562938630580902, -0.025945227593183517, 0.025722108781337738, -0.017777003347873688, -0.02443452551960945, 0.013812191784381866, -0.0232807956635952, 0.0465419664978981, 0.015631437301635742, -0.05047085881233215, 0.01657404750585556, 0.015056274831295013, -0.049171820282936096, 0.005762703716754913, -0.06841994822025299, -0.013301476836204529, 0.016880027949810028, 0.023761451244354248, -0.023473884910345078, 0.03424966335296631, 0.025189504027366638, -0.0060730427503585815, 0.03272569179534912, 0.019156478345394135, 0.049613721668720245, -0.047718264162540436, 0.06330529600381851, -0.001624777913093567, 0.05660455673933029, 0.04129142314195633, -0.005582280457019806, 0.027189694344997406, -0.06682490557432175, 0.003371983766555786, -0.0555187426507473, 0.01033075898885727, -0.042447399348020554, 0.045703426003456116, 0.04247751832008362, 0.02235802263021469, 0.050359100103378296, 0.0034643560647964478, -0.03066602349281311, 0.014433249831199646, 0.04524460434913635, -0.06444423645734787, 0.041898213326931, -0.06920665502548218, 0.0035720467567443848, 0.0600186362862587, 0.04561367630958557, -0.020170368254184723, -0.028563715517520905, 0.05302855372428894, -0.012923814356327057, 0.01206989586353302, 0.02607382833957672, -0.0305817648768425, 0.04694201797246933, 0.025230422616004944, 0.046904854476451874, 0.03653118014335632, -0.053700681775808334, 0.0467514768242836, -0.02560453489422798, -0.051416415721178055, -0.010953877121210098, -0.054647766053676605, -0.052328646183013916, 0.013559021055698395, 0.014156095683574677, 0.061397381126880646, 0.003465898334980011, -0.06346680968999863, -0.04204566776752472, 0.025243058800697327, -0.036317452788352966, 0.015698499977588654, -0.034381043165922165, 0.011322811245918274, 0.06600511819124222, -0.050443075597286224, -0.06928186118602753, 0.017899073660373688, -0.012729834765195847, 0.041807450354099274, 0.06206909567117691, -0.06848539412021637, 0.023079149425029755, 0.05715378373861313, 0.045466236770153046, -0.03371882438659668, -0.06336593627929688, -0.038352224975824356, -0.05402681231498718, -0.024218305945396423, -0.02257421240210533, -0.04300869628787041, 0.01745227724313736, 0.017836079001426697, -0.013082019984722137, -0.06282782554626465, -0.018999505788087845, 0.0563548281788826, 0.0578431561589241, -0.04198224097490311, 0.042980924248695374, 0.00871683657169342, 0.006907477974891663, 0.021654978394508362, 0.007073923945426941, 0.04170586168766022, -0.01259145513176918, 0.04417040944099426, -0.023022931069135666, 0.050456538796424866, -0.035937681794166565, 0.0036543160676956177, 0.020161151885986328, -0.027452275156974792, 9.469687938690186e-06, -0.0661451444029808, 0.04390767216682434, 0.06403588503599167, -0.01996242254972458, -0.0348706915974617, 0.05941016227006912, -0.011370789259672165, 0.052321724593639374, 0.034339532256126404, 0.009507149457931519, 0.01170484721660614, -0.059123218059539795, -0.04815739020705223, -0.04999864473938942, -0.04027252271771431, -0.06901071965694427, -0.02909974753856659, -0.01645532250404358, -0.04612662270665169, -0.04590144008398056, -0.0659380629658699, -0.004463888704776764, -0.02574649080634117, -0.013472195714712143, -0.05844999477267265, -0.011046569794416428, -0.019529882818460464, -0.030441567301750183, -0.01012878492474556, -0.014022238552570343, -0.05051952600479126, 0.04199899733066559, -0.045794710516929626, -0.04995571821928024, -0.012404713779687881, 0.0070182159543037415, 0.020758822560310364, -0.040543023496866226, -0.012499812990427017, 0.01806965470314026, 0.03588534891605377, 0.034366607666015625, 0.010984532535076141, 0.01343315839767456, -0.03652248904109001, 0.06583397835493088, -0.0044912248849868774, 0.06218794733285904, -0.047534286975860596, -0.008619219064712524, 0.036025531589984894, 0.06445140391588211, 0.063532255589962, 0.03196951001882553, 0.0433964878320694, -0.005052819848060608, 0.004115968942642212, 0.062476418912410736, 0.025864511728286743, -0.002043098211288452, -0.02419060841202736, -0.06224875524640083, -0.051228828728199005, 0.06733144074678421, -0.037226468324661255, -0.04168524593114853, -0.040495581924915314, -0.0073735713958740234, 0.025280185043811798, 0.014541193842887878, 0.04227690398693085, -0.0026363879442214966, -0.014594852924346924, -0.014852851629257202, 0.027913421392440796, -0.017564382404088974, -0.007583413273096085, 0.029130160808563232, -0.06989097595214844, -0.009527698159217834, 0.06632577627897263, 0.00199282169342041, -0.00693010538816452, -0.02420053258538246, 0.01327599585056305, -0.06203611195087433, -0.04635654389858246, -0.01604723557829857, -0.03776649758219719, 0.006048351526260376, -0.04418138414621353, 0.0013863369822502136, 0.004568666219711304, 0.05345539748668671, 0.0421580895781517, 0.050774410367012024, -0.037995580583810806, 0.05082608759403229, 0.01816672831773758, 0.012858830392360687, -0.017451945692300797, 0.014270752668380737, -0.03864133358001709, -0.008491028100252151, 0.011465281248092651, 0.018165796995162964, -0.0079115629196167, -0.05663508176803589, -0.05112632364034653, 0.014338001608848572, 0.036900594830513, 0.05550991743803024, -0.01576569303870201, 0.020220398902893066, -0.004052251577377319, -0.006453201174736023, 0.06312022358179092, -0.02162287011742592, 0.04485626518726349, -0.03808988630771637, 0.06222184747457504, -0.0353308841586113, -0.06321665644645691, 0.04933929443359375, -0.04373638331890106, -0.0542960986495018, 0.003695935010910034, 0.0033558085560798645, 0.056597404181957245, -0.010643694549798965, 0.04666665941476822, -0.056639716029167175, -0.06354658305644989, 0.040301017463207245, -0.02348361909389496, 0.0018532946705818176, -0.01425020769238472, -0.010828062891960144, -0.05599560961127281, 0.0415160208940506, -0.048160769045352936, 0.02112439274787903, -0.04454450309276581, -0.0667712613940239, -0.018709339201450348, 0.06765232235193253, -0.053892359137535095, 0.04354509711265564, 0.0327247679233551, 0.06366381794214249, -0.05926722288131714, 0.0523272305727005, 0.055593810975551605, -0.007725004106760025, -0.01969648152589798, 0.058357931673526764, -0.05411508306860924, 0.0016881674528121948, -0.005781427025794983, -0.015849512070417404, -0.05543678626418114, 0.043030284345149994, 0.04274667799472809, -0.042418841272592545, 0.009073257446289062, 0.02392444759607315, -0.06596794724464417, 0.004397839307785034, -0.026645883917808533, -0.03052292764186859, -0.06926023960113525, 0.010272771120071411, 0.050292789936065674, -0.023382902145385742, 0.014829210937023163, 0.028395481407642365, -0.050771862268447876, -0.002345137298107147, -0.06533898413181305, 0.05014019459486008, -0.05902969464659691, -0.05765962228178978, -0.018635451793670654, -0.003997594118118286, -0.03734777495265007, 0.017926447093486786, -0.029438484460115433, 0.04819856584072113, -0.02576345205307007, 0.04039487987756729, -0.04599788784980774, 0.014114253222942352, -0.013758506625890732, -0.04561162739992142, 0.011066660284996033, 0.03672067075967789, -0.02506372332572937, -0.04326970875263214, -0.04493597894906998, -0.0602671355009079, 0.031356386840343475, -0.03748884052038193, 0.062663234770298, 0.06310000270605087, -0.05600351095199585, -0.06711816787719727, 0.06890962272882462, -0.02922792360186577, -0.03741201385855675, 0.012938037514686584, -0.00043942034244537354, 0.050279244780540466, -0.0349145382642746, 0.0513308048248291, -0.011778373271226883, 0.06362833827733994, -0.04239930585026741, 0.0468778982758522, -0.028507370501756668, 0.029420718550682068, -0.04552891105413437, 0.020497478544712067, -0.05029667913913727, -0.04916127026081085, -0.0022481977939605713, 0.06846161931753159, 0.05804967135190964, 0.01783483475446701, 0.043939799070358276, -0.008325673639774323, -0.044206369668245316, -0.059564292430877686, -0.01353958249092102, -0.026169229298830032, -0.0629916712641716, 0.03440038114786148, 0.022286206483840942, -0.06332854926586151, 0.04930266737937927, -0.029441997408866882, -0.017911124974489212, 0.02884434163570404, -0.020378686487674713, 0.05840709060430527, 0.05925389379262924, 0.007423602044582367, 0.05676976591348648, -0.02814330905675888, 0.03458641469478607, -0.007705729454755783, 0.060234613716602325, -0.0648045539855957, 0.06551215797662735, -0.01377030462026596, -0.04280979931354523, -0.040540661662817, -0.022997457534074783, 0.06470345705747604, -0.0006120577454566956, -0.011088106781244278, 0.05544387549161911, -0.03423365205526352, 0.04265555739402771, -0.0207529254257679, -0.036533843725919724, 0.0010057836771011353, -0.06744503974914551, 0.05963063985109329, 0.0012882053852081299, -0.047926176339387894, -0.04704216867685318, -0.06331838667392731, -0.004605479538440704, 0.01152985543012619, -0.013877816498279572, -0.06634348630905151, -0.0037329643964767456, 0.01911746710538864, -0.0015236511826515198, 0.05024737864732742, -0.0015178397297859192, 0.04009634256362915, 0.02502569556236267, 0.005004964768886566, 0.013829320669174194, -0.01797373592853546, -0.0004797130823135376, 0.01506119966506958, 0.010643936693668365, -0.02736489847302437, -0.003806881606578827, -0.03938410431146622, 0.016561225056648254, -0.06928039342164993, -0.003002673387527466, 0.045880645513534546, 0.03973653167486191, 0.06855607777833939, -0.006299450993537903, -0.06143492832779884, -0.014723524451255798, 0.05139937251806259, -0.02694450318813324, -0.03247997537255287, 0.029064714908599854, -0.03771520406007767, -0.027938898652791977, -0.029669947922229767, 0.03461708128452301, 0.006714552640914917, -0.02891562506556511, -0.05485035479068756, 0.006752192974090576, -0.023899797350168228, -0.006380103528499603, -0.04723188281059265, 0.012430310249328613, -0.05000406503677368, 0.054824478924274445, -0.044353634119033813, -0.00809020921587944, -0.019232600927352905, 0.029065243899822235, -0.03533511981368065, -0.034790974110364914, 0.015391342341899872, 0.03806515783071518, 0.013261258602142334, -0.02609729766845703, 0.04049782454967499, -0.06268378347158432, 0.02700907737016678, -0.02193748578429222, 0.045666761696338654, -0.039454441517591476, -0.04748775064945221, 0.035649374127388, -0.0674196407198906, -0.026894040405750275, -0.049524515867233276, -0.062455371022224426, 0.02724788337945938, -0.010751757770776749, -0.022083017975091934, 0.0339183509349823, 0.01078265905380249, 0.008563168346881866, -0.006592147052288055, -0.05117303878068924, 0.06861279159784317, 0.021329469978809357, -0.008792024105787277, 0.05557788163423538, 0.006936267018318176, -0.002677641808986664, 0.0498654842376709, 0.04470818489789963, -0.02944377437233925, -0.061480093747377396, 0.059240929782390594, -0.03387344256043434, 0.061213232576847076, -0.03787721320986748, 0.05139140039682388, -0.04749263823032379, -0.01789044961333275, -0.05644211173057556, -0.05411161482334137, 0.06695636361837387, -0.03546908497810364, 0.03676553815603256, -0.03207108750939369, -0.01889016106724739, 0.06093301624059677, -0.066002257168293, 0.040884800255298615, -0.0067252591252326965, 0.032477229833602905, 0.021218977868556976, -0.05852170288562775, -0.023217670619487762, 0.02510547637939453, 0.036768168210983276, 0.03776562958955765, -0.06823375821113586, -0.061751432716846466, 0.02252577245235443, 0.056909941136837006, -0.04133131727576256, -0.014513812959194183, -0.035807788372039795, -0.04963464289903641, 0.0023256316781044006, 0.0033744946122169495, 0.04039973020553589, 0.061322130262851715, 0.06198117882013321, -0.01568378508090973, 0.021172411739826202, -0.024703238159418106, -0.011979930102825165, 0.019479475915431976, 0.049153611063957214, -0.04049210995435715, 0.047029390931129456, 0.03706597536802292, -0.010370362550020218, -0.01673060655593872, 0.06556008011102676, -0.014708451926708221, 0.048477157950401306, 0.045843884348869324, 0.053978703916072845, 0.007942616939544678, 0.06777375191450119, -0.05204809829592705, 0.04978720098733902, 0.024007149040699005, -0.06320691853761673, -0.025635357946157455, -0.030426587909460068, 0.01945987343788147, -0.03601386025547981, 0.032555751502513885, 0.01887671649456024, 0.030634313821792603, 0.0011108070611953735, 0.057392917573451996, 0.017887532711029053, -0.04206029325723648, -0.03904584050178528, 0.04924605041742325, 0.04194464534521103, 0.01881558448076248, 0.019719794392585754, 0.027565494179725647, -0.06926668435335159, 0.05291566997766495, -0.06755135953426361, 0.06486641615629196, -0.019995924085378647, 0.03717219829559326, -0.043802112340927124, -0.018611226230859756, 0.010497704148292542, 0.006111949682235718, 0.025658749043941498, 0.04727764427661896, 0.042340271174907684, -0.05117252469062805, 0.06202401965856552, -0.050280265510082245, 0.05748898535966873, -0.0669989287853241, 0.03647513687610626, 0.0669502392411232, 0.05434800684452057, -0.018981292843818665, -0.024211976677179337, -0.06261621415615082, 0.020162761211395264, 0.005853757262229919, 0.020544379949569702, -0.04308939352631569, 0.032019518315792084, 0.02844788134098053, 0.01452135294675827, -0.011104188859462738, 0.06449157744646072, -0.06035228073596954, 0.05965449661016464, 0.02536599338054657, 0.022107243537902832, 0.055528588593006134, -0.006317444145679474, -0.0015871822834014893, -0.03360317274928093, -0.06073426082730293, 0.009484872221946716, 0.05847323685884476, -0.03794987499713898, -0.030597377568483353, 0.03075478971004486, 0.021014340221881866, -0.036299191415309906, 0.0013579577207565308, -0.03409075736999512, -0.03851454704999924, 0.025790415704250336, -0.06399883329868317, -0.044458284974098206, -0.0246867835521698, 0.001917511224746704, -0.033261872828006744, -0.04496700316667557, 0.06642762571573257, 0.06064204126596451, -0.03416105732321739, -0.06277384608983994, -0.031703297048807144, 0.0018579959869384766, 0.0017673000693321228, -0.010292276740074158, -0.024574115872383118, 0.021183252334594727, -0.005585826933383942, 0.0021018385887145996, -0.04011840373277664, 0.028657779097557068, -0.027864977717399597, -0.02533382922410965, 0.05547221750020981, -0.0252348855137825, -0.029422692954540253, -0.0008673369884490967, -0.034729938954114914, 0.06839590519666672, -0.017175886780023575, -0.024472378194332123, 0.06617305427789688, -0.06356405466794968, 0.05992012470960617, -0.031199980527162552, 0.02997298538684845, 0.006689473986625671, 0.01259911060333252, 0.005225710570812225, -0.02909175306558609, -0.06568694114685059, 0.0413278266787529, 0.05474808067083359, 0.016579054296016693, -0.06545481830835342, 0.03709373623132706, -0.03317764401435852, -0.05670640617609024, -0.00860583409667015, 0.001486271619796753, -0.0652419775724411, -0.03296409174799919, -0.028769243508577347, 0.05564924329519272, 0.015807993710041046, -0.04349441081285477, 0.04384402185678482, -0.011180609464645386, -0.047134578227996826, 0.059593893587589264, 0.0666404590010643, 0.007717527449131012, -0.01568244770169258, -0.047122444957494736, -0.0351339690387249, -0.057744093239307404, -0.05811288580298424, 0.05849889665842056, -0.06496160477399826, -0.005982711911201477, -0.000836499035358429, 0.05735389143228531, 0.020378664135932922, 0.0019612014293670654, -0.02489088475704193, 0.001316361129283905, 0.04995068162679672, -0.0025872886180877686, 0.05482025444507599, -0.014513742178678513, -0.05427631735801697, -0.00020816922187805176, -0.012763071805238724, -0.028219163417816162, -0.023144055157899857, -0.003676801919937134, 0.009363852441310883, 0.05819178372621536, 0.0482763797044754, 0.016024142503738403, 0.01489364355802536, -0.023401200771331787, -0.0007557719945907593, -0.048691898584365845, -0.02659868821501732, -0.05759425088763237, 0.024440228939056396, -0.05411984771490097, -0.062103770673274994, 0.03824419528245926, -0.030210178345441818, 0.04066735506057739, -0.03502360358834267, -0.04596558213233948, 0.00906652957201004, 0.02171771228313446, -0.017899252474308014, 0.04589826613664627, 0.06726010888814926, 0.023105621337890625, 0.02546970546245575, 0.008731842041015625, -0.04181564599275589, 0.061620377004146576, -0.020695511251688004, 0.05216343700885773, -0.06333114206790924, 0.06714393943548203, 0.009312637150287628, 0.03204115480184555, -0.004720680415630341, -0.05917946249246597, -0.018848586827516556, 0.06870103627443314, 0.009729571640491486, -0.05425547435879707, -0.06762644648551941, 0.02889201045036316, 0.058427594602108, -0.008278589695692062, 0.03943398594856262, -0.05542958527803421, 0.007837310433387756, 0.06867366284132004, -0.009965740144252777, 0.03202284872531891, -0.014620255678892136, -0.06663841009140015, 0.03267984837293625, 0.0636177733540535, 0.03630116581916809, -0.04513431340456009, -0.032694023102521896, 0.051059454679489136, 0.05254029482603073, 0.012984216213226318, -0.00666462630033493, 0.006332099437713623, 0.060862503945827484, -0.03541134297847748, -0.06494604796171188, 0.031031064689159393, -0.014044046401977539, -0.02629702165722847, 0.06312710791826248, -0.02759113907814026, -0.05191555619239807, 0.06952039152383804, -0.008497290313243866, 0.05728498846292496, -0.03294777870178223, 0.009992226958274841, 0.05111031234264374, 0.02460239827632904, 0.0642584040760994, -0.001708589494228363, -0.05346284061670303, -0.007642529904842377, -0.0617743544280529, 0.05172868072986603, -0.06617645919322968, -0.05624017491936684, -0.05997474491596222, -0.011524021625518799, -0.005236044526100159, -0.024515300989151, 0.029538512229919434, 0.041462332010269165, 0.0384063720703125, -0.00302693247795105, -0.06867597997188568, -0.04657157510519028, 0.03128967434167862, -0.008233733475208282, -0.05025897175073624, 0.06401533633470535, -0.053766898810863495, 0.015193380415439606, 0.024229519069194794, 0.05916164070367813, 0.04464227706193924, 0.04033011198043823, 0.036130622029304504, -0.014831297099590302, -0.010311029851436615, -0.04894976317882538, -0.028012897819280624, 0.06288377195596695, -0.06189747154712677, 0.04528036713600159, -0.011956054717302322, -0.014056876301765442, -0.044030822813510895, 0.0428285151720047, 0.02743387222290039, 0.057351551949977875, -0.030119433999061584, -0.0028604939579963684, -0.05013439804315567, 0.05003282427787781, -0.051505714654922485, -0.06791312247514725, -0.016719859093427658, 0.03660055249929428, 0.006575226783752441, 0.026662632822990417, -0.03792065009474754, 0.058408431708812714, -0.02026817947626114, -0.06353263556957245, -0.038068365305662155, 0.06365885585546494, -0.02148423343896866, -0.028848275542259216, -0.015247758477926254, -0.046649135649204254, -0.04482412338256836, -0.024204492568969727, 0.06290728598833084, 0.04731602966785431, -0.012565281242132187, 0.03235030174255371, 0.029976993799209595, -0.0045067667961120605, 0.04523544758558273, 0.018929868936538696, 0.002957873046398163, 0.000961698591709137, -0.01841621845960617, -0.009431373327970505, 0.04318830370903015, 0.04002927988767624, 0.012019194662570953, 0.03299170732498169, -0.014798935502767563, 0.034179821610450745, 0.0034097135066986084, 0.058580927550792694, -0.004121407866477966, -0.007774271070957184, -0.061986736953258514, -0.004150897264480591, 0.01861432194709778, -0.038226328790187836, 0.06543564051389694, -0.05452083796262741, -0.041309233754873276, 0.057781122624874115, -0.029387235641479492, 0.04229512810707092, -0.036504264920949936, -0.014679651707410812, -0.005773551762104034, -0.02079450711607933, -0.027091659605503082, -0.056178368628025055, 0.0377810075879097, -0.052203960716724396, -0.051952753216028214, 0.005161210894584656, 0.027128756046295166, -0.0073482319712638855, 0.032676368951797485, -0.02286006137728691, 0.023198850452899933, 0.021709293127059937, -0.061414819210767746, 0.059686921536922455, 0.03356357663869858, -0.0001707524061203003, -0.04280136898159981, 0.028266876935958862, 0.03697637468576431, -0.059353332966566086, -0.059587277472019196, -0.012852393090724945, -0.05112961679697037, 0.008393995463848114, 0.023991338908672333, 0.023567259311676025, 0.00402088463306427, -0.06374029815196991, 0.0018293783068656921, -0.04559192806482315, 0.015558652579784393, -0.06156152859330177, -0.040827427059412, -0.02100113406777382, 0.04527238756418228, 0.01681838184595108, -0.039566487073898315, 0.03763274848461151, -0.02289053052663803, -0.011884290724992752, 0.04633762687444687, 0.04853273928165436, 0.03139263391494751, -0.021310094743967056, 0.0036887824535369873, -0.012991100549697876, -0.051219068467617035, 0.05068477243185043, 0.04127843677997589, -0.011174384504556656, -0.03961579501628876, -0.06584801524877548, 0.03338286280632019, 0.030830509960651398, 0.00831768661737442, -0.03707844018936157, 0.005169205367565155, 0.004357337951660156, 0.025873981416225433, 0.016563698649406433, 0.05389971286058426, -0.06713653355836868, -0.03876113146543503, 0.0391385480761528, 0.013930782675743103, 0.05282219499349594, -0.06271311640739441, -0.032855574041604996, 0.02826421707868576, 0.03440038859844208, 0.043764278292655945, -0.02649042382836342, -0.006831899285316467, -0.01112806424498558, 0.04732499271631241, -0.06269758939743042, -0.05258123576641083, -0.05838871747255325, 0.0647500529885292, -0.0175173357129097, 0.0603942945599556, 0.021397076547145844, 0.0050772204995155334, -0.046929068863391876, 0.03342688828706741, 0.0513681098818779, -0.04202357679605484, -0.012463580816984177, -0.05517636612057686, 0.04734963923692703, -0.028973694890737534, -0.03881722688674927, 0.03199170529842377, -0.01688191294670105, -0.04434409737586975, 4.617869853973389e-05, 0.06277037411928177, -0.028977446258068085, -0.018957093358039856, -0.04461103677749634, -0.03677523881196976, -0.050297074019908905, 0.0044122114777565, 0.03080468624830246, -0.022617176175117493, -0.029197964817285538, 0.005922131240367889, -0.029267948120832443, -0.06621044129133224, 0.031071938574314117, -0.01607421785593033, 0.0155644491314888, 0.006557062268257141, -0.0428493358194828, 0.0656510666012764, -0.021873999387025833, 0.01634123921394348, 0.0273873433470726, -0.04706427827477455, 0.033491745591163635, -0.05696484073996544, 0.03127434849739075, 0.037402406334877014, -0.06117236986756325, -0.020675353705883026, -0.03875785693526268, -0.013642001897096634, 0.017370522022247314, -0.020377494394779205, 0.009031325578689575, -0.05653037503361702, 0.021157212555408478, -0.06500592827796936, 0.0414455309510231, 0.06835664063692093, 0.028342127799987793, 0.0030927062034606934, -0.02440262958407402, -0.05591079592704773, -0.024658724665641785, -0.06731297820806503, 0.054191090166568756, -0.05941291153430939, -0.021044742316007614, -0.04721973091363907, -0.021734971553087234, -0.03095584735274315, -0.057845521718263626, 0.002256922423839569, 0.06708265095949173, 0.008957259356975555, 0.017476707696914673, -0.05534021183848381, -0.009109735488891602, 0.06081844121217728, 0.058126769959926605, -0.02475442737340927, 0.06034325808286667, 0.05242181569337845, 0.057866357266902924, 0.0189947709441185, -0.06191731244325638, 0.002411887049674988, -0.06031453236937523, 0.05931020528078079, -0.04128533974289894, 0.053527675569057465, -0.05581337958574295, 0.01389121264219284, 0.023396477103233337, -0.0015249475836753845, -0.030404437333345413, 0.020413458347320557, 0.04817959666252136, -0.0633104145526886, -0.03074287623167038, -0.01616676151752472, -0.019146472215652466, -0.03600411117076874, -0.015181314200162888, -0.018371056765317917, 0.06957405060529709, 0.06778518110513687, 0.04987040162086487, 0.027309730648994446, -0.030023805797100067, -0.02662568911910057, 0.04461930692195892, 0.03476240485906601, 0.043131835758686066, 0.0018667429685592651, 0.06778685003519058, -0.044554926455020905, -0.01516781747341156, -0.06684259325265884, -0.008278436958789825, 0.017379581928253174, 0.032139502465724945, -0.04475964233279228, 0.009233824908733368, 0.02190830558538437, 0.01150377094745636, 0.007904529571533203, 0.06891914457082748, 0.05829717963933945, -0.03067336231470108, 0.06510896235704422, 0.04421994090080261, 0.051186539232730865, -0.028490133583545685, 0.06180689483880997, 0.031858816742897034, 0.014200538396835327, -0.05821802839636803, 0.0041368454694747925, -0.013643927872180939, 0.031411878764629364, -0.026029720902442932, -0.028455067425966263, -0.009205259382724762, 0.01842852681875229, -0.06851858645677567, 0.004037745296955109, -0.029873128980398178, 0.00035022199153900146, 0.06831016391515732, -0.06395810097455978, 0.052825748920440674, 0.026018783450126648, -0.0018197521567344666, -0.009950477629899979, 0.029655076563358307, -0.04724537953734398, -0.050471231341362, -0.004636421799659729, 0.005992040038108826, 0.059345416724681854, -0.012530490756034851, -0.042185910046100616, 0.06801394373178482, -0.058559682220220566, -0.0696476623415947, 0.042193375527858734, -0.06509608030319214, 0.05967835336923599, 0.013279229402542114, 0.011902019381523132, 0.005782902240753174, 0.06603182107210159, 0.003861531615257263, -0.06279998272657394, 0.00455726683139801, 0.05139189958572388, -0.015126243233680725, 0.05711928755044937, -0.05656836926937103, 0.043871231377124786, 0.043381206691265106, 0.020656317472457886, -0.01515766978263855, -0.06723763048648834, -0.024507585912942886, -0.057771049439907074, 0.042871564626693726, -0.010543782263994217, -0.03537334129214287, 0.059820301830768585, -0.01012173667550087, 0.030983977019786835, -0.06947397440671921, 0.010046623647212982, -0.03979269415140152, 0.006634272634983063, -0.04924185574054718, 0.010431095957756042, 0.05574429780244827, -0.03635847568511963, -0.014300260692834854, -0.03922473266720772, 0.0579848513007164, -0.0037813708186149597, -0.032815273851156235, 0.04312555491924286, 0.043209269642829895, 0.02320493757724762, 0.028613470494747162, -0.022764436900615692, -0.04355062544345856, -0.05873936787247658, 0.06301809102296829, 0.06832187622785568, 0.005926653742790222, 0.018122144043445587, 0.0542406290769577, 0.023444920778274536, 0.03824586421251297, 0.03145613521337509, -0.03696856275200844, 0.04845190793275833, 0.005313873291015625, -0.06749999523162842, 0.02710898220539093, 0.05373860150575638, 0.04658644646406174, -0.0288534052670002, -0.044117264449596405, -0.007795795798301697, -0.013328835368156433, 0.06333743780851364, -0.02689775824546814, -0.005258515477180481, -0.00407487154006958, 0.06702906638383865, 0.05076824873685837, -0.005548432469367981, 0.055802009999752045, 0.061730243265628815, -0.009854137897491455, 0.05845623463392258, -0.02332228422164917, -0.032388925552368164, -0.024341318756341934, 0.02753385901451111, 0.053323954343795776, 0.03070366382598877, 0.0686267539858818, 0.015671782195568085, 0.006308913230895996, -0.023229114711284637, -0.04001850634813309, -0.00808422639966011, -0.05527937784790993, 0.06555461138486862, -0.01888522133231163, 0.00527963787317276, 0.06563685089349747, -0.02716854214668274, -0.06543190777301788, -0.0324576273560524, -0.05278002470731735, 0.0515294075012207, 0.010300315916538239, 0.0479426383972168, -0.006977304816246033, 0.05993082374334335, -0.05930732190608978, -0.023465551435947418, 0.020215146243572235, 0.03375023603439331, -0.046148814260959625, 0.06647602468729019, -0.039118118584156036, -0.012086961418390274, 0.006606742739677429, -0.041248004883527756, -6.28158450126648e-05, 0.06128775328397751, 0.05334653705358505, 0.016851112246513367, -0.0644177570939064, 0.028470918536186218, 0.06383740156888962, -0.0067621320486068726, -0.038054607808589935, 0.00982309877872467, -0.04147077351808548, 0.03206196427345276, -0.01356741413474083, -0.05021771788597107, 0.06881105154752731, 0.03602368384599686, -0.03890995681285858, -0.024482637643814087, 0.026604898273944855, -0.0037050172686576843, 0.029324635863304138, -0.0022596046328544617, -0.026368383318185806, 0.038600318133831024, -0.04874567687511444, -0.014436554163694382, -0.025817502290010452, 0.02099575102329254, 0.04645457863807678, -0.03530106320977211, 0.028600260615348816, 0.006930559873580933, 0.023362331092357635, -0.024108435958623886, -0.01826959103345871, -0.037733208388090134, 0.06119867414236069, -0.05994744598865509, -0.06602822244167328, -0.047461844980716705, 0.04730095714330673, -0.06419477611780167, 0.04667899012565613, -0.029451236128807068, -0.014423996210098267, 0.03919169306755066, 0.03290142863988876, 0.007544025778770447, -0.00446639209985733, 0.0593649223446846, 0.02781778573989868, 0.02080690860748291, 0.005057930946350098, -0.054061345756053925, 0.011058889329433441, -0.023053854703903198, 0.03129664063453674, 0.009375914931297302, 0.05526227504014969, 0.0689442977309227, -0.06396923214197159, 0.011400729417800903, -0.03674907237291336, -0.04140471667051315, -0.0011906102299690247, -0.02739834040403366, -0.0625651553273201, -0.05854397267103195, 0.04546414315700531, -0.04312177374958992, -0.06502743810415268, -0.01240372285246849, -0.016446318477392197, 0.06945761293172836, -0.0007954388856887817, 0.054478488862514496, -0.049100279808044434, -0.0675392597913742, 0.002559579908847809, -0.0002498328685760498, -0.04345165938138962, -0.045449502766132355, -0.04592186212539673, 0.019062422215938568, -0.062358319759368896, -0.035286303609609604, -0.06424597650766373, -0.015566177666187286, 0.06798561662435532, -0.04259942099452019, 0.008196517825126648, -0.00620676577091217, 0.024318233132362366, 0.0641334280371666, -0.05738668516278267, 0.048384495079517365, 0.033090077340602875, -0.027456805109977722, 0.06488772481679916, 0.022100791335105896, 0.042993925511837006, 0.0197494775056839, -0.007352001965045929, -0.0020237937569618225, -0.013721421360969543, -0.04002455249428749, -0.006831169128417969, -0.041087254881858826, 0.04044336825609207, 0.05603037029504776, 0.06282573193311691, 0.0685039535164833, -0.018565796315670013, 0.04264635592699051, -0.03052842989563942, -0.06250718235969543, -0.037250857800245285, 0.013809926807880402, 0.03771977871656418, -0.02205481380224228, -0.02787773311138153, 0.034779928624629974, -0.0527249276638031, -0.013530883938074112, 0.0002919808030128479, -0.05031844228506088, 0.06431401520967484, 0.03775209188461304, 0.06508969515562057, -0.0044844746589660645, -0.0065806955099105835, -0.030538354068994522, -0.004758790135383606, -0.05892660468816757, 0.014706172049045563, 0.029277414083480835, -0.03636131435632706, -0.046554598957300186, 0.0646943524479866, -0.002844005823135376, -0.0480317696928978, 0.03566014766693115, -0.036920759826898575, 0.024007797241210938, 0.057259492576122284, -0.03455838933587074, 0.022728674113750458, -0.005494028329849243, -0.04749210923910141, -0.036046821624040604, -0.03948422521352768, -0.06872054934501648, -0.042886845767498016, 0.02011200785636902, -0.03742673620581627, 0.03181810677051544, -0.012179944664239883, -0.005794413387775421, -0.06988400965929031, 0.04896368086338043, -0.048423539847135544, 0.008822329342365265, -0.02031002938747406, -0.012451447546482086, -0.0018537342548370361, 0.055794037878513336, -0.034577254205942154, 0.052443183958530426, 0.03175544738769531, -0.06738892942667007, 0.054790809750556946, -0.02676737681031227, 0.055737532675266266, -0.027993880212306976, -0.0358797051012516, -0.05887563154101372, -0.021335728466510773, -0.04789812117815018, 0.061766572296619415, 0.01788531243801117, -0.04981881380081177, -0.029953423887491226, -0.06500617414712906, -0.0012113526463508606, 0.0384511798620224, -0.014244448393583298, 0.05081235617399216, -0.0515843890607357, -0.023606106638908386, 0.04748671501874924, 0.03295004367828369, 0.045425720512866974, 0.007600821554660797, -0.02227048948407173, 0.011813394725322723, -0.06610472500324249, 0.05076616257429123, 0.003950648009777069, 0.04843028634786606, 0.01839815080165863, -0.06622197479009628, 0.03292723745107651, 0.0070846304297447205, 0.06478946655988693, -0.031687039881944656, -0.004639580845832825, -0.06879523396492004, -0.016677383333444595, 0.03739479184150696, -0.06920228153467178, -0.04544616490602493, -0.02968284860253334, 0.06905599683523178, 0.06768893450498581, -0.05483131855726242, -0.0539889931678772, -0.000455707311630249, 0.009617231786251068, 0.0390755757689476, 0.06519343703985214, -0.04250533878803253, -0.05653282627463341, 0.046790480613708496, 0.05908655375242233, 0.02976960688829422, -0.020096536725759506, 0.00702735036611557, 0.06585633009672165, 0.05854172259569168, 0.04389098286628723, -0.004499070346355438, 0.050005458295345306, -0.059942882508039474, 0.014762364327907562, -0.0005515515804290771, 0.049679286777973175, -0.01670454442501068, 0.016586966812610626, -0.048616111278533936, -0.04376618564128876, -0.0680031105875969, 0.019238919019699097, -0.034120719879865646, 0.031238600611686707, -0.051193561404943466, 0.02181059867143631, -0.0338842049241066, 0.05264917016029358, -0.04382758587598801, 0.004255659878253937, 0.026936180889606476, -0.00818302109837532, 0.01904875785112381, 0.0013448894023895264, -0.020119808614253998, 0.05074039846658707, -0.06950362026691437, 0.06064761430025101, -0.0035002529621124268, 0.0637756809592247, -0.01856471225619316, 0.031025737524032593, -0.06527434289455414, 0.0540979728102684, 0.06348405033349991, -0.061066173017024994, -0.03857405483722687, -0.05587472394108772, 0.0122428759932518, 0.027094751596450806, 0.00755174458026886, 0.03459876775741577, -0.03838958218693733, 0.004535287618637085, 0.05243339389562607, 0.06842785328626633, 0.05886160582304001, -0.06461358815431595, -0.006017223000526428, 0.046481937170028687, -0.04652886837720871, 0.020995020866394043, -0.06500620394945145, -0.06056435778737068, -0.04537121206521988, -0.011205263435840607, 0.002037346363067627, 0.05094965547323227, -0.04688030853867531, 0.02575945109128952, 0.004560157656669617, -0.06881781667470932, 0.025075241923332214, -0.04457270726561546, -0.02819032222032547, -0.03983447700738907, -0.06627004593610764, 0.03761511296033859, -0.06688418239355087, 0.016941338777542114, 0.06055092066526413, -0.004575610160827637, -0.033986009657382965, 0.028676435351371765, -0.02679530531167984, -0.062132932245731354, 0.01148425042629242, -0.02482670173048973, 0.041994258761405945, -0.029481153935194016, -0.06555455178022385, 0.06202464550733566, -0.04784313216805458, 0.013415344059467316, -0.05530320852994919, -0.06728581339120865, -0.024010811001062393, 0.028994396328926086, -0.03731578215956688, 0.030973196029663086, 0.05213967710733414, -0.06546536087989807, -0.019158344715833664, -0.018074139952659607, -0.05236753076314926, 0.0665815994143486, -0.021797239780426025, 0.03627679497003555, 0.04036349803209305, 0.05779210478067398, -0.05092305690050125, 0.023945406079292297, -0.02974141761660576, 0.051083505153656006, -0.0019564181566238403, 1.4156103134155273e-06, -0.04453657567501068, 0.050699785351753235, 0.028298906981945038, 0.05464912950992584, -0.038119781762361526, -0.016926206648349762, 0.01616101711988449, -0.014528915286064148, 0.06543373316526413, -0.038578156381845474, -0.046883828938007355, -0.03419872000813484, -0.05082431808114052, -0.027527306228876114, -0.005949303507804871, 0.00860472023487091, 0.014647647738456726, 0.04102788120508194, -0.002857118844985962, 0.01821797341108322, -0.024227328598499298, 0.0020724087953567505, -0.02530566230416298, 0.005474768579006195, 0.005855672061443329, -0.05382991582155228, -0.0661119744181633, -0.023577146232128143, 0.05863357335329056, -0.03470999002456665, 0.03594851493835449, 0.06370123475790024, 0.010601259768009186, -0.013684779405593872, -0.04937862604856491, -0.05672271549701691, -0.016728993505239487, 0.03859754651784897, 0.009861648082733154, -0.05738603323698044, -0.004872038960456848, -0.020964644849300385, 0.022999368607997894, 0.04030236601829529, -0.05586192011833191, 0.004148274660110474, -0.017202802002429962, 0.001851096749305725, -0.05837103724479675, 0.05033477395772934, -0.019243434071540833, 0.029138244688510895, 0.022075898945331573, -0.05162817984819412, 0.021933354437351227, -0.015876099467277527, -0.0423106849193573, -0.024861980229616165, 0.04033198952674866, -0.009226799011230469, 0.02326902747154236, -0.022702153772115707, -0.014525294303894043, 0.03997693955898285, -0.057505518198013306, 0.060737065970897675, 0.010903112590312958, -0.06704379618167877, 0.0236746147274971, 0.03806191682815552, -0.02636886015534401, 0.003169730305671692, -0.06590119004249573, -0.027473945170640945, -0.017249464988708496, -0.006051495671272278, -0.03938969224691391, 0.009850800037384033, -0.03698703646659851, -0.02861875668168068, -0.055902883410453796, 0.029806718230247498, -0.0075495243072509766, -0.04576537013053894, -0.04277699440717697, -0.06894323229789734, -0.0656115785241127, 0.058165453374385834, -0.04685942083597183, -0.02976391837000847, 0.037945978343486786, 0.04757280647754669, 0.031194567680358887, -0.049064867198467255, -0.06844402104616165, -0.003636576235294342, 0.00727689266204834, 0.04236982762813568, -0.05424829572439194, -0.026723019778728485, 0.06619527190923691, 0.054142504930496216, -0.037852730602025986, 0.0653119757771492, 0.035062022507190704, -0.04735514149069786, -0.061815496534109116, -0.05856174975633621, -0.004179634153842926, -0.004559844732284546, 0.02481575310230255, -0.0021649524569511414, 0.01184837520122528, -0.022175587713718414, -0.0332801453769207, 0.022634856402873993, -0.027010947465896606, -0.06522990763187408, -0.022211924195289612, -0.05590338259935379, 0.03116460144519806, 0.002022355794906616, 0.055895544588565826, -0.024798113852739334, 0.050320371985435486, 0.033799588680267334, -0.06749122589826584, -0.034147851169109344, -0.05761668458580971, -0.006461702287197113, 0.049779899418354034, -0.042915381491184235, -0.055361561477184296, 0.009393736720085144, 0.050927579402923584, 0.030625052750110626, 0.062122128903865814, -0.01423662155866623, 0.024261265993118286, 0.014200881123542786, 0.05168856680393219, -0.047186970710754395, 0.03778453171253204, -0.0025199726223945618, 0.015821516513824463, -0.05496029928326607, 0.0240977481007576, -0.04839973896741867, 0.0566750094294548, -0.004508018493652344, -0.061371415853500366, 0.023005850613117218, 0.03157436102628708, -0.05651881918311119, -0.026803988963365555, -0.06160029023885727, 0.046096235513687134, -0.025889266282320023, -0.026961639523506165, -0.014325182884931564, -0.0017690062522888184, -0.020309772342443466, 0.005034886300563812, 0.02801404893398285, -0.03147811442613602, 0.012677818536758423, -0.01135251671075821, 0.06798883527517319, 0.0021380186080932617, 0.04051730036735535, -0.03499601408839226, -0.059307314455509186, 0.044159725308418274, -0.028975721448659897, -0.06983286887407303, 0.06827675551176071, -0.052426666021347046, -0.009281862527132034, -0.05148372799158096, -0.04408468306064606, -0.036716658622026443, -0.06931491941213608, 0.015166163444519043, 0.04646546393632889, -0.02904612571001053, 0.030331842601299286, -0.05873556435108185, -0.03435242176055908, 0.0471014678478241, 0.017795205116271973, -0.06326225399971008, 0.0342072919011116, -0.006738252937793732, -0.03152576833963394, 0.062332071363925934, 0.004190564155578613, 0.03390083461999893, 0.007253676652908325, -0.026132769882678986, 0.06353474408388138, -0.04077613353729248, 0.046450212597846985, -0.03969778120517731, -0.06586609035730362, -0.06560362130403519, 0.01987941563129425, -0.03779445216059685, -0.04811841994524002, 0.05986226350069046, 0.05832845717668533, -0.04483916983008385, -0.042643673717975616, -0.034830544143915176, 0.025123119354248047, 0.024920806288719177, 0.05476231127977371, 0.05310466140508652, -0.06289861351251602, 0.006419196724891663, 0.04064622521400452, -0.0634346604347229, 0.004183173179626465, -0.012657608836889267, 0.019531063735485077, 0.029186591506004333, 0.06730624288320541, 0.015508748590946198, 0.005990892648696899, 0.005052104592323303, 0.021655775606632233, 0.004187598824501038, -0.04744241386651993, 0.0034572407603263855, 0.05044533312320709, 0.02426093816757202, -0.042528070509433746, -0.04464799910783768, -0.003537803888320923, -0.009473450481891632, -0.023078713566064835, 0.05672382563352585, -0.015575923025608063, 0.01278597116470337, 0.0023029744625091553, 0.060781143605709076, -0.05603209510445595, -0.001631610095500946, 0.029808469116687775, 0.06939723342657089, -0.06274188309907913, -0.035558976233005524, -0.058085814118385315, 0.0597272589802742, 0.007438056170940399, -0.05996611714363098, 0.0060330405831336975, -0.006783761084079742, 0.00972159206867218, 0.04240249842405319, 0.04235833138227463, -0.04264427721500397, 0.013382948935031891, 0.030443452298641205, 0.00673288106918335, 0.06450933963060379, 0.016730114817619324, -0.04485958814620972, -0.038233812898397446, 0.023052074015140533, 0.027903929352760315, -0.06551218032836914, 0.02515362948179245, 0.021162234246730804, -0.006196275353431702, -0.03692634031176567, -0.051282063126564026, 0.05902861803770065, -0.057795360684394836, -0.038331467658281326, 0.01876794546842575, -0.04046666994690895, -0.05827224254608154, 0.0351993590593338, -0.015921108424663544, 0.0020850449800491333, -0.04370267689228058, -0.04067719727754593, 0.004152171313762665, -0.0323505736887455, -0.03368799760937691, -0.06133152171969414, 0.06060544401407242, 0.036912254989147186, -0.04635707288980484, 0.06924126297235489, 0.03824391961097717, -0.028522580862045288, 0.00858885794878006, 0.017729513347148895, -0.025524716824293137, 0.0150638148188591, -0.03122347965836525, 0.008957900106906891, 0.004328012466430664, -0.04611973464488983, -0.0009070858359336853, 0.004409804940223694, -0.04329987242817879, -0.05379028245806694, 0.040318794548511505, -0.06625645607709885, -0.042182356119155884, -0.017853211611509323, -0.05560346320271492, -0.01891837641596794, -0.017971988767385483, -0.059892259538173676, -0.05943238362669945, 0.0035941600799560547, 0.03382274508476257, 0.03827383369207382, 0.05160454660654068, 0.05485016107559204, 0.06345590204000473, 0.06522425264120102, 0.050771020352840424, -0.028719674795866013, 0.009183615446090698, -0.06683944165706635, 0.02198689430952072, -0.013321634382009506, -0.007115021347999573, -0.029802460223436356, -0.05356631055474281, 0.0008001253008842468, -0.045451633632183075, -0.039161987602710724, 0.057674430310726166, 0.06790567189455032, -0.031953468918800354, 0.03617829829454422, -0.05032801628112793, 0.056488461792469025, -0.05389271676540375, -0.06050513684749603, 0.0004010498523712158, 0.0502399280667305, -0.04921925812959671, 0.04498352110385895, 0.011149071156978607, -0.012284375727176666, 0.02437750995159149, 0.06347944587469101, -0.013369947671890259, -0.028505682945251465, 0.02468515932559967, 0.0010125935077667236, -0.04228945076465607, 0.026868179440498352, -0.03777966648340225, -0.02852511778473854, -0.0499725416302681, 0.0276961550116539, 0.05712225288152695, -0.024709384888410568, -0.06146813556551933, -0.015726719051599503, 0.024683065712451935, -0.025643441826105118, -0.05221548676490784, -0.02659846469759941, 0.025918804109096527, 0.06800144165754318, -0.009120173752307892, 0.004072047770023346, -0.04626597464084625, 0.04835209995508194, -0.05048205330967903, 0.06350352615118027, -0.021817442029714584, -0.06474965810775757, 0.06644117087125778, 0.04505534470081329, 0.006757259368896484, 0.05546656996011734, -0.06926190108060837, 0.002922661602497101, -0.06672253459692001, 0.06528269499540329, -0.007019750773906708, 0.06089114397764206, 0.011490508913993835, 0.04284898191690445, -0.06972721219062805, 0.055955372750759125, -0.041147686541080475, -0.01737331598997116, 0.038011521100997925, 0.020196057856082916, 0.03341902047395706, -0.009754613041877747, -0.05500373989343643, 0.006239853799343109, -0.019224032759666443, 0.06298146396875381, 0.04607336223125458, -0.031092658638954163, -0.020521271973848343, -0.0004663318395614624, -0.057830214500427246, 0.06318940967321396, -0.04015902057290077, -0.043940749019384384, -0.020955216139554977, 0.04783821105957031, -0.03740619122982025, -0.021056856960058212, -0.06392945349216461, -0.01833842322230339, 0.04790925234556198, 0.022661283612251282, -0.0443253368139267, 0.04654566943645477, 0.006829969584941864, -0.01377897709608078, -0.03449754789471626, -0.056869566440582275, 0.03374326229095459, 0.04323432594537735, 0.02494143694639206, -0.06571972370147705, 0.05984727293252945, 0.05062670260667801, -0.006641082465648651, -0.048100896179676056, 0.0328928679227829, -0.045897047966718674, 0.02445969730615616, -0.005788624286651611, 0.0583181157708168, -0.029034726321697235, 0.014012694358825684, 0.02913675457239151, 0.009716995060443878, -0.040195267647504807, -0.03828686848282814, -0.048574600368738174, 0.05616041272878647, 0.025496050715446472, -0.06695087999105453, 0.02546314150094986, 